<?xml version="1.0"?>
<opencv_storage>
<stage25>
  <maxWeakCount>90</maxWeakCount>
  <stageThreshold>-7.2197914123535156e-01</stageThreshold>
  <weakClassifiers>
    <_>
      <internalNodes>
        0 -1 106761 -2.9839011840522289e-03</internalNodes>
      <leafValues>
        2.1423275768756866e-01 -1.7504543066024780e-01</leafValues></_>
    <_>
      <internalNodes>
        0 -1 5882 1.1071857996284962e-02</internalNodes>
      <leafValues>
        -9.6694253385066986e-02 3.2829925417900085e-01</leafValues></_>
    <_>
      <internalNodes>
        0 -1 157649 -1.2985501438379288e-02</internalNodes>
      <leafValues>
        -2.7063211798667908e-01 7.5612567365169525e-02</leafValues></_>
    <_>
      <internalNodes>
        0 -1 14376 1.5129884704947472e-02</internalNodes>
      <leafValues>
        -8.5632450878620148e-02 2.2962239384651184e-01</leafValues></_>
    <_>
      <internalNodes>
        0 -1 121896 -5.3014105651527643e-04</internalNodes>
      <leafValues>
        -3.0079087615013123e-01 6.9385603070259094e-02</leafValues></_>
    <_>
      <internalNodes>
        0 -1 127939 -1.6370436642318964e-03</internalNodes>
      <leafValues>
        -3.9009052515029907e-01 7.6211686246097088e-03</leafValues></_>
    <_>
      <internalNodes>
        0 -1 161117 -2.9121632687747478e-03</internalNodes>
      <leafValues>
        -3.2319581508636475e-01 6.6282652318477631e-02</leafValues></_>
    <_>
      <internalNodes>
        0 -1 159674 1.4316544402390718e-03</internalNodes>
      <leafValues>
        -3.2806396484375000e-02 5.1154875755310059e-01</leafValues></_>
    <_>
      <internalNodes>
        0 -1 69085 2.9382443055510521e-02</internalNodes>
      <leafValues>
        5.2894789725542068e-02 -4.4136193394660950e-01</leafValues></_>
    <_>
      <internalNodes>
        0 -1 79708 1.6382165485993028e-03</internalNodes>
      <leafValues>
        -8.1294476985931396e-02 2.2722694277763367e-01</leafValues></_>
    <_>
      <internalNodes>
        0 -1 79941 -2.7192039415240288e-03</internalNodes>
      <leafValues>
        1.7121887207031250e-01 -1.1081267893314362e-01</leafValues></_>
    <_>
      <internalNodes>
        0 -1 94239 8.2468974869698286e-04</internalNodes>
      <leafValues>
        -9.8556570708751678e-02 1.7145881056785583e-01</leafValues></_>
    <_>
      <internalNodes>
        0 -1 159422 1.3603207189589739e-03</internalNodes>
      <leafValues>
        7.6998859643936157e-02 -2.2719959914684296e-01</leafValues></_>
    <_>
      <internalNodes>
        0 -1 8167 -3.8790402468293905e-03</internalNodes>
      <leafValues>
        2.8289988636970520e-01 -6.2446743249893188e-02</leafValues></_>
    <_>
      <internalNodes>
        0 -1 8188 -1.1438382789492607e-03</internalNodes>
      <leafValues>
        -2.6420062780380249e-01 6.0622304677963257e-02</leafValues></_>
    <_>
      <internalNodes>
        0 -1 106097 2.2960037313168868e-05</internalNodes>
      <leafValues>
        -1.0701481997966766e-01 1.4957854151725769e-01</leafValues></_>
    <_>
      <internalNodes>
        0 -1 60150 3.3336363267153502e-03</internalNodes>
      <leafValues>
        -6.3934147357940674e-02 2.4249140918254852e-01</leafValues></_>
    <_>
      <internalNodes>
        0 -1 70428 1.3349375221878290e-03</internalNodes>
      <leafValues>
        6.8083129823207855e-02 -2.5682091712951660e-01</leafValues></_>
    <_>
      <internalNodes>
        0 -1 160959 -2.8313016518950462e-03</internalNodes>
      <leafValues>
        2.3438268899917603e-01 -6.8654544651508331e-02</leafValues></_>
    <_>
      <internalNodes>
        0 -1 94027 -8.0339998006820679e-02</internalNodes>
      <leafValues>
        -5.3062599897384644e-01 3.1789071857929230e-02</leafValues></_>
    <_>
      <internalNodes>
        0 -1 107364 3.5381105542182922e-01</internalNodes>
      <leafValues>
        1.4312877319753170e-02 -7.5305253267288208e-01</leafValues></_>
    <_>
      <internalNodes>
        0 -1 70280 -2.3419181816279888e-03</internalNodes>
      <leafValues>
        -2.8301480412483215e-01 5.1061589270830154e-02</leafValues></_>
    <_>
      <internalNodes>
        0 -1 146546 -3.8058087229728699e-03</internalNodes>
      <leafValues>
        1.6669857501983643e-01 -9.6829719841480255e-02</leafValues></_>
    <_>
      <internalNodes>
        0 -1 146645 2.4256994947791100e-04</internalNodes>
      <leafValues>
        1.0398416966199875e-01 -1.3975876569747925e-01</leafValues></_>
    <_>
      <internalNodes>
        0 -1 70055 -2.2525093299918808e-05</internalNodes>
      <leafValues>
        1.2218102067708969e-01 -1.1958716064691544e-01</leafValues></_>
    <_>
      <internalNodes>
        0 -1 118691 -5.2210725843906403e-03</internalNodes>
      <leafValues>
        2.0733088254928589e-01 -7.7127739787101746e-02</leafValues></_>
    <_>
      <internalNodes>
        0 -1 34906 5.0767714856192470e-04</internalNodes>
      <leafValues>
        6.9372370839118958e-02 -2.2330605983734131e-01</leafValues></_>
    <_>
      <internalNodes>
        0 -1 133114 -1.3144751392246690e-05</internalNodes>
      <leafValues>
        1.1430893093347549e-01 -1.4597834646701813e-01</leafValues></_>
    <_>
      <internalNodes>
        0 -1 147561 -6.2001841142773628e-03</internalNodes>
      <leafValues>
        -3.9387056231498718e-01 4.3693318963050842e-02</leafValues></_>
    <_>
      <internalNodes>
        0 -1 33719 -3.2891727983951569e-02</internalNodes>
      <leafValues>
        6.1839509010314941e-01 -2.9129669070243835e-02</leafValues></_>
    <_>
      <internalNodes>
        0 -1 567 -5.8486059308052063e-02</internalNodes>
      <leafValues>
        5.0367414951324463e-01 -2.4412855505943298e-02</leafValues></_>
    <_>
      <internalNodes>
        0 -1 152044 -3.2737146830186248e-04</internalNodes>
      <leafValues>
        1.2929466366767883e-01 -1.2119338661432266e-01</leafValues></_>
    <_>
      <internalNodes>
        0 -1 49138 9.2230476438999176e-03</internalNodes>
      <leafValues>
        -5.2764803171157837e-02 2.9673919081687927e-01</leafValues></_>
    <_>
      <internalNodes>
        0 -1 6663 -2.6637469418346882e-03</internalNodes>
      <leafValues>
        -5.2476227283477783e-01 2.6568042114377022e-02</leafValues></_>
    <_>
      <internalNodes>
        0 -1 7790 2.8273090720176697e-02</internalNodes>
      <leafValues>
        -8.7577469646930695e-02 1.8112190067768097e-01</leafValues></_>
    <_>
      <internalNodes>
        0 -1 157587 2.4369484744966030e-03</internalNodes>
      <leafValues>
        -2.3494519293308258e-02 7.7719467878341675e-01</leafValues></_>
    <_>
      <internalNodes>
        0 -1 106164 9.4501604326069355e-04</internalNodes>
      <leafValues>
        -8.3240233361721039e-02 1.7070515453815460e-01</leafValues></_>
    <_>
      <internalNodes>
        0 -1 140001 -2.0458026847336441e-04</internalNodes>
      <leafValues>
        -1.8901655077934265e-01 7.9271644353866577e-02</leafValues></_>
    <_>
      <internalNodes>
        0 -1 139156 -5.6673464132472873e-04</internalNodes>
      <leafValues>
        -2.0038484036922455e-01 6.9726116955280304e-02</leafValues></_>
    <_>
      <internalNodes>
        0 -1 109152 -5.0684751477092505e-04</internalNodes>
      <leafValues>
        1.5193901956081390e-01 -9.1937117278575897e-02</leafValues></_>
    <_>
      <internalNodes>
        0 -1 117875 -6.4235636964440346e-03</internalNodes>
      <leafValues>
        -8.9040881395339966e-01 1.6105530783534050e-02</leafValues></_>
    <_>
      <internalNodes>
        0 -1 161971 -3.1463045161217451e-05</internalNodes>
      <leafValues>
        1.0297168046236038e-01 -1.4009007811546326e-01</leafValues></_>
    <_>
      <internalNodes>
        0 -1 161723 5.4407827556133270e-03</internalNodes>
      <leafValues>
        -5.5225472897291183e-02 3.5109677910804749e-01</leafValues></_>
    <_>
      <internalNodes>
        0 -1 161696 -7.1894330903887749e-04</internalNodes>
      <leafValues>
        1.5012513101100922e-01 -1.0871978849172592e-01</leafValues></_>
    <_>
      <internalNodes>
        0 -1 161749 -5.2950892131775618e-04</internalNodes>
      <leafValues>
        1.9116850197315216e-01 -9.4888120889663696e-02</leafValues></_>
    <_>
      <internalNodes>
        0 -1 128003 5.1781942602247000e-05</internalNodes>
      <leafValues>
        1.2867568433284760e-01 -1.3752932846546173e-01</leafValues></_>
    <_>
      <internalNodes>
        0 -1 159537 -1.1917250230908394e-03</internalNodes>
      <leafValues>
        -2.4453417956829071e-01 7.1198232471942902e-02</leafValues></_>
    <_>
      <internalNodes>
        0 -1 157386 2.4842657148838043e-03</internalNodes>
      <leafValues>
        5.8379773050546646e-02 -3.2085514068603516e-01</leafValues></_>
    <_>
      <internalNodes>
        0 -1 151407 -4.0955878794193268e-03</internalNodes>
      <leafValues>
        5.3498661518096924e-01 -3.2663010060787201e-02</leafValues></_>
    <_>
      <internalNodes>
        0 -1 158828 -1.5327636152505875e-02</internalNodes>
      <leafValues>
        -6.4229685068130493e-01 2.6337778195738792e-02</leafValues></_>
    <_>
      <internalNodes>
        0 -1 157008 -2.3144548322306946e-05</internalNodes>
      <leafValues>
        1.3820596039295197e-01 -1.1594598740339279e-01</leafValues></_>
    <_>
      <internalNodes>
        0 -1 13406 1.6858899034559727e-03</internalNodes>
      <leafValues>
        -7.3109820485115051e-02 2.0683541893959045e-01</leafValues></_>
    <_>
      <internalNodes>
        0 -1 79620 2.6087900623679161e-03</internalNodes>
      <leafValues>
        -9.7692742943763733e-02 1.6527228057384491e-01</leafValues></_>
    <_>
      <internalNodes>
        0 -1 5896 2.1144561469554901e-04</internalNodes>
      <leafValues>
        -1.1004126816987991e-01 1.4712622761726379e-01</leafValues></_>
    <_>
      <internalNodes>
        0 -1 159342 -1.2128471862524748e-03</internalNodes>
      <leafValues>
        -2.2482293844223022e-01 6.5752066671848297e-02</leafValues></_>
    <_>
      <internalNodes>
        0 -1 161947 -2.1629061084240675e-03</internalNodes>
      <leafValues>
        3.8368642330169678e-01 -4.2423319071531296e-02</leafValues></_>
    <_>
      <internalNodes>
        0 -1 159194 1.5381919220089912e-03</internalNodes>
      <leafValues>
        2.6528334245085716e-02 -5.4828071594238281e-01</leafValues></_>
    <_>
      <internalNodes>
        0 -1 143686 -4.0189670398831367e-03</internalNodes>
      <leafValues>
        1.2942758202552795e-01 -1.1403509974479675e-01</leafValues></_>
    <_>
      <internalNodes>
        0 -1 158970 -1.3759472407400608e-02</internalNodes>
      <leafValues>
        2.8470090031623840e-01 -5.0957858562469482e-02</leafValues></_>
    <_>
      <internalNodes>
        0 -1 105904 -3.1177517957985401e-03</internalNodes>
      <leafValues>
        -3.3774876594543457e-01 4.2989023029804230e-02</leafValues></_>
    <_>
      <internalNodes>
        0 -1 79477 -5.1605049520730972e-03</internalNodes>
      <leafValues>
        2.9383534193038940e-01 -5.6590560823678970e-02</leafValues></_>
    <_>
      <internalNodes>
        0 -1 60378 -1.0311433579772711e-03</internalNodes>
      <leafValues>
        1.5131366252899170e-01 -9.8313800990581512e-02</leafValues></_>
    <_>
      <internalNodes>
        0 -1 159342 8.9430029038339853e-04</internalNodes>
      <leafValues>
        7.6502948999404907e-02 -2.0736522972583771e-01</leafValues></_>
    <_>
      <internalNodes>
        0 -1 13392 2.7146674256073311e-05</internalNodes>
      <leafValues>
        -1.2296585738658905e-01 1.1455842852592468e-01</leafValues></_>
    <_>
      <internalNodes>
        0 -1 12867 -4.6977456659078598e-03</internalNodes>
      <leafValues>
        -3.3614826202392578e-01 4.4798750430345535e-02</leafValues></_>
    <_>
      <internalNodes>
        0 -1 108598 -1.3200989924371243e-03</internalNodes>
      <leafValues>
        -3.0474975705146790e-01 4.5897468924522400e-02</leafValues></_>
    <_>
      <internalNodes>
        0 -1 21592 4.6529676765203476e-03</internalNodes>
      <leafValues>
        -7.8350119292736053e-02 1.8597187101840973e-01</leafValues></_>
    <_>
      <internalNodes>
        0 -1 13923 -2.4326615035533905e-01</internalNodes>
      <leafValues>
        -6.3804155588150024e-01 2.5302130728960037e-02</leafValues></_>
    <_>
      <internalNodes>
        0 -1 18426 1.3571974635124207e-01</internalNodes>
      <leafValues>
        2.6063101366162300e-02 -4.5958781242370605e-01</leafValues></_>
    <_>
      <internalNodes>
        0 -1 9 7.5797049794346094e-04</internalNodes>
      <leafValues>
        -8.1926651298999786e-02 1.7816601693630219e-01</leafValues></_>
    <_>
      <internalNodes>
        0 -1 107450 1.0067978873848915e-03</internalNodes>
      <leafValues>
        7.7601738274097443e-02 -2.0059706270694733e-01</leafValues></_>
    <_>
      <internalNodes>
        0 -1 106883 -5.7659260928630829e-03</internalNodes>
      <leafValues>
        5.2791255712509155e-01 -3.0502710491418839e-02</leafValues></_>
    <_>
      <internalNodes>
        0 -1 4286 -4.6983681619167328e-02</internalNodes>
      <leafValues>
        -9.3517917394638062e-01 1.8414288759231567e-02</leafValues></_>
    <_>
      <internalNodes>
        0 -1 157187 -3.7527427775785327e-04</internalNodes>
      <leafValues>
        -2.0964190363883972e-01 6.9800496101379395e-02</leafValues></_>
    <_>
      <internalNodes>
        0 -1 74519 1.3559282524511218e-03</internalNodes>
      <leafValues>
        -7.3186539113521576e-02 2.1230047941207886e-01</leafValues></_>
    <_>
      <internalNodes>
        0 -1 53973 -1.6004033386707306e-02</internalNodes>
      <leafValues>
        5.5375730991363525e-01 -2.9790420085191727e-02</leafValues></_>
    <_>
      <internalNodes>
        0 -1 135253 2.2313751280307770e-02</internalNodes>
      <leafValues>
        -2.6431698352098465e-02 5.0288063287734985e-01</leafValues></_>
    <_>
      <internalNodes>
        0 -1 155921 3.8105645217001438e-03</internalNodes>
      <leafValues>
        5.0885654985904694e-02 -2.9594737291336060e-01</leafValues></_>
    <_>
      <internalNodes>
        0 -1 148473 7.3475744575262070e-03</internalNodes>
      <leafValues>
        -1.1121867597103119e-01 1.8660600483417511e-01</leafValues></_>
    <_>
      <internalNodes>
        0 -1 59677 -1.4550195634365082e-01</internalNodes>
      <leafValues>
        -4.7131681442260742e-01 2.7631627395749092e-02</leafValues></_>
    <_>
      <internalNodes>
        0 -1 59532 -6.3595026731491089e-03</internalNodes>
      <leafValues>
        -4.5214486122131348e-01 3.0614465475082397e-02</leafValues></_>
    <_>
      <internalNodes>
        0 -1 37947 -1.6645906493067741e-02</internalNodes>
      <leafValues>
        2.0881439745426178e-01 -7.1088053286075592e-02</leafValues></_>
    <_>
      <internalNodes>
        0 -1 89579 -2.3370676208287477e-03</internalNodes>
      <leafValues>
        1.3017474114894867e-01 -1.1813406646251678e-01</leafValues></_>
    <_>
      <internalNodes>
        0 -1 936 3.3542501926422119e-01</internalNodes>
      <leafValues>
        2.8618825599551201e-02 -4.9677318334579468e-01</leafValues></_>
    <_>
      <internalNodes>
        0 -1 71652 5.5519498884677887e-02</internalNodes>
      <leafValues>
        -4.8586804419755936e-02 3.4260737895965576e-01</leafValues></_>
    <_>
      <internalNodes>
        0 -1 9626 8.5874721407890320e-02</internalNodes>
      <leafValues>
        3.5233851522207260e-02 -4.8239809274673462e-01</leafValues></_>
    <_>
      <internalNodes>
        0 -1 159235 -1.1248600203543901e-03</internalNodes>
      <leafValues>
        -2.2579760849475861e-01 6.5662309527397156e-02</leafValues></_>
    <_>
      <internalNodes>
        0 -1 98068 -1.1069077067077160e-02</internalNodes>
      <leafValues>
        4.0159904956817627e-01 -3.9439257234334946e-02</leafValues></_>
    <_>
      <internalNodes>
        0 -1 36336 -9.2804146697744727e-04</internalNodes>
      <leafValues>
        -1.9528234004974365e-01 7.8673444688320160e-02</leafValues></_>
    <_>
      <internalNodes>
        0 -1 89231 -6.3500262331217527e-04</internalNodes>
      <leafValues>
        -1.1799040436744690e-01 1.3416215777397156e-01</leafValues></_></weakClassifiers></stage25>
</opencv_storage>
