<?xml version="1.0"?>
<opencv_storage>
<stage18>
  <maxWeakCount>95</maxWeakCount>
  <stageThreshold>-7.5154912471771240e-01</stageThreshold>
  <weakClassifiers>
    <_>
      <internalNodes>
        0 -1 49351 4.8963211476802826e-02</internalNodes>
      <leafValues>
        -1.0057236254215240e-01 4.4404330849647522e-01</leafValues></_>
    <_>
      <internalNodes>
        0 -1 2221 1.3145826756954193e-02</internalNodes>
      <leafValues>
        -8.2687653601169586e-02 3.0834650993347168e-01</leafValues></_>
    <_>
      <internalNodes>
        0 -1 35444 1.0685725137591362e-03</internalNodes>
      <leafValues>
        4.9656618386507034e-02 -3.3502024412155151e-01</leafValues></_>
    <_>
      <internalNodes>
        0 -1 119440 1.6493037343025208e-02</internalNodes>
      <leafValues>
        5.5144298821687698e-02 -4.4540575146675110e-01</leafValues></_>
    <_>
      <internalNodes>
        0 -1 98620 -4.4504663674160838e-04</internalNodes>
      <leafValues>
        1.2060701847076416e-01 -2.2310669720172882e-01</leafValues></_>
    <_>
      <internalNodes>
        0 -1 160392 1.8039103597402573e-03</internalNodes>
      <leafValues>
        -1.1554512381553650e-01 1.9209931790828705e-01</leafValues></_>
    <_>
      <internalNodes>
        0 -1 144787 -8.8318047346547246e-04</internalNodes>
      <leafValues>
        1.6601005196571350e-01 -1.1510159820318222e-01</leafValues></_>
    <_>
      <internalNodes>
        0 -1 85832 1.5563544002361596e-04</internalNodes>
      <leafValues>
        -1.1778641492128372e-01 1.5079377591609955e-01</leafValues></_>
    <_>
      <internalNodes>
        0 -1 67670 5.3456379100680351e-03</internalNodes>
      <leafValues>
        -1.3041481375694275e-01 1.6759003698825836e-01</leafValues></_>
    <_>
      <internalNodes>
        0 -1 8787 -1.6667038202285767e-02</internalNodes>
      <leafValues>
        3.1155768036842346e-01 -5.8517687022686005e-02</leafValues></_>
    <_>
      <internalNodes>
        0 -1 154933 9.7722867503762245e-03</internalNodes>
      <leafValues>
        6.7019656300544739e-02 -2.7454438805580139e-01</leafValues></_>
    <_>
      <internalNodes>
        0 -1 54759 1.0842527449131012e-01</internalNodes>
      <leafValues>
        4.0981624275445938e-02 -5.0198644399642944e-01</leafValues></_>
    <_>
      <internalNodes>
        0 -1 55954 -5.7368300855159760e-02</internalNodes>
      <leafValues>
        -2.6048851013183594e-01 6.6656619310379028e-02</leafValues></_>
    <_>
      <internalNodes>
        0 -1 56703 2.5801374576985836e-03</internalNodes>
      <leafValues>
        4.6054791659116745e-02 -3.6131501197814941e-01</leafValues></_>
    <_>
      <internalNodes>
        0 -1 35156 -1.2420600280165672e-02</internalNodes>
      <leafValues>
        1.9547361135482788e-01 -9.8607875406742096e-02</leafValues></_>
    <_>
      <internalNodes>
        0 -1 83530 8.3732244092971087e-04</internalNodes>
      <leafValues>
        5.5909134447574615e-02 -2.8636434674263000e-01</leafValues></_>
    <_>
      <internalNodes>
        0 -1 40053 4.1320279240608215e-02</internalNodes>
      <leafValues>
        -5.4799932986497879e-02 3.1632077693939209e-01</leafValues></_>
    <_>
      <internalNodes>
        0 -1 484 -1.3428865000605583e-02</internalNodes>
      <leafValues>
        5.0188785791397095e-01 -3.0846837908029556e-02</leafValues></_>
    <_>
      <internalNodes>
        0 -1 100565 6.7759351804852486e-04</internalNodes>
      <leafValues>
        6.5263897180557251e-02 -2.5261440873146057e-01</leafValues></_>
    <_>
      <internalNodes>
        0 -1 48173 1.1260467581450939e-02</internalNodes>
      <leafValues>
        -4.8274308443069458e-02 3.1781932711601257e-01</leafValues></_>
    <_>
      <internalNodes>
        0 -1 12016 -1.5156622044742107e-02</internalNodes>
      <leafValues>
        -3.5266700387001038e-01 4.0975779294967651e-02</leafValues></_>
    <_>
      <internalNodes>
        0 -1 98674 -1.7602562438696623e-03</internalNodes>
      <leafValues>
        -3.3462980389595032e-01 4.8504084348678589e-02</leafValues></_>
    <_>
      <internalNodes>
        0 -1 13636 5.8656632900238037e-03</internalNodes>
      <leafValues>
        -4.7282494604587555e-02 3.3046406507492065e-01</leafValues></_>
    <_>
      <internalNodes>
        0 -1 160746 -1.1470033787190914e-03</internalNodes>
      <leafValues>
        -2.6878497004508972e-01 5.7736877351999283e-02</leafValues></_>
    <_>
      <internalNodes>
        0 -1 11054 -2.1581812761723995e-03</internalNodes>
      <leafValues>
        1.7932920157909393e-01 -8.7876796722412109e-02</leafValues></_>
    <_>
      <internalNodes>
        0 -1 60443 -8.7456492474302649e-04</internalNodes>
      <leafValues>
        -2.8679400682449341e-01 5.6214485317468643e-02</leafValues></_>
    <_>
      <internalNodes>
        0 -1 13304 3.3664917573332787e-03</internalNodes>
      <leafValues>
        -5.1570039242506027e-02 2.8074082732200623e-01</leafValues></_>
    <_>
      <internalNodes>
        0 -1 39573 1.2244820594787598e-01</internalNodes>
      <leafValues>
        -3.6280971020460129e-02 4.6476009488105774e-01</leafValues></_>
    <_>
      <internalNodes>
        0 -1 162086 2.0716612198157236e-05</internalNodes>
      <leafValues>
        -1.1553263664245605e-01 1.2872515618801117e-01</leafValues></_>
    <_>
      <internalNodes>
        0 -1 162049 -3.7196706980466843e-03</internalNodes>
      <leafValues>
        5.1630377769470215e-01 -3.4601464867591858e-02</leafValues></_>
    <_>
      <internalNodes>
        0 -1 160092 -1.4233455294743180e-04</internalNodes>
      <leafValues>
        1.0541687160730362e-01 -1.5135759115219116e-01</leafValues></_>
    <_>
      <internalNodes>
        0 -1 153880 4.4607714517042041e-04</internalNodes>
      <leafValues>
        -1.1301045119762421e-01 1.4062924683094025e-01</leafValues></_>
    <_>
      <internalNodes>
        0 -1 6723 1.0143479332327843e-02</internalNodes>
      <leafValues>
        3.7505540996789932e-02 -4.3240937590599060e-01</leafValues></_>
    <_>
      <internalNodes>
        0 -1 161613 -4.2734239250421524e-03</internalNodes>
      <leafValues>
        2.4695485830307007e-01 -6.2442012131214142e-02</leafValues></_>
    <_>
      <internalNodes>
        0 -1 160916 7.5448271818459034e-03</internalNodes>
      <leafValues>
        4.1045580059289932e-02 -4.0456685423851013e-01</leafValues></_>
    <_>
      <internalNodes>
        0 -1 45994 2.0109512843191624e-03</internalNodes>
      <leafValues>
        -1.3525225222110748e-01 1.1130087822675705e-01</leafValues></_>
    <_>
      <internalNodes>
        0 -1 19508 3.6110412329435349e-03</internalNodes>
      <leafValues>
        -8.1035114824771881e-02 1.8560791015625000e-01</leafValues></_>
    <_>
      <internalNodes>
        0 -1 162268 -5.1322835497558117e-04</internalNodes>
      <leafValues>
        -2.2534556686878204e-01 6.6614702343940735e-02</leafValues></_>
    <_>
      <internalNodes>
        0 -1 127856 -2.3333695717155933e-03</internalNodes>
      <leafValues>
        -4.6337413787841797e-01 3.1178995966911316e-02</leafValues></_>
    <_>
      <internalNodes>
        0 -1 121265 7.7099492773413658e-03</internalNodes>
      <leafValues>
        -5.7085897773504257e-02 2.7057570219039917e-01</leafValues></_>
    <_>
      <internalNodes>
        0 -1 11056 -1.8115316051989794e-03</internalNodes>
      <leafValues>
        2.0561891794204712e-01 -7.4852764606475830e-02</leafValues></_>
    <_>
      <internalNodes>
        0 -1 155042 -3.2917351927608252e-04</internalNodes>
      <leafValues>
        1.0502038896083832e-01 -1.3663612306118011e-01</leafValues></_>
    <_>
      <internalNodes>
        0 -1 105631 -1.1091808974742889e-01</internalNodes>
      <leafValues>
        -3.3057937026023865e-01 4.8598576337099075e-02</leafValues></_>
    <_>
      <internalNodes>
        0 -1 150924 -1.4372626319527626e-03</internalNodes>
      <leafValues>
        9.7904972732067108e-02 -1.7221599817276001e-01</leafValues></_>
    <_>
      <internalNodes>
        0 -1 65734 2.3537699133157730e-02</internalNodes>
      <leafValues>
        -5.1114697009325027e-02 3.1958082318305969e-01</leafValues></_>
    <_>
      <internalNodes>
        0 -1 145898 -2.8440892492653802e-05</internalNodes>
      <leafValues>
        1.4747919142246246e-01 -1.0545650124549866e-01</leafValues></_>
    <_>
      <internalNodes>
        0 -1 54254 -1.4530464795825537e-05</internalNodes>
      <leafValues>
        1.2682498991489410e-01 -1.1512237787246704e-01</leafValues></_>
    <_>
      <internalNodes>
        0 -1 48476 4.2883227579295635e-03</internalNodes>
      <leafValues>
        -8.2526721060276031e-02 1.7717511951923370e-01</leafValues></_>
    <_>
      <internalNodes>
        0 -1 154637 -1.7346959561109543e-02</internalNodes>
      <leafValues>
        -3.4271577000617981e-01 5.0651762634515762e-02</leafValues></_>
    <_>
      <internalNodes>
        0 -1 120380 2.1767797879874706e-03</internalNodes>
      <leafValues>
        5.1007755100727081e-02 -3.0657637119293213e-01</leafValues></_>
    <_>
      <internalNodes>
        0 -1 93285 6.4471289515495300e-02</internalNodes>
      <leafValues>
        -3.3092454075813293e-02 4.3012908101081848e-01</leafValues></_>
    <_>
      <internalNodes>
        0 -1 80300 7.6794987544417381e-03</internalNodes>
      <leafValues>
        -5.3325545042753220e-02 2.9844099283218384e-01</leafValues></_>
    <_>
      <internalNodes>
        0 -1 25108 2.0926415454596281e-03</internalNodes>
      <leafValues>
        6.2955170869827271e-02 -2.3862116038799286e-01</leafValues></_>
    <_>
      <internalNodes>
        0 -1 25068 -8.1961951218545437e-04</internalNodes>
      <leafValues>
        -1.6696086525917053e-01 9.0931184589862823e-02</leafValues></_>
    <_>
      <internalNodes>
        0 -1 153564 6.6942977719008923e-03</internalNodes>
      <leafValues>
        1.3781862333416939e-02 -9.0912246704101562e-01</leafValues></_>
    <_>
      <internalNodes>
        0 -1 156732 -9.7856484353542328e-03</internalNodes>
      <leafValues>
        3.1545674800872803e-01 -5.0701405853033066e-02</leafValues></_>
    <_>
      <internalNodes>
        0 -1 57658 1.0358322411775589e-02</internalNodes>
      <leafValues>
        -5.4125949740409851e-02 2.6659256219863892e-01</leafValues></_>
    <_>
      <internalNodes>
        0 -1 45963 -1.4158930862322450e-03</internalNodes>
      <leafValues>
        1.8247918784618378e-01 -9.2444337904453278e-02</leafValues></_>
    <_>
      <internalNodes>
        0 -1 68702 -3.7184983491897583e-02</internalNodes>
      <leafValues>
        -4.1754496097564697e-01 3.9412859827280045e-02</leafValues></_>
    <_>
      <internalNodes>
        0 -1 24050 -1.8596493173390627e-03</internalNodes>
      <leafValues>
        2.6365992426872253e-01 -5.6794267147779465e-02</leafValues></_>
    <_>
      <internalNodes>
        0 -1 70045 1.4312790706753731e-02</internalNodes>
      <leafValues>
        -3.2011467963457108e-02 4.0929272770881653e-01</leafValues></_>
    <_>
      <internalNodes>
        0 -1 10251 -3.0314249452203512e-03</internalNodes>
      <leafValues>
        -2.6875889301300049e-01 5.7627860456705093e-02</leafValues></_>
    <_>
      <internalNodes>
        0 -1 146212 1.1673260480165482e-02</internalNodes>
      <leafValues>
        2.0003842189908028e-02 -6.2972939014434814e-01</leafValues></_>
    <_>
      <internalNodes>
        0 -1 26071 -5.8529220521450043e-02</internalNodes>
      <leafValues>
        -6.4347642660140991e-01 1.8988054245710373e-02</leafValues></_>
    <_>
      <internalNodes>
        0 -1 70574 -9.7245108336210251e-03</internalNodes>
      <leafValues>
        3.5573247075080872e-01 -4.6156316995620728e-02</leafValues></_>
    <_>
      <internalNodes>
        0 -1 70766 -1.3414523564279079e-03</internalNodes>
      <leafValues>
        1.9597476720809937e-01 -7.2526335716247559e-02</leafValues></_>
    <_>
      <internalNodes>
        0 -1 88400 2.2520199418067932e-02</internalNodes>
      <leafValues>
        2.9071906581521034e-02 -5.0728321075439453e-01</leafValues></_>
    <_>
      <internalNodes>
        0 -1 10995 -7.6227933168411255e-02</internalNodes>
      <leafValues>
        -5.6747394800186157e-01 2.5099987164139748e-02</leafValues></_>
    <_>
      <internalNodes>
        0 -1 2132 -8.9941988699138165e-04</internalNodes>
      <leafValues>
        3.7308287620544434e-01 -4.2184796184301376e-02</leafValues></_>
    <_>
      <internalNodes>
        0 -1 55855 2.1949340403079987e-01</internalNodes>
      <leafValues>
        3.1949251890182495e-02 -4.8014414310455322e-01</leafValues></_>
    <_>
      <internalNodes>
        0 -1 29173 -5.8354105800390244e-02</internalNodes>
      <leafValues>
        -2.1179068088531494e-01 6.8325772881507874e-02</leafValues></_>
    <_>
      <internalNodes>
        0 -1 89089 -2.9031834565103054e-03</internalNodes>
      <leafValues>
        2.9759013652801514e-01 -4.8240914940834045e-02</leafValues></_>
    <_>
      <internalNodes>
        0 -1 59203 -1.3466650852933526e-04</internalNodes>
      <leafValues>
        -1.4992070198059082e-01 9.7185879945755005e-02</leafValues></_>
    <_>
      <internalNodes>
        0 -1 843 -2.2415560483932495e-01</internalNodes>
      <leafValues>
        3.4656542539596558e-01 -4.0996506810188293e-02</leafValues></_>
    <_>
      <internalNodes>
        0 -1 134238 -6.0943351127207279e-03</internalNodes>
      <leafValues>
        -5.8645641803741455e-01 2.6849403977394104e-02</leafValues></_>
    <_>
      <internalNodes>
        0 -1 40852 3.2458089292049408e-02</internalNodes>
      <leafValues>
        -5.6332200765609741e-02 2.7347272634506226e-01</leafValues></_>
    <_>
      <internalNodes>
        0 -1 40725 6.5849339589476585e-03</internalNodes>
      <leafValues>
        4.4268120080232620e-02 -3.3999225497245789e-01</leafValues></_>
    <_>
      <internalNodes>
        0 -1 89564 1.1774712220358197e-05</internalNodes>
      <leafValues>
        -1.1896986514329910e-01 1.1779418587684631e-01</leafValues></_>
    <_>
      <internalNodes>
        0 -1 48264 4.6492060646414757e-03</internalNodes>
      <leafValues>
        -9.0630680322647095e-02 1.5051317214965820e-01</leafValues></_>
    <_>
      <internalNodes>
        0 -1 35523 -3.7688463926315308e-03</internalNodes>
      <leafValues>
        1.6095428168773651e-01 -9.4704620540142059e-02</leafValues></_>
    <_>
      <internalNodes>
        0 -1 79357 -3.2921754755079746e-03</internalNodes>
      <leafValues>
        -2.9887604713439941e-01 4.8512935638427734e-02</leafValues></_>
    <_>
      <internalNodes>
        0 -1 80131 2.1609936375170946e-03</internalNodes>
      <leafValues>
        5.4638382047414780e-02 -3.1732928752899170e-01</leafValues></_>
    <_>
      <internalNodes>
        0 -1 126395 -6.6846003755927086e-03</internalNodes>
      <leafValues>
        3.7645906209945679e-01 -3.8809262216091156e-02</leafValues></_>
    <_>
      <internalNodes>
        0 -1 148174 -3.5546342842280865e-03</internalNodes>
      <leafValues>
        -2.5313252210617065e-01 5.6088004261255264e-02</leafValues></_>
    <_>
      <internalNodes>
        0 -1 25620 -8.1415772438049316e-03</internalNodes>
      <leafValues>
        3.4395366907119751e-01 -4.2836476117372513e-02</leafValues></_>
    <_>
      <internalNodes>
        0 -1 123773 2.6557315140962601e-03</internalNodes>
      <leafValues>
        -8.5395961999893188e-02 1.6106633841991425e-01</leafValues></_>
    <_>
      <internalNodes>
        0 -1 10633 2.6233368553221226e-03</internalNodes>
      <leafValues>
        4.6061769127845764e-02 -2.9204812645912170e-01</leafValues></_>
    <_>
      <internalNodes>
        0 -1 10809 -3.8190246559679508e-03</internalNodes>
      <leafValues>
        1.9145467877388000e-01 -7.1585394442081451e-02</leafValues></_>
    <_>
      <internalNodes>
        0 -1 89828 1.7708390951156616e-03</internalNodes>
      <leafValues>
        2.0265992730855942e-02 -6.7258423566818237e-01</leafValues></_>
    <_>
      <internalNodes>
        0 -1 4110 2.5221398100256920e-03</internalNodes>
      <leafValues>
        -9.7358755767345428e-02 1.4514915645122528e-01</leafValues></_>
    <_>
      <internalNodes>
        0 -1 35 -1.6965534305199981e-03</internalNodes>
      <leafValues>
        2.1857704222202301e-01 -6.7961134016513824e-02</leafValues></_>
    <_>
      <internalNodes>
        0 -1 73759 -3.0175216495990753e-02</internalNodes>
      <leafValues>
        4.9416893720626831e-01 -2.4850822985172272e-02</leafValues></_>
    <_>
      <internalNodes>
        0 -1 153604 2.3177070543169975e-03</internalNodes>
      <leafValues>
        -4.7487299889326096e-02 2.8758776187896729e-01</leafValues></_>
    <_>
      <internalNodes>
        0 -1 1701 3.1134545803070068e-01</internalNodes>
      <leafValues>
        -7.0523716509342194e-02 2.1148096024990082e-01</leafValues></_>
    <_>
      <internalNodes>
        0 -1 90948 -1.4327108860015869e-01</internalNodes>
      <leafValues>
        6.7704355716705322e-01 -2.6643488556146622e-02</leafValues></_></weakClassifiers></stage18>
</opencv_storage>
