<?xml version="1.0"?>
<opencv_storage>
<stage2>
  <maxWeakCount>36</maxWeakCount>
  <stageThreshold>-1.2807635068893433e+00</stageThreshold>
  <weakClassifiers>
    <_>
      <internalNodes>
        0 -1 98628 -4.1407048702239990e-03</internalNodes>
      <leafValues>
        5.4713493585586548e-01 -3.0865484476089478e-01</leafValues></_>
    <_>
      <internalNodes>
        0 -1 62776 -7.0433862507343292e-02</internalNodes>
      <leafValues>
        4.9964159727096558e-01 -2.2451350092887878e-01</leafValues></_>
    <_>
      <internalNodes>
        0 -1 6685 1.3033308787271380e-03</internalNodes>
      <leafValues>
        -2.2539062798023224e-01 3.1220546364784241e-01</leafValues></_>
    <_>
      <internalNodes>
        0 -1 68076 -1.2301450595259666e-02</internalNodes>
      <leafValues>
        2.0643226802349091e-01 -2.6793363690376282e-01</leafValues></_>
    <_>
      <internalNodes>
        0 -1 61187 -3.4321926534175873e-02</internalNodes>
      <leafValues>
        5.3747034072875977e-01 -1.2150802463293076e-01</leafValues></_>
    <_>
      <internalNodes>
        0 -1 61227 2.3818854242563248e-02</internalNodes>
      <leafValues>
        -1.2906470894813538e-01 4.5809489488601685e-01</leafValues></_>
    <_>
      <internalNodes>
        0 -1 26587 -6.5617388486862183e-01</internalNodes>
      <leafValues>
        -7.6179301738739014e-01 6.5053276717662811e-02</leafValues></_>
    <_>
      <internalNodes>
        0 -1 123253 1.1199528351426125e-02</internalNodes>
      <leafValues>
        -1.7016631364822388e-01 2.5527441501617432e-01</leafValues></_>
    <_>
      <internalNodes>
        0 -1 117192 2.1070148795843124e-02</internalNodes>
      <leafValues>
        -8.9830949902534485e-02 4.4893687963485718e-01</leafValues></_>
    <_>
      <internalNodes>
        0 -1 65886 -2.1510487422347069e-02</internalNodes>
      <leafValues>
        5.1886934041976929e-01 -7.1939870715141296e-02</leafValues></_>
    <_>
      <internalNodes>
        0 -1 122420 1.1246055364608765e-03</internalNodes>
      <leafValues>
        1.1638781428337097e-01 -3.9921385049819946e-01</leafValues></_>
    <_>
      <internalNodes>
        0 -1 13034 -6.4770700410008430e-03</internalNodes>
      <leafValues>
        4.0141776204109192e-01 -1.0811293125152588e-01</leafValues></_>
    <_>
      <internalNodes>
        0 -1 106574 1.6114220488816500e-03</internalNodes>
      <leafValues>
        8.1938132643699646e-02 -4.6509617567062378e-01</leafValues></_>
    <_>
      <internalNodes>
        0 -1 8135 -3.4868684411048889e-01</internalNodes>
      <leafValues>
        -5.8718276023864746e-01 5.3732573986053467e-02</leafValues></_>
    <_>
      <internalNodes>
        0 -1 113758 -1.3891837625124026e-05</internalNodes>
      <leafValues>
        2.2698985040187836e-01 -1.6071724891662598e-01</leafValues></_>
    <_>
      <internalNodes>
        0 -1 113758 1.5727820937172510e-05</internalNodes>
      <leafValues>
        -1.6455020010471344e-01 2.2636345028877258e-01</leafValues></_>
    <_>
      <internalNodes>
        0 -1 32198 1.3197319582104683e-02</internalNodes>
      <leafValues>
        -9.1919079422950745e-02 3.6177974939346313e-01</leafValues></_>
    <_>
      <internalNodes>
        0 -1 8774 8.5529815405607224e-03</internalNodes>
      <leafValues>
        -1.7964945733547211e-01 1.8944440782070160e-01</leafValues></_>
    <_>
      <internalNodes>
        0 -1 75042 1.4301329851150513e-01</internalNodes>
      <leafValues>
        9.3858525156974792e-02 -3.9341518282890320e-01</leafValues></_>
    <_>
      <internalNodes>
        0 -1 79333 1.3236506674729753e-05</internalNodes>
      <leafValues>
        -1.5676586329936981e-01 2.2151856124401093e-01</leafValues></_>
    <_>
      <internalNodes>
        0 -1 148118 -1.3962004231871106e-05</internalNodes>
      <leafValues>
        2.2238591313362122e-01 -1.5309329330921173e-01</leafValues></_>
    <_>
      <internalNodes>
        0 -1 8138 -1.1774712220358197e-05</internalNodes>
      <leafValues>
        1.9919168949127197e-01 -1.6520968079566956e-01</leafValues></_>
    <_>
      <internalNodes>
        0 -1 161480 -3.1802547164261341e-03</internalNodes>
      <leafValues>
        3.6620372533798218e-01 -9.1484591364860535e-02</leafValues></_>
    <_>
      <internalNodes>
        0 -1 70493 -1.1188095435500145e-02</internalNodes>
      <leafValues>
        2.3859627544879913e-01 -1.6704295575618744e-01</leafValues></_>
    <_>
      <internalNodes>
        0 -1 106573 -1.0419916361570358e-03</internalNodes>
      <leafValues>
        -3.7076860666275024e-01 1.3613927364349365e-01</leafValues></_>
    <_>
      <internalNodes>
        0 -1 82501 -3.0632585287094116e-02</internalNodes>
      <leafValues>
        8.1482750177383423e-01 -5.2980832755565643e-02</leafValues></_>
    <_>
      <internalNodes>
        0 -1 9440 -1.8645625095814466e-04</internalNodes>
      <leafValues>
        2.7869671583175659e-01 -1.1474370956420898e-01</leafValues></_>
    <_>
      <internalNodes>
        0 -1 80792 -2.7826523873955011e-03</internalNodes>
      <leafValues>
        -4.6647495031356812e-01 6.9869741797447205e-02</leafValues></_>
    <_>
      <internalNodes>
        0 -1 140148 -7.2714528068900108e-03</internalNodes>
      <leafValues>
        8.7880897521972656e-01 -4.4569276273250580e-02</leafValues></_>
    <_>
      <internalNodes>
        0 -1 80777 1.4000900555402040e-03</internalNodes>
      <leafValues>
        9.4368755817413330e-02 -3.6855781078338623e-01</leafValues></_>
    <_>
      <internalNodes>
        0 -1 139212 2.6722894981503487e-03</internalNodes>
      <leafValues>
        -8.1177994608879089e-02 4.2696991562843323e-01</leafValues></_>
    <_>
      <internalNodes>
        0 -1 159720 1.2510137821664102e-05</internalNodes>
      <leafValues>
        -1.5697063505649567e-01 2.1798783540725708e-01</leafValues></_>
    <_>
      <internalNodes>
        0 -1 28873 -1.7930816859006882e-02</internalNodes>
      <leafValues>
        4.7816473245620728e-01 -6.7929215729236603e-02</leafValues></_>
    <_>
      <internalNodes>
        0 -1 135514 7.9713878221809864e-04</internalNodes>
      <leafValues>
        1.6056181490421295e-01 -2.1285264194011688e-01</leafValues></_>
    <_>
      <internalNodes>
        0 -1 139706 -1.3885224238038063e-02</internalNodes>
      <leafValues>
        -7.5955033302307129e-01 4.0390223264694214e-02</leafValues></_>
    <_>
      <internalNodes>
        0 -1 34948 -2.0765182562172413e-03</internalNodes>
      <leafValues>
        6.0484004020690918e-01 -6.5635450184345245e-02</leafValues></_></weakClassifiers></stage2>
</opencv_storage>
