<?xml version="1.0"?>
<opencv_storage>
<stage11>
  <maxWeakCount>35</maxWeakCount>
  <stageThreshold>-1.3847414255142212e+00</stageThreshold>
  <weakClassifiers>
    <_>
      <internalNodes>
        0 -1 1703 2.8366529941558838e-01</internalNodes>
      <leafValues>
        -1.7811816930770874e-01 5.6923079490661621e-01</leafValues></_>
    <_>
      <internalNodes>
        0 -1 21791 -3.7359516136348248e-03</internalNodes>
      <leafValues>
        -5.3136700391769409e-01 1.3797576725482941e-01</leafValues></_>
    <_>
      <internalNodes>
        0 -1 8903 3.5071475431323051e-03</internalNodes>
      <leafValues>
        1.0302105545997620e-01 -5.8013635873794556e-01</leafValues></_>
    <_>
      <internalNodes>
        0 -1 8823 3.4183384850621223e-03</internalNodes>
      <leafValues>
        -1.3790224492549896e-01 4.6987757086753845e-01</leafValues></_>
    <_>
      <internalNodes>
        0 -1 10837 -9.8085880279541016e-02</internalNodes>
      <leafValues>
        4.6653968095779419e-01 -1.3295550644397736e-01</leafValues></_>
    <_>
      <internalNodes>
        0 -1 158051 1.9128777086734772e-02</internalNodes>
      <leafValues>
        -1.2695498764514923e-01 4.1819882392883301e-01</leafValues></_>
    <_>
      <internalNodes>
        0 -1 161008 -1.6308440826833248e-03</internalNodes>
      <leafValues>
        -4.6896201372146606e-01 1.2791781127452850e-01</leafValues></_>
    <_>
      <internalNodes>
        0 -1 161008 1.4642439782619476e-03</internalNodes>
      <leafValues>
        1.2696912884712219e-01 -4.8308911919593811e-01</leafValues></_>
    <_>
      <internalNodes>
        0 -1 155123 -1.6630522906780243e-02</internalNodes>
      <leafValues>
        6.5953385829925537e-01 -6.9999471306800842e-02</leafValues></_>
    <_>
      <internalNodes>
        0 -1 7464 1.7188529018312693e-03</internalNodes>
      <leafValues>
        1.0189869999885559e-01 -4.2995476722717285e-01</leafValues></_>
    <_>
      <internalNodes>
        0 -1 6773 3.0619641765952110e-03</internalNodes>
      <leafValues>
        9.5473997294902802e-02 -4.9868181347846985e-01</leafValues></_>
    <_>
      <internalNodes>
        0 -1 106713 -1.0451363399624825e-02</internalNodes>
      <leafValues>
        2.5820004940032959e-01 -1.8839955329895020e-01</leafValues></_>
    <_>
      <internalNodes>
        0 -1 143945 -3.1938804313540459e-03</internalNodes>
      <leafValues>
        -5.2444803714752197e-01 1.2485039234161377e-01</leafValues></_>
    <_>
      <internalNodes>
        0 -1 13029 1.8700519576668739e-03</internalNodes>
      <leafValues>
        8.9788518846035004e-02 -3.9590889215469360e-01</leafValues></_>
    <_>
      <internalNodes>
        0 -1 23674 -6.3438680954277515e-03</internalNodes>
      <leafValues>
        3.6086937785148621e-01 -1.1619190871715546e-01</leafValues></_>
    <_>
      <internalNodes>
        0 -1 7550 2.6332907378673553e-02</internalNodes>
      <leafValues>
        -8.9901722967624664e-02 5.0338608026504517e-01</leafValues></_>
    <_>
      <internalNodes>
        0 -1 81515 -1.1319561162963510e-03</internalNodes>
      <leafValues>
        -5.7001966238021851e-01 7.7333189547061920e-02</leafValues></_>
    <_>
      <internalNodes>
        0 -1 85457 -1.8075827509164810e-02</internalNodes>
      <leafValues>
        3.7611359357833862e-01 -1.1827307939529419e-01</leafValues></_>
    <_>
      <internalNodes>
        0 -1 23255 1.9064254593104124e-03</internalNodes>
      <leafValues>
        1.0936981439590454e-01 -3.8352069258689880e-01</leafValues></_>
    <_>
      <internalNodes>
        0 -1 35409 -6.2503037042915821e-04</internalNodes>
      <leafValues>
        -4.5199972391128540e-01 1.3409380614757538e-01</leafValues></_>
    <_>
      <internalNodes>
        0 -1 161809 3.6945925094187260e-03</internalNodes>
      <leafValues>
        -1.0664812475442886e-01 4.0310561656951904e-01</leafValues></_>
    <_>
      <internalNodes>
        0 -1 157494 2.1700127981603146e-03</internalNodes>
      <leafValues>
        1.1229939758777618e-01 -3.5086482763290405e-01</leafValues></_>
    <_>
      <internalNodes>
        0 -1 151724 -2.0745792426168919e-03</internalNodes>
      <leafValues>
        -3.0572003126144409e-01 1.1527445912361145e-01</leafValues></_>
    <_>
      <internalNodes>
        0 -1 25320 -5.0281826406717300e-03</internalNodes>
      <leafValues>
        2.3617537319660187e-01 -1.5566866099834442e-01</leafValues></_>
    <_>
      <internalNodes>
        0 -1 103278 1.1598952114582062e-02</internalNodes>
      <leafValues>
        -9.7075313329696655e-02 3.6372554302215576e-01</leafValues></_>
    <_>
      <internalNodes>
        0 -1 122912 -4.7746757627464831e-04</internalNodes>
      <leafValues>
        -4.1094547510147095e-01 9.2207379639148712e-02</leafValues></_>
    <_>
      <internalNodes>
        0 -1 148487 2.4540450423955917e-02</internalNodes>
      <leafValues>
        -9.4197280704975128e-02 3.6490398645401001e-01</leafValues></_>
    <_>
      <internalNodes>
        0 -1 150784 -2.8280129190534353e-03</internalNodes>
      <leafValues>
        -4.1551399230957031e-01 8.0152593553066254e-02</leafValues></_>
    <_>
      <internalNodes>
        0 -1 10083 -5.7719233445823193e-03</internalNodes>
      <leafValues>
        2.7390450239181519e-01 -1.1618278175592422e-01</leafValues></_>
    <_>
      <internalNodes>
        0 -1 114083 6.6669040825217962e-04</internalNodes>
      <leafValues>
        6.8240419030189514e-02 -5.0683814287185669e-01</leafValues></_>
    <_>
      <internalNodes>
        0 -1 37088 -1.6422733664512634e-02</internalNodes>
      <leafValues>
        2.6937645673751831e-01 -1.2220738083124161e-01</leafValues></_>
    <_>
      <internalNodes>
        0 -1 25924 2.6927716098725796e-03</internalNodes>
      <leafValues>
        -1.7251904308795929e-01 1.9281040132045746e-01</leafValues></_>
    <_>
      <internalNodes>
        0 -1 159147 -1.3692416250705719e-03</internalNodes>
      <leafValues>
        -3.8637903332710266e-01 8.7938241660594940e-02</leafValues></_>
    <_>
      <internalNodes>
        0 -1 121234 5.3216941887512803e-04</internalNodes>
      <leafValues>
        7.2390832006931305e-02 -4.2147430777549744e-01</leafValues></_>
    <_>
      <internalNodes>
        0 -1 126050 -2.0261865854263306e-01</internalNodes>
      <leafValues>
        -7.5064736604690552e-01 4.1831023991107941e-02</leafValues></_></weakClassifiers></stage11>
</opencv_storage>
