<?xml version="1.0"?>
<opencv_storage>
<stage22>
  <maxWeakCount>100</maxWeakCount>
  <stageThreshold>-9.4501900672912598e-01</stageThreshold>
  <weakClassifiers>
    <_>
      <internalNodes>
        0 -1 121254 2.3929020389914513e-03</internalNodes>
      <leafValues>
        -1.0976744443178177e-01 2.7764704823493958e-01</leafValues></_>
    <_>
      <internalNodes>
        0 -1 64524 -1.6355829313397408e-02</internalNodes>
      <leafValues>
        2.0027446746826172e-01 -1.1219660937786102e-01</leafValues></_>
    <_>
      <internalNodes>
        0 -1 98511 -2.1586506045423448e-04</internalNodes>
      <leafValues>
        1.2229507416486740e-01 -1.4568699896335602e-01</leafValues></_>
    <_>
      <internalNodes>
        0 -1 31097 1.3825805485248566e-01</internalNodes>
      <leafValues>
        -8.8907472789287567e-02 3.7706807255744934e-01</leafValues></_>
    <_>
      <internalNodes>
        0 -1 12203 -1.1823177337646484e-02</internalNodes>
      <leafValues>
        3.4272521734237671e-01 -1.5641119331121445e-02</leafValues></_>
    <_>
      <internalNodes>
        0 -1 89211 -1.2335477396845818e-02</internalNodes>
      <leafValues>
        4.8388829827308655e-01 -5.5736973881721497e-02</leafValues></_>
    <_>
      <internalNodes>
        0 -1 161100 1.8737253267318010e-03</internalNodes>
      <leafValues>
        -6.0196708887815475e-02 2.7780124545097351e-01</leafValues></_>
    <_>
      <internalNodes>
        0 -1 127944 2.5244103744626045e-03</internalNodes>
      <leafValues>
        5.9275764971971512e-02 -2.9417145252227783e-01</leafValues></_>
    <_>
      <internalNodes>
        0 -1 159194 -2.9273942345753312e-05</internalNodes>
      <leafValues>
        1.3738659024238586e-01 -1.0636688768863678e-01</leafValues></_>
    <_>
      <internalNodes>
        0 -1 161464 -2.7431906346464530e-05</internalNodes>
      <leafValues>
        1.0821063816547394e-01 -1.2358060479164124e-01</leafValues></_>
    <_>
      <internalNodes>
        0 -1 59596 -9.8207890987396240e-02</internalNodes>
      <leafValues>
        7.9960250854492188e-01 -1.2902848422527313e-02</leafValues></_>
    <_>
      <internalNodes>
        0 -1 58540 5.0195219228044152e-04</internalNodes>
      <leafValues>
        6.8760894238948822e-02 -2.2296461462974548e-01</leafValues></_>
    <_>
      <internalNodes>
        0 -1 161954 -9.1499425470829010e-03</internalNodes>
      <leafValues>
        6.0319578647613525e-01 -2.4862606078386307e-02</leafValues></_>
    <_>
      <internalNodes>
        0 -1 82396 3.4923151135444641e-02</internalNodes>
      <leafValues>
        -3.4752231091260910e-02 2.8808787465095520e-01</leafValues></_>
    <_>
      <internalNodes>
        0 -1 122920 -1.2584782671183348e-03</internalNodes>
      <leafValues>
        -3.2602173089981079e-01 4.8855867236852646e-02</leafValues></_>
    <_>
      <internalNodes>
        0 -1 88400 2.2501584142446518e-02</internalNodes>
      <leafValues>
        2.2755147889256477e-02 -5.0657266378402710e-01</leafValues></_>
    <_>
      <internalNodes>
        0 -1 89800 4.1235489770770073e-03</internalNodes>
      <leafValues>
        -8.7334610521793365e-02 1.4680391550064087e-01</leafValues></_>
    <_>
      <internalNodes>
        0 -1 24864 1.7960940022021532e-03</internalNodes>
      <leafValues>
        6.2313959002494812e-02 -2.3364873230457306e-01</leafValues></_>
    <_>
      <internalNodes>
        0 -1 155935 -3.5399720072746277e-02</internalNodes>
      <leafValues>
        -2.6067873835563660e-01 5.0214104354381561e-02</leafValues></_>
    <_>
      <internalNodes>
        0 -1 324 8.2888025790452957e-03</internalNodes>
      <leafValues>
        -4.6404272317886353e-02 3.0773881077766418e-01</leafValues></_>
    <_>
      <internalNodes>
        0 -1 103278 -6.5434547141194344e-03</internalNodes>
      <leafValues>
        1.8138650059700012e-01 -7.3078341782093048e-02</leafValues></_>
    <_>
      <internalNodes>
        0 -1 62257 -1.4146145433187485e-02</internalNodes>
      <leafValues>
        1.8728262186050415e-01 -7.7573433518409729e-02</leafValues></_>
    <_>
      <internalNodes>
        0 -1 19928 -9.3607559800148010e-02</internalNodes>
      <leafValues>
        -2.7554324269294739e-01 5.5512223392724991e-02</leafValues></_>
    <_>
      <internalNodes>
        0 -1 80027 2.7313021942973137e-02</internalNodes>
      <leafValues>
        9.5647145062685013e-03 -7.0454406738281250e-01</leafValues></_>
    <_>
      <internalNodes>
        0 -1 102496 2.2460785508155823e-01</internalNodes>
      <leafValues>
        2.0902665331959724e-02 -6.0339546203613281e-01</leafValues></_>
    <_>
      <internalNodes>
        0 -1 69875 -4.6217693015933037e-03</internalNodes>
      <leafValues>
        4.6549215912818909e-01 -3.1611859798431396e-02</leafValues></_>
    <_>
      <internalNodes>
        0 -1 146063 -2.4318024516105652e-02</internalNodes>
      <leafValues>
        -6.2697678804397583e-01 2.3401733487844467e-02</leafValues></_>
    <_>
      <internalNodes>
        0 -1 119634 8.5235701408237219e-04</internalNodes>
      <leafValues>
        -7.9150848090648651e-02 1.6899649798870087e-01</leafValues></_>
    <_>
      <internalNodes>
        0 -1 104410 2.4506091140210629e-03</internalNodes>
      <leafValues>
        5.7096198201179504e-02 -2.4727602303028107e-01</leafValues></_>
    <_>
      <internalNodes>
        0 -1 58852 2.3980512924026698e-04</internalNodes>
      <leafValues>
        -8.7690353393554688e-02 1.5838915109634399e-01</leafValues></_>
    <_>
      <internalNodes>
        0 -1 36231 -5.9705972671508789e-03</internalNodes>
      <leafValues>
        1.9973686337471008e-01 -7.1143873035907745e-02</leafValues></_>
    <_>
      <internalNodes>
        0 -1 143315 4.5213615521788597e-03</internalNodes>
      <leafValues>
        5.9036407619714737e-02 -2.7587890625000000e-01</leafValues></_>
    <_>
      <internalNodes>
        0 -1 112821 -2.1902020089328289e-03</internalNodes>
      <leafValues>
        -3.2554316520690918e-01 3.5351675003767014e-02</leafValues></_>
    <_>
      <internalNodes>
        0 -1 121352 -8.7383743375539780e-03</internalNodes>
      <leafValues>
        4.5988687872886658e-01 -2.6975372806191444e-02</leafValues></_>
    <_>
      <internalNodes>
        0 -1 138673 8.0372840166091919e-03</internalNodes>
      <leafValues>
        -1.5354895032942295e-02 7.1041381359100342e-01</leafValues></_>
    <_>
      <internalNodes>
        0 -1 31110 3.2702374737709761e-03</internalNodes>
      <leafValues>
        1.8579458817839622e-02 -7.0647585391998291e-01</leafValues></_>
    <_>
      <internalNodes>
        0 -1 7195 1.2924474477767944e-01</internalNodes>
      <leafValues>
        2.3374840617179871e-02 -4.8248997330665588e-01</leafValues></_>
    <_>
      <internalNodes>
        0 -1 90747 -1.7994940280914307e-02</internalNodes>
      <leafValues>
        2.0248495042324066e-01 -5.7380218058824539e-02</leafValues></_>
    <_>
      <internalNodes>
        0 -1 129881 -4.6178223565220833e-03</internalNodes>
      <leafValues>
        1.6991990804672241e-01 -7.9231306910514832e-02</leafValues></_>
    <_>
      <internalNodes>
        0 -1 82893 7.7727343887090683e-04</internalNodes>
      <leafValues>
        5.9923242777585983e-02 -2.0569448173046112e-01</leafValues></_>
    <_>
      <internalNodes>
        0 -1 49725 3.0481866560876369e-03</internalNodes>
      <leafValues>
        -7.7847473323345184e-02 1.5015794336795807e-01</leafValues></_>
    <_>
      <internalNodes>
        0 -1 144714 5.6575989583507180e-04</internalNodes>
      <leafValues>
        4.2372912168502808e-02 -2.7408346533775330e-01</leafValues></_>
    <_>
      <internalNodes>
        0 -1 14008 8.3518773317337036e-04</internalNodes>
      <leafValues>
        -1.1486772447824478e-01 9.7823686897754669e-02</leafValues></_>
    <_>
      <internalNodes>
        0 -1 9440 8.4633973892778158e-04</internalNodes>
      <leafValues>
        -3.7284456193447113e-02 3.1223693490028381e-01</leafValues></_>
    <_>
      <internalNodes>
        0 -1 97658 2.1533833350986242e-03</internalNodes>
      <leafValues>
        1.7870863899588585e-02 -7.0475184917449951e-01</leafValues></_>
    <_>
      <internalNodes>
        0 -1 142330 -6.5309554338455200e-02</internalNodes>
      <leafValues>
        2.5466534495353699e-01 -4.4086363166570663e-02</leafValues></_>
    <_>
      <internalNodes>
        0 -1 157113 -4.4817570596933365e-03</internalNodes>
      <leafValues>
        -2.4546337127685547e-01 4.8053678125143051e-02</leafValues></_>
    <_>
      <internalNodes>
        0 -1 58471 -1.3260063133202493e-04</internalNodes>
      <leafValues>
        9.5022574067115784e-02 -1.3873964548110962e-01</leafValues></_>
    <_>
      <internalNodes>
        0 -1 96599 -1.0639909654855728e-02</internalNodes>
      <leafValues>
        1.5038828551769257e-01 -8.1521131098270416e-02</leafValues></_>
    <_>
      <internalNodes>
        0 -1 119914 -2.9161544516682625e-03</internalNodes>
      <leafValues>
        -2.7627250552177429e-01 4.2118839919567108e-02</leafValues></_>
    <_>
      <internalNodes>
        0 -1 105686 -1.0157939046621323e-02</internalNodes>
      <leafValues>
        3.4363293647766113e-01 -3.4056961536407471e-02</leafValues></_>
    <_>
      <internalNodes>
        0 -1 127287 3.0718922062078491e-05</internalNodes>
      <leafValues>
        -1.0174136608839035e-01 1.1426972597837448e-01</leafValues></_>
    <_>
      <internalNodes>
        0 -1 59726 8.9622512459754944e-03</internalNodes>
      <leafValues>
        -4.8777289688587189e-02 2.4432840943336487e-01</leafValues></_>
    <_>
      <internalNodes>
        0 -1 121334 3.4089153632521629e-04</internalNodes>
      <leafValues>
        6.0830738395452499e-02 -1.9951078295707703e-01</leafValues></_>
    <_>
      <internalNodes>
        0 -1 106507 2.8023449704051018e-03</internalNodes>
      <leafValues>
        -5.4255496710538864e-02 2.2723592817783356e-01</leafValues></_>
    <_>
      <internalNodes>
        0 -1 105218 -7.5393086299300194e-03</internalNodes>
      <leafValues>
        -2.8543642163276672e-01 5.1137443631887436e-02</leafValues></_>
    <_>
      <internalNodes>
        0 -1 37730 -5.0692576915025711e-02</internalNodes>
      <leafValues>
        -6.4067959785461426e-01 1.6085986047983170e-02</leafValues></_>
    <_>
      <internalNodes>
        0 -1 11853 3.3269759733229876e-03</internalNodes>
      <leafValues>
        -7.3991239070892334e-02 1.6134841740131378e-01</leafValues></_>
    <_>
      <internalNodes>
        0 -1 105051 -6.0618758201599121e-02</internalNodes>
      <leafValues>
        -5.8092415332794189e-01 1.9115658476948738e-02</leafValues></_>
    <_>
      <internalNodes>
        0 -1 65609 7.9561781603842974e-04</internalNodes>
      <leafValues>
        -6.5603099763393402e-02 1.7652100324630737e-01</leafValues></_>
    <_>
      <internalNodes>
        0 -1 58879 4.0692635229788721e-04</internalNodes>
      <leafValues>
        6.4312472939491272e-02 -1.8926537036895752e-01</leafValues></_>
    <_>
      <internalNodes>
        0 -1 36610 -7.3001196142286062e-04</internalNodes>
      <leafValues>
        3.0819815397262573e-01 -4.2207710444927216e-02</leafValues></_>
    <_>
      <internalNodes>
        0 -1 46112 7.8783361241221428e-03</internalNodes>
      <leafValues>
        2.5446377694606781e-02 -5.6827104091644287e-01</leafValues></_>
    <_>
      <internalNodes>
        0 -1 58996 -5.2976317238062620e-04</internalNodes>
      <leafValues>
        1.2760020792484283e-01 -9.8674841225147247e-02</leafValues></_>
    <_>
      <internalNodes>
        0 -1 48358 1.2181664258241653e-01</internalNodes>
      <leafValues>
        -5.2571836858987808e-02 2.5021603703498840e-01</leafValues></_>
    <_>
      <internalNodes>
        0 -1 159613 -9.2426985502243042e-03</internalNodes>
      <leafValues>
        -5.3632187843322754e-01 2.1480126306414604e-02</leafValues></_>
    <_>
      <internalNodes>
        0 -1 5078 4.8069572076201439e-03</internalNodes>
      <leafValues>
        -9.5144033432006836e-02 1.2541489303112030e-01</leafValues></_>
    <_>
      <internalNodes>
        0 -1 14660 -6.8240128457546234e-02</internalNodes>
      <leafValues>
        -7.6430523395538330e-01 1.4075754210352898e-02</leafValues></_>
    <_>
      <internalNodes>
        0 -1 10026 -5.5040796287357807e-03</internalNodes>
      <leafValues>
        1.8317906558513641e-01 -7.3288835585117340e-02</leafValues></_>
    <_>
      <internalNodes>
        0 -1 25019 1.0846586665138602e-03</internalNodes>
      <leafValues>
        8.3919726312160492e-02 -1.5859583020210266e-01</leafValues></_>
    <_>
      <internalNodes>
        0 -1 143861 -7.5349803082644939e-03</internalNodes>
      <leafValues>
        -2.2132910788059235e-01 5.6360166519880295e-02</leafValues></_>
    <_>
      <internalNodes>
        0 -1 139479 -7.4592307209968567e-03</internalNodes>
      <leafValues>
        3.2371091842651367e-01 -3.5890173166990280e-02</leafValues></_>
    <_>
      <internalNodes>
        0 -1 112077 -3.8688968867063522e-02</internalNodes>
      <leafValues>
        1.8271102011203766e-01 -6.6362015902996063e-02</leafValues></_>
    <_>
      <internalNodes>
        0 -1 147045 3.0387274819076993e-05</internalNodes>
      <leafValues>
        -1.1746648699045181e-01 1.1031474918127060e-01</leafValues></_>
    <_>
      <internalNodes>
        0 -1 42259 1.0676633100956678e-03</internalNodes>
      <leafValues>
        3.7534721195697784e-02 -3.0718767642974854e-01</leafValues></_>
    <_>
      <internalNodes>
        0 -1 137052 -5.6500500068068504e-03</internalNodes>
      <leafValues>
        2.0807206630706787e-01 -6.5407156944274902e-02</leafValues></_>
    <_>
      <internalNodes>
        0 -1 72315 3.8846148527227342e-05</internalNodes>
      <leafValues>
        -1.0728114098310471e-01 1.1597144603729248e-01</leafValues></_>
    <_>
      <internalNodes>
        0 -1 138903 -2.1998938173055649e-03</internalNodes>
      <leafValues>
        -2.8187128901481628e-01 4.3814621865749359e-02</leafValues></_>
    <_>
      <internalNodes>
        0 -1 104511 1.2296754866838455e-02</internalNodes>
      <leafValues>
        -8.1430569291114807e-02 1.6654546558856964e-01</leafValues></_>
    <_>
      <internalNodes>
        0 -1 134343 -3.0323982238769531e-02</internalNodes>
      <leafValues>
        -4.0502026677131653e-01 3.0823912471532822e-02</leafValues></_>
    <_>
      <internalNodes>
        0 -1 129546 -4.3047475628554821e-03</internalNodes>
      <leafValues>
        1.2360832095146179e-01 -1.0374468564987183e-01</leafValues></_>
    <_>
      <internalNodes>
        0 -1 33622 -6.6040389239788055e-02</internalNodes>
      <leafValues>
        -7.5264573097229004e-01 1.6632406041026115e-02</leafValues></_>
    <_>
      <internalNodes>
        0 -1 63134 -7.0788394659757614e-03</internalNodes>
      <leafValues>
        1.6593123972415924e-01 -8.3038166165351868e-02</leafValues></_>
    <_>
      <internalNodes>
        0 -1 34411 1.6666173469275236e-03</internalNodes>
      <leafValues>
        -6.9071635603904724e-02 1.7261837422847748e-01</leafValues></_>
    <_>
      <internalNodes>
        0 -1 46091 -1.5555140562355518e-03</internalNodes>
      <leafValues>
        -3.0658110976219177e-01 4.5431248843669891e-02</leafValues></_>
    <_>
      <internalNodes>
        0 -1 19757 -3.3537946641445160e-02</internalNodes>
      <leafValues>
        2.9619225859642029e-01 -4.1544154286384583e-02</leafValues></_>
    <_>
      <internalNodes>
        0 -1 18960 -1.4051486738026142e-02</internalNodes>
      <leafValues>
        1.3886153697967529e-01 -9.4895236194133759e-02</leafValues></_>
    <_>
      <internalNodes>
        0 -1 84246 1.0225128382444382e-02</internalNodes>
      <leafValues>
        -5.6076332926750183e-02 2.1908016502857208e-01</leafValues></_>
    <_>
      <internalNodes>
        0 -1 147936 -6.2907458050176501e-04</internalNodes>
      <leafValues>
        3.0261677503585815e-01 -3.8972239941358566e-02</leafValues></_>
    <_>
      <internalNodes>
        0 -1 122914 -3.3751148293958977e-05</internalNodes>
      <leafValues>
        1.2278148531913757e-01 -9.3080908060073853e-02</leafValues></_>
    <_>
      <internalNodes>
        0 -1 123804 -8.9939590543508530e-03</internalNodes>
      <leafValues>
        -2.5618243217468262e-01 4.7076962888240814e-02</leafValues></_>
    <_>
      <internalNodes>
        0 -1 149619 -1.3001386076211929e-02</internalNodes>
      <leafValues>
        4.8946139216423035e-01 -2.8534621000289917e-02</leafValues></_>
    <_>
      <internalNodes>
        0 -1 141329 -6.3623220194131136e-04</internalNodes>
      <leafValues>
        -2.5908172130584717e-01 4.7228548675775528e-02</leafValues></_>
    <_>
      <internalNodes>
        0 -1 130944 2.7059996500611305e-03</internalNodes>
      <leafValues>
        -3.2122388482093811e-02 3.6227834224700928e-01</leafValues></_>
    <_>
      <internalNodes>
        0 -1 70276 -2.6035578921437263e-03</internalNodes>
      <leafValues>
        -3.4914064407348633e-01 3.4220125526189804e-02</leafValues></_>
    <_>
      <internalNodes>
        0 -1 17268 -5.7820249348878860e-03</internalNodes>
      <leafValues>
        1.8831965327262878e-01 -6.1396244913339615e-02</leafValues></_>
    <_>
      <internalNodes>
        0 -1 8237 -1.2077993014827371e-03</internalNodes>
      <leafValues>
        -2.1192549169063568e-01 5.9237614274024963e-02</leafValues></_>
    <_>
      <internalNodes>
        0 -1 52991 1.0136565566062927e-01</internalNodes>
      <leafValues>
        -1.4423213899135590e-02 7.4567377567291260e-01</leafValues></_>
    <_>
      <internalNodes>
        0 -1 3335 7.6258137822151184e-02</internalNodes>
      <leafValues>
        -4.8887774348258972e-02 2.3536801338195801e-01</leafValues></_>
    <_>
      <internalNodes>
        0 -1 3535 2.8620594739913940e-01</internalNodes>
      <leafValues>
        1.9589349627494812e-02 -5.6259244680404663e-01</leafValues></_></weakClassifiers></stage22>
</opencv_storage>
