<?xml version="1.0"?>
<opencv_storage>
<cascade>
  <stageType>BOOST</stageType>
  <featureType>HAAR</featureType>
  <height>32</height>
  <width>32</width>
  <stageParams>
    <boostType>GAB</boostType>
    <minHitRate>9.9500000476837158e-01</minHitRate>
    <maxFalseAlarm>5.0000000000000000e-01</maxFalseAlarm>
    <weightTrimRate>9.4999999999999996e-01</weightTrimRate>
    <maxDepth>1</maxDepth>
    <maxWeakCount>100</maxWeakCount></stageParams>
  <featureParams>
    <maxCatCount>0</maxCatCount>
    <featSize>1</featSize>
    <mode>BASIC</mode></featureParams>
  <stageNum>5</stageNum>
  <stages>
    <!-- stage 0 -->
    <_>
      <maxWeakCount>11</maxWeakCount>
      <stageThreshold>-1.0650694370269775e+00</stageThreshold>
      <weakClassifiers>
        <_>
          <internalNodes>
            0 -1 91 -2.9835104214726016e-05</internalNodes>
          <leafValues>
            4.7991967201232910e-01 -4.7609561681747437e-01</leafValues></_>
        <_>
          <internalNodes>
            0 -1 20 1.8237569747725502e-05</internalNodes>
          <leafValues>
            -3.4594425559043884e-01 4.3193307518959045e-01</leafValues></_>
        <_>
          <internalNodes>
            0 -1 24 9.2081390321254730e-03</internalNodes>
          <leafValues>
            -2.6178818941116333e-01 5.1055061817169189e-01</leafValues></_>
        <_>
          <internalNodes>
            0 -1 20 -1.7380134522682056e-05</internalNodes>
          <leafValues>
            4.0253543853759766e-01 -3.0339735746383667e-01</leafValues></_>
        <_>
          <internalNodes>
            0 -1 44 1.2687377420661505e-05</internalNodes>
          <leafValues>
            -2.3000778257846832e-01 4.7439029812812805e-01</leafValues></_>
        <_>
          <internalNodes>
            0 -1 116 -1.0241512209177017e-03</internalNodes>
          <leafValues>
            5.0135743618011475e-01 -1.4784586429595947e-01</leafValues></_>
        <_>
          <internalNodes>
            0 -1 41 1.8910142898675986e-05</internalNodes>
          <leafValues>
            -2.2646819055080414e-01 3.8818478584289551e-01</leafValues></_>
        <_>
          <internalNodes>
            0 -1 41 -1.3874901924282312e-05</internalNodes>
          <leafValues>
            3.4107023477554321e-01 -2.7703136205673218e-01</leafValues></_>
        <_>
          <internalNodes>
            0 -1 35 5.3088488057255745e-03</internalNodes>
          <leafValues>
            -3.0985400080680847e-01 2.9937672615051270e-01</leafValues></_>
        <_>
          <internalNodes>
            0 -1 54 -7.0502370595932007e-02</internalNodes>
          <leafValues>
            7.7823173999786377e-01 -1.1952073127031326e-01</leafValues></_>
        <_>
          <internalNodes>
            0 -1 9 1.2087462891940959e-05</internalNodes>
          <leafValues>
            -2.3953293263912201e-01 3.0884957313537598e-01</leafValues></_></weakClassifiers></_>
    <!-- stage 1 -->
    <_>
      <maxWeakCount>24</maxWeakCount>
      <stageThreshold>-1.2400244474411011e+00</stageThreshold>
      <weakClassifiers>
        <_>
          <internalNodes>
            0 -1 56 -3.7571281194686890e-02</internalNodes>
          <leafValues>
            7.4528300762176514e-01 -2.0050761103630066e-01</leafValues></_>
        <_>
          <internalNodes>
            0 -1 70 -2.7236775495111942e-03</internalNodes>
          <leafValues>
            5.4417508840560913e-01 -2.1186393499374390e-01</leafValues></_>
        <_>
          <internalNodes>
            0 -1 53 -1.0026136040687561e-01</internalNodes>
          <leafValues>
            5.8915209770202637e-01 -1.8975217640399933e-01</leafValues></_>
        <_>
          <internalNodes>
            0 -1 117 -1.5972517430782318e-03</internalNodes>
          <leafValues>
            5.8831304311752319e-01 -1.4120428264141083e-01</leafValues></_>
        <_>
          <internalNodes>
            0 -1 40 5.6524346582591534e-03</internalNodes>
          <leafValues>
            -9.6963070333003998e-02 6.1806499958038330e-01</leafValues></_>
        <_>
          <internalNodes>
            0 -1 11 -2.4332790635526180e-03</internalNodes>
          <leafValues>
            5.2492368221282959e-01 -1.4390984177589417e-01</leafValues></_>
        <_>
          <internalNodes>
            0 -1 39 -1.8729502335190773e-02</internalNodes>
          <leafValues>
            4.1387972235679626e-01 -1.7203368246555328e-01</leafValues></_>
        <_>
          <internalNodes>
            0 -1 55 -2.2443193942308426e-02</internalNodes>
          <leafValues>
            6.7626750469207764e-01 -8.2171626389026642e-02</leafValues></_>
        <_>
          <internalNodes>
            0 -1 23 -1.6797941923141479e-01</internalNodes>
          <leafValues>
            -6.4942467212677002e-01 1.2442286312580109e-01</leafValues></_>
        <_>
          <internalNodes>
            0 -1 42 -4.9898460507392883e-02</internalNodes>
          <leafValues>
            5.7605475187301636e-01 -1.1348351091146469e-01</leafValues></_>
        <_>
          <internalNodes>
            0 -1 22 -3.3228960633277893e-01</internalNodes>
          <leafValues>
            -7.3811131715774536e-01 8.8924013078212738e-02</leafValues></_>
        <_>
          <internalNodes>
            0 -1 106 6.6834371536970139e-03</internalNodes>
          <leafValues>
            -1.2072692066431046e-01 5.1329398155212402e-01</leafValues></_>
        <_>
          <internalNodes>
            0 -1 69 5.2008894272148609e-04</internalNodes>
          <leafValues>
            1.4005288481712341e-01 -4.2044404149055481e-01</leafValues></_>
        <_>
          <internalNodes>
            0 -1 96 -2.6551084592938423e-03</internalNodes>
          <leafValues>
            2.3445132374763489e-01 -2.5449404120445251e-01</leafValues></_>
        <_>
          <internalNodes>
            0 -1 101 8.8381422683596611e-03</internalNodes>
          <leafValues>
            -1.7075653374195099e-01 3.2994413375854492e-01</leafValues></_>
        <_>
          <internalNodes>
            0 -1 109 -1.8619394395500422e-03</internalNodes>
          <leafValues>
            4.2549473047256470e-01 -1.1569797247648239e-01</leafValues></_>
        <_>
          <internalNodes>
            0 -1 17 -4.0606670081615448e-03</internalNodes>
          <leafValues>
            3.6194720864295959e-01 -1.3311648368835449e-01</leafValues></_>
        <_>
          <internalNodes>
            0 -1 59 9.3044936875230633e-06</internalNodes>
          <leafValues>
            -2.0329731702804565e-01 2.6114961504936218e-01</leafValues></_>
        <_>
          <internalNodes>
            0 -1 12 8.3214854821562767e-03</internalNodes>
          <leafValues>
            -8.6449734866619110e-02 5.5599987506866455e-01</leafValues></_>
        <_>
          <internalNodes>
            0 -1 78 8.2953274250030518e-04</internalNodes>
          <leafValues>
            1.3625888526439667e-01 -4.5701089501380920e-01</leafValues></_>
        <_>
          <internalNodes>
            0 -1 113 -2.2641210816800594e-03</internalNodes>
          <leafValues>
            6.0829597711563110e-01 -7.9656124114990234e-02</leafValues></_>
        <_>
          <internalNodes>
            0 -1 99 7.0988154038786888e-04</internalNodes>
          <leafValues>
            1.1790104955434799e-01 -4.6679913997650146e-01</leafValues></_>
        <_>
          <internalNodes>
            0 -1 60 -1.3062185607850552e-03</internalNodes>
          <leafValues>
            5.6075328588485718e-01 -1.0111095011234283e-01</leafValues></_>
        <_>
          <internalNodes>
            0 -1 29 8.6260888565448113e-06</internalNodes>
          <leafValues>
            -1.7835023999214172e-01 2.6769784092903137e-01</leafValues></_></weakClassifiers></_>
    <!-- stage 2 -->
    <_>
      <maxWeakCount>30</maxWeakCount>
      <stageThreshold>-1.2580484151840210e+00</stageThreshold>
      <weakClassifiers>
        <_>
          <internalNodes>
            0 -1 52 -2.5277256499975920e-03</internalNodes>
          <leafValues>
            4.5088160037994385e-01 -2.9684910178184509e-01</leafValues></_>
        <_>
          <internalNodes>
            0 -1 31 3.1620080117136240e-03</internalNodes>
          <leafValues>
            -2.0151376724243164e-01 5.0264799594879150e-01</leafValues></_>
        <_>
          <internalNodes>
            0 -1 13 3.4164739772677422e-03</internalNodes>
          <leafValues>
            -2.3921696841716766e-01 4.1186755895614624e-01</leafValues></_>
        <_>
          <internalNodes>
            0 -1 30 -2.3000083863735199e-02</internalNodes>
          <leafValues>
            5.4261529445648193e-01 -1.3918915390968323e-01</leafValues></_>
        <_>
          <internalNodes>
            0 -1 67 -1.2557574082165956e-03</internalNodes>
          <leafValues>
            -7.0858871936798096e-01 8.8300168514251709e-02</leafValues></_>
        <_>
          <internalNodes>
            0 -1 111 -3.8959153462201357e-03</internalNodes>
          <leafValues>
            3.4553644061088562e-01 -1.8262362480163574e-01</leafValues></_>
        <_>
          <internalNodes>
            0 -1 8 1.7470775637775660e-03</internalNodes>
          <leafValues>
            -1.3330879807472229e-01 4.0955930948257446e-01</leafValues></_>
        <_>
          <internalNodes>
            0 -1 73 -4.8174094408750534e-03</internalNodes>
          <leafValues>
            -7.6050668954849243e-01 6.9210268557071686e-02</leafValues></_>
        <_>
          <internalNodes>
            0 -1 72 3.7826066836714745e-03</internalNodes>
          <leafValues>
            7.4481584131717682e-02 -6.5382260084152222e-01</leafValues></_>
        <_>
          <internalNodes>
            0 -1 51 1.5374495647847652e-02</internalNodes>
          <leafValues>
            -1.2509645521640778e-01 4.0572434663772583e-01</leafValues></_>
        <_>
          <internalNodes>
            0 -1 50 5.6978170759975910e-03</internalNodes>
          <leafValues>
            -1.6717407107353210e-01 3.4622138738632202e-01</leafValues></_>
        <_>
          <internalNodes>
            0 -1 15 -2.6479786634445190e-01</internalNodes>
          <leafValues>
            -6.4700740575790405e-01 1.0683570057153702e-01</leafValues></_>
        <_>
          <internalNodes>
            0 -1 47 1.6695368103682995e-03</internalNodes>
          <leafValues>
            -1.4437176287174225e-01 3.2912257313728333e-01</leafValues></_>
        <_>
          <internalNodes>
            0 -1 104 3.3715819008648396e-03</internalNodes>
          <leafValues>
            6.6248141229152679e-02 -6.9220578670501709e-01</leafValues></_>
        <_>
          <internalNodes>
            0 -1 28 -7.0368261076509953e-03</internalNodes>
          <leafValues>
            2.8622975945472717e-01 -1.7261821031570435e-01</leafValues></_>
        <_>
          <internalNodes>
            0 -1 21 -1.9898921251296997e-02</internalNodes>
          <leafValues>
            4.8549738526344299e-01 -8.6222410202026367e-02</leafValues></_>
        <_>
          <internalNodes>
            0 -1 65 5.8269361034035683e-04</internalNodes>
          <leafValues>
            1.1773726344108582e-01 -4.0042084455490112e-01</leafValues></_>
        <_>
          <internalNodes>
            0 -1 68 -1.2499613221734762e-03</internalNodes>
          <leafValues>
            -5.1790326833724976e-01 9.6706308424472809e-02</leafValues></_>
        <_>
          <internalNodes>
            0 -1 105 6.7572318948805332e-04</internalNodes>
          <leafValues>
            -1.1117481440305710e-01 5.0474733114242554e-01</leafValues></_>
        <_>
          <internalNodes>
            0 -1 103 2.4791252799332142e-03</internalNodes>
          <leafValues>
            -1.3052748143672943e-01 3.5510015487670898e-01</leafValues></_>
        <_>
          <internalNodes>
            0 -1 90 -2.4473527446389198e-03</internalNodes>
          <leafValues>
            -6.9273275136947632e-01 6.9010384380817413e-02</leafValues></_>
        <_>
          <internalNodes>
            0 -1 3 4.1878071427345276e-01</internalNodes>
          <leafValues>
            5.0132129341363907e-02 -7.1081531047821045e-01</leafValues></_>
        <_>
          <internalNodes>
            0 -1 5 -6.8917520344257355e-02</internalNodes>
          <leafValues>
            -4.8196107149124146e-01 9.5064803957939148e-02</leafValues></_>
        <_>
          <internalNodes>
            0 -1 18 -1.5551443211734295e-03</internalNodes>
          <leafValues>
            5.2121037244796753e-01 -8.3188399672508240e-02</leafValues></_>
        <_>
          <internalNodes>
            0 -1 89 1.0545082623139024e-03</internalNodes>
          <leafValues>
            9.4494476914405823e-02 -5.1693093776702881e-01</leafValues></_>
        <_>
          <internalNodes>
            0 -1 43 1.4779788907617331e-03</internalNodes>
          <leafValues>
            -2.1860799193382263e-01 1.8647058308124542e-01</leafValues></_>
        <_>
          <internalNodes>
            0 -1 71 -7.6570902019739151e-03</internalNodes>
          <leafValues>
            5.7106971740722656e-01 -7.7035605907440186e-02</leafValues></_>
        <_>
          <internalNodes>
            0 -1 94 -3.5044262185692787e-03</internalNodes>
          <leafValues>
            2.3983247578144073e-01 -1.7432218790054321e-01</leafValues></_>
        <_>
          <internalNodes>
            0 -1 32 1.1967806145548820e-02</internalNodes>
          <leafValues>
            -9.2364475131034851e-02 4.7078299522399902e-01</leafValues></_>
        <_>
          <internalNodes>
            0 -1 76 -3.9209094829857349e-03</internalNodes>
          <leafValues>
            -4.0265455842018127e-01 1.2040393054485321e-01</leafValues></_></weakClassifiers></_>
    <!-- stage 3 -->
    <_>
      <maxWeakCount>23</maxWeakCount>
      <stageThreshold>-1.0871387720108032e+00</stageThreshold>
      <weakClassifiers>
        <_>
          <internalNodes>
            0 -1 0 1.6222365200519562e-02</internalNodes>
          <leafValues>
            -2.1279373764991760e-01 6.9658118486404419e-01</leafValues></_>
        <_>
          <internalNodes>
            0 -1 6 -7.4292689561843872e-02</internalNodes>
          <leafValues>
            -5.3075492382049561e-01 1.9012399017810822e-01</leafValues></_>
        <_>
          <internalNodes>
            0 -1 33 1.5830950811505318e-02</internalNodes>
          <leafValues>
            -1.5101149678230286e-01 5.3617620468139648e-01</leafValues></_>
        <_>
          <internalNodes>
            0 -1 83 -3.8979034870862961e-02</internalNodes>
          <leafValues>
            -5.9839469194412231e-01 9.9021576344966888e-02</leafValues></_>
        <_>
          <internalNodes>
            0 -1 115 -4.4969450682401657e-03</internalNodes>
          <leafValues>
            4.9287077784538269e-01 -1.2794049084186554e-01</leafValues></_>
        <_>
          <internalNodes>
            0 -1 7 -6.0020349919795990e-02</internalNodes>
          <leafValues>
            6.7374426126480103e-01 -9.6494153141975403e-02</leafValues></_>
        <_>
          <internalNodes>
            0 -1 75 6.2884564977139235e-04</internalNodes>
          <leafValues>
            1.2503111362457275e-01 -4.9498271942138672e-01</leafValues></_>
        <_>
          <internalNodes>
            0 -1 26 -2.1670490503311157e-02</internalNodes>
          <leafValues>
            -5.5931764841079712e-01 1.0729340463876724e-01</leafValues></_>
        <_>
          <internalNodes>
            0 -1 36 4.2136944830417633e-02</internalNodes>
          <leafValues>
            1.2338010966777802e-01 -5.4314529895782471e-01</leafValues></_>
        <_>
          <internalNodes>
            0 -1 25 -4.9860589206218719e-04</internalNodes>
          <leafValues>
            -5.3004741668701172e-01 7.9524718225002289e-02</leafValues></_>
        <_>
          <internalNodes>
            0 -1 107 2.7682241052389145e-02</internalNodes>
          <leafValues>
            9.2545397579669952e-02 -5.7843399047851562e-01</leafValues></_>
        <_>
          <internalNodes>
            0 -1 77 -1.4613469829782844e-05</internalNodes>
          <leafValues>
            2.1836909651756287e-01 -2.4254319071769714e-01</leafValues></_>
        <_>
          <internalNodes>
            0 -1 87 2.1918416023254395e-03</internalNodes>
          <leafValues>
            9.9206589162349701e-02 -5.0874775648117065e-01</leafValues></_>
        <_>
          <internalNodes>
            0 -1 86 -1.3294841628521681e-03</internalNodes>
          <leafValues>
            -4.4557622075080872e-01 1.2224534898996353e-01</leafValues></_>
        <_>
          <internalNodes>
            0 -1 2 5.1675930619239807e-02</internalNodes>
          <leafValues>
            -1.5722435712814331e-01 3.0405315756797791e-01</leafValues></_>
        <_>
          <internalNodes>
            0 -1 14 -1.0345628857612610e-01</internalNodes>
          <leafValues>
            3.7817469239234924e-01 -1.3371796905994415e-01</leafValues></_>
        <_>
          <internalNodes>
            0 -1 74 5.5174473673105240e-03</internalNodes>
          <leafValues>
            -2.4644543230533600e-01 1.9083552062511444e-01</leafValues></_>
        <_>
          <internalNodes>
            0 -1 82 -7.0233583450317383e-02</internalNodes>
          <leafValues>
            -5.8370858430862427e-01 9.7137138247489929e-02</leafValues></_>
        <_>
          <internalNodes>
            0 -1 114 1.5592804629704915e-05</internalNodes>
          <leafValues>
            -1.9430033862590790e-01 2.8967317938804626e-01</leafValues></_>
        <_>
          <internalNodes>
            0 -1 93 -1.4899948837410193e-05</internalNodes>
          <leafValues>
            2.3493140935897827e-01 -2.1746426820755005e-01</leafValues></_>
        <_>
          <internalNodes>
            0 -1 38 -3.2504263799637556e-03</internalNodes>
          <leafValues>
            -4.9713754653930664e-01 8.9318379759788513e-02</leafValues></_>
        <_>
          <internalNodes>
            0 -1 102 1.2607310782186687e-04</internalNodes>
          <leafValues>
            1.2317860126495361e-01 -3.8927468657493591e-01</leafValues></_>
        <_>
          <internalNodes>
            0 -1 84 6.2535718825529329e-06</internalNodes>
          <leafValues>
            -1.8006211519241333e-01 2.4574822187423706e-01</leafValues></_></weakClassifiers></_>
    <!-- stage 4 -->
    <_>
      <maxWeakCount>34</maxWeakCount>
      <stageThreshold>-1.2235244512557983e+00</stageThreshold>
      <weakClassifiers>
        <_>
          <internalNodes>
            0 -1 46 6.8997919559478760e-02</internalNodes>
          <leafValues>
            -2.8429752588272095e-01 4.3544304370880127e-01</leafValues></_>
        <_>
          <internalNodes>
            0 -1 62 7.6641244813799858e-03</internalNodes>
          <leafValues>
            -1.9732792675495148e-01 4.2133909463882446e-01</leafValues></_>
        <_>
          <internalNodes>
            0 -1 49 2.6990219950675964e-02</internalNodes>
          <leafValues>
            -1.5923628211021423e-01 4.0161105990409851e-01</leafValues></_>
        <_>
          <internalNodes>
            0 -1 48 -1.7340835183858871e-02</internalNodes>
          <leafValues>
            5.8435970544815063e-01 -1.5818484127521515e-01</leafValues></_>
        <_>
          <internalNodes>
            0 -1 57 -3.8537304848432541e-02</internalNodes>
          <leafValues>
            5.2223074436187744e-01 -9.6742168068885803e-02</leafValues></_>
        <_>
          <internalNodes>
            0 -1 45 2.8639990836381912e-02</internalNodes>
          <leafValues>
            -1.1839640885591507e-01 4.5850262045860291e-01</leafValues></_>
        <_>
          <internalNodes>
            0 -1 10 2.5623447727411985e-03</internalNodes>
          <leafValues>
            -1.2534636259078979e-01 3.8662654161453247e-01</leafValues></_>
        <_>
          <internalNodes>
            0 -1 97 -1.0097282938659191e-03</internalNodes>
          <leafValues>
            -6.6644150018692017e-01 5.4336629807949066e-02</leafValues></_>
        <_>
          <internalNodes>
            0 -1 19 -2.5095008313655853e-03</internalNodes>
          <leafValues>
            3.1417950987815857e-01 -1.4629723131656647e-01</leafValues></_>
        <_>
          <internalNodes>
            0 -1 95 1.2538367882370949e-03</internalNodes>
          <leafValues>
            7.8938722610473633e-02 -6.4212787151336670e-01</leafValues></_>
        <_>
          <internalNodes>
            0 -1 58 -9.7406217828392982e-03</internalNodes>
          <leafValues>
            2.5877282023429871e-01 -1.6807097196578979e-01</leafValues></_>
        <_>
          <internalNodes>
            0 -1 92 -1.9803564995527267e-02</internalNodes>
          <leafValues>
            2.5114536285400391e-01 -1.5977206826210022e-01</leafValues></_>
        <_>
          <internalNodes>
            0 -1 4 1.9578197679948062e-05</internalNodes>
          <leafValues>
            -1.6732718050479889e-01 2.6355913281440735e-01</leafValues></_>
        <_>
          <internalNodes>
            0 -1 79 -6.2535718825529329e-06</internalNodes>
          <leafValues>
            1.8917305767536163e-01 -2.3697783052921295e-01</leafValues></_>
        <_>
          <internalNodes>
            0 -1 88 -7.3845194492605515e-06</internalNodes>
          <leafValues>
            2.5572293996810913e-01 -1.6263143718242645e-01</leafValues></_>
        <_>
          <internalNodes>
            0 -1 100 -3.0401563271880150e-03</internalNodes>
          <leafValues>
            6.3155609369277954e-01 -7.2327792644500732e-02</leafValues></_>
        <_>
          <internalNodes>
            0 -1 98 -7.3942383096436970e-06</internalNodes>
          <leafValues>
            2.4638867378234863e-01 -1.7318442463874817e-01</leafValues></_>
        <_>
          <internalNodes>
            0 -1 108 7.2429780848324299e-03</internalNodes>
          <leafValues>
            -1.4348770678043365e-01 3.0956169962882996e-01</leafValues></_>
        <_>
          <internalNodes>
            0 -1 118 -1.4617955457651988e-05</internalNodes>
          <leafValues>
            2.3138815164566040e-01 -1.8445235490798950e-01</leafValues></_>
        <_>
          <internalNodes>
            0 -1 63 5.4192781681194901e-04</internalNodes>
          <leafValues>
            9.6702754497528076e-02 -4.3263325095176697e-01</leafValues></_>
        <_>
          <internalNodes>
            0 -1 80 1.3682971475645900e-03</internalNodes>
          <leafValues>
            -7.6985470950603485e-02 5.4544508457183838e-01</leafValues></_>
        <_>
          <internalNodes>
            0 -1 1 -1.6765935346484184e-02</internalNodes>
          <leafValues>
            2.4729797244071960e-01 -1.5955115854740143e-01</leafValues></_>
        <_>
          <internalNodes>
            0 -1 16 -1.3338797725737095e-04</internalNodes>
          <leafValues>
            2.4905318021774292e-01 -1.6438034176826477e-01</leafValues></_>
        <_>
          <internalNodes>
            0 -1 64 -7.9761771485209465e-04</internalNodes>
          <leafValues>
            -5.2410781383514404e-01 8.1637009978294373e-02</leafValues></_>
        <_>
          <internalNodes>
            0 -1 110 -1.7922233382705599e-05</internalNodes>
          <leafValues>
            2.1791136264801025e-01 -1.8432030081748962e-01</leafValues></_>
        <_>
          <internalNodes>
            0 -1 37 3.7432205863296986e-03</internalNodes>
          <leafValues>
            -9.3490436673164368e-02 4.5370152592658997e-01</leafValues></_>
        <_>
          <internalNodes>
            0 -1 61 -6.6565056331455708e-03</internalNodes>
          <leafValues>
            6.6009962558746338e-01 -6.1260305345058441e-02</leafValues></_>
        <_>
          <internalNodes>
            0 -1 112 -8.2068654592148960e-06</internalNodes>
          <leafValues>
            2.5072839856147766e-01 -1.6315522789955139e-01</leafValues></_>
        <_>
          <internalNodes>
            0 -1 112 1.7155323803308420e-05</internalNodes>
          <leafValues>
            -1.7729322612285614e-01 2.5111007690429688e-01</leafValues></_>
        <_>
          <internalNodes>
            0 -1 81 8.8100277935154736e-06</internalNodes>
          <leafValues>
            -2.2724661231040955e-01 1.9593596458435059e-01</leafValues></_>
        <_>
          <internalNodes>
            0 -1 27 -7.1625958662480116e-04</internalNodes>
          <leafValues>
            2.4144414067268372e-01 -1.7943832278251648e-01</leafValues></_>
        <_>
          <internalNodes>
            0 -1 85 3.8821209454908967e-04</internalNodes>
          <leafValues>
            1.1271296441555023e-01 -3.8339796662330627e-01</leafValues></_>
        <_>
          <internalNodes>
            0 -1 66 -5.5238408967852592e-03</internalNodes>
          <leafValues>
            2.7974489331245422e-01 -1.6051356494426727e-01</leafValues></_>
        <_>
          <internalNodes>
            0 -1 34 6.9525890467048157e-06</internalNodes>
          <leafValues>
            -1.9376438856124878e-01 2.2870717942714691e-01</leafValues></_></weakClassifiers></_></stages>
  <features>
    <_>
      <rects>
        <_>
          0 1 4 25 -1.</_>
        <_>
          2 1 2 25 2.</_></rects>
      <tilted>0</tilted></_>
    <_>
      <rects>
        <_>
          0 1 7 18 -1.</_>
        <_>
          0 7 7 6 3.</_></rects>
      <tilted>0</tilted></_>
    <_>
      <rects>
        <_>
          0 1 16 24 -1.</_>
        <_>
          8 1 8 24 2.</_></rects>
      <tilted>0</tilted></_>
    <_>
      <rects>
        <_>
          0 2 25 26 -1.</_>
        <_>
          0 15 25 13 2.</_></rects>
      <tilted>0</tilted></_>
    <_>
      <rects>
        <_>
          0 4 2 2 -1.</_>
        <_>
          0 4 1 1 2.</_>
        <_>
          1 5 1 1 2.</_></rects>
      <tilted>0</tilted></_>
    <_>
      <rects>
        <_>
          0 6 13 24 -1.</_>
        <_>
          0 14 13 8 3.</_></rects>
      <tilted>0</tilted></_>
    <_>
      <rects>
        <_>
          0 6 32 24 -1.</_>
        <_>
          0 14 32 8 3.</_></rects>
      <tilted>0</tilted></_>
    <_>
      <rects>
        <_>
          0 7 8 25 -1.</_>
        <_>
          4 7 4 25 2.</_></rects>
      <tilted>0</tilted></_>
    <_>
      <rects>
        <_>
          0 8 2 8 -1.</_>
        <_>
          1 8 1 8 2.</_></rects>
      <tilted>0</tilted></_>
    <_>
      <rects>
        <_>
          0 9 2 1 -1.</_>
        <_>
          1 9 1 1 2.</_></rects>
      <tilted>0</tilted></_>
    <_>
      <rects>
        <_>
          0 9 2 11 -1.</_>
        <_>
          1 9 1 11 2.</_></rects>
      <tilted>0</tilted></_>
    <_>
      <rects>
        <_>
          0 11 2 18 -1.</_>
        <_>
          0 11 1 9 2.</_>
        <_>
          1 20 1 9 2.</_></rects>
      <tilted>0</tilted></_>
    <_>
      <rects>
        <_>
          0 11 4 7 -1.</_>
        <_>
          2 11 2 7 2.</_></rects>
      <tilted>0</tilted></_>
    <_>
      <rects>
        <_>
          0 12 29 2 -1.</_>
        <_>
          0 13 29 1 2.</_></rects>
      <tilted>0</tilted></_>
    <_>
      <rects>
        <_>
          0 14 26 17 -1.</_>
        <_>
          13 14 13 17 2.</_></rects>
      <tilted>0</tilted></_>
    <_>
      <rects>
        <_>
          0 14 32 18 -1.</_>
        <_>
          0 23 32 9 2.</_></rects>
      <tilted>0</tilted></_>
    <_>
      <rects>
        <_>
          0 15 3 4 -1.</_>
        <_>
          1 15 1 4 3.</_></rects>
      <tilted>0</tilted></_>
    <_>
      <rects>
        <_>
          0 21 21 1 -1.</_>
        <_>
          7 21 7 1 3.</_></rects>
      <tilted>0</tilted></_>
    <_>
      <rects>
        <_>
          0 30 8 2 -1.</_>
        <_>
          0 30 4 1 2.</_>
        <_>
          4 31 4 1 2.</_></rects>
      <tilted>0</tilted></_>
    <_>
      <rects>
        <_>
          0 30 26 2 -1.</_>
        <_>
          0 30 13 1 2.</_>
        <_>
          13 31 13 1 2.</_></rects>
      <tilted>0</tilted></_>
    <_>
      <rects>
        <_>
          1 8 2 1 -1.</_>
        <_>
          2 8 1 1 2.</_></rects>
      <tilted>0</tilted></_>
    <_>
      <rects>
        <_>
          1 10 24 6 -1.</_>
        <_>
          1 12 24 2 3.</_></rects>
      <tilted>0</tilted></_>
    <_>
      <rects>
        <_>
          1 10 29 22 -1.</_>
        <_>
          1 21 29 11 2.</_></rects>
      <tilted>0</tilted></_>
    <_>
      <rects>
        <_>
          1 11 31 21 -1.</_>
        <_>
          1 18 31 7 3.</_></rects>
      <tilted>0</tilted></_>
    <_>
      <rects>
        <_>
          1 12 29 6 -1.</_>
        <_>
          1 14 29 2 3.</_></rects>
      <tilted>0</tilted></_>
    <_>
      <rects>
        <_>
          1 13 2 2 -1.</_>
        <_>
          1 14 2 1 2.</_></rects>
      <tilted>0</tilted></_>
    <_>
      <rects>
        <_>
          1 18 8 9 -1.</_>
        <_>
          1 21 8 3 3.</_></rects>
      <tilted>0</tilted></_>
    <_>
      <rects>
        <_>
          1 22 2 9 -1.</_>
        <_>
          1 25 2 3 3.</_></rects>
      <tilted>0</tilted></_>
    <_>
      <rects>
        <_>
          1 31 30 1 -1.</_>
        <_>
          11 31 10 1 3.</_></rects>
      <tilted>0</tilted></_>
    <_>
      <rects>
        <_>
          2 0 2 2 -1.</_>
        <_>
          2 0 1 1 2.</_>
        <_>
          3 1 1 1 2.</_></rects>
      <tilted>0</tilted></_>
    <_>
      <rects>
        <_>
          2 0 22 4 -1.</_>
        <_>
          2 2 22 2 2.</_></rects>
      <tilted>0</tilted></_>
    <_>
      <rects>
        <_>
          2 0 25 2 -1.</_>
        <_>
          2 1 25 1 2.</_></rects>
      <tilted>0</tilted></_>
    <_>
      <rects>
        <_>
          2 1 11 6 -1.</_>
        <_>
          2 3 11 2 3.</_></rects>
      <tilted>0</tilted></_>
    <_>
      <rects>
        <_>
          2 3 30 1 -1.</_>
        <_>
          12 3 10 1 3.</_></rects>
      <tilted>0</tilted></_>
    <_>
      <rects>
        <_>
          2 7 2 1 -1.</_>
        <_>
          3 7 1 1 2.</_></rects>
      <tilted>0</tilted></_>
    <_>
      <rects>
        <_>
          2 10 29 10 -1.</_>
        <_>
          2 15 29 5 2.</_></rects>
      <tilted>0</tilted></_>
    <_>
      <rects>
        <_>
          2 17 17 12 -1.</_>
        <_>
          2 21 17 4 3.</_></rects>
      <tilted>0</tilted></_>
    <_>
      <rects>
        <_>
          2 21 26 3 -1.</_>
        <_>
          2 22 26 1 3.</_></rects>
      <tilted>0</tilted></_>
    <_>
      <rects>
        <_>
          2 29 9 2 -1.</_>
        <_>
          2 30 9 1 2.</_></rects>
      <tilted>0</tilted></_>
    <_>
      <rects>
        <_>
          2 30 30 2 -1.</_>
        <_>
          12 30 10 2 3.</_></rects>
      <tilted>0</tilted></_>
    <_>
      <rects>
        <_>
          3 0 23 2 -1.</_>
        <_>
          3 1 23 1 2.</_></rects>
      <tilted>0</tilted></_>
    <_>
      <rects>
        <_>
          3 2 2 2 -1.</_>
        <_>
          3 2 1 1 2.</_>
        <_>
          4 3 1 1 2.</_></rects>
      <tilted>0</tilted></_>
    <_>
      <rects>
        <_>
          3 5 21 9 -1.</_>
        <_>
          3 8 21 3 3.</_></rects>
      <tilted>0</tilted></_>
    <_>
      <rects>
        <_>
          4 1 12 7 -1.</_>
        <_>
          10 1 6 7 2.</_></rects>
      <tilted>0</tilted></_>
    <_>
      <rects>
        <_>
          5 2 2 1 -1.</_>
        <_>
          6 2 1 1 2.</_></rects>
      <tilted>0</tilted></_>
    <_>
      <rects>
        <_>
          5 8 27 9 -1.</_>
        <_>
          5 11 27 3 3.</_></rects>
      <tilted>0</tilted></_>
    <_>
      <rects>
        <_>
          5 9 27 15 -1.</_>
        <_>
          5 14 27 5 3.</_></rects>
      <tilted>0</tilted></_>
    <_>
      <rects>
        <_>
          5 18 26 3 -1.</_>
        <_>
          5 19 26 1 3.</_></rects>
      <tilted>0</tilted></_>
    <_>
      <rects>
        <_>
          6 0 20 4 -1.</_>
        <_>
          6 2 20 2 2.</_></rects>
      <tilted>0</tilted></_>
    <_>
      <rects>
        <_>
          6 0 21 9 -1.</_>
        <_>
          6 3 21 3 3.</_></rects>
      <tilted>0</tilted></_>
    <_>
      <rects>
        <_>
          6 10 16 6 -1.</_>
        <_>
          6 12 16 2 3.</_></rects>
      <tilted>0</tilted></_>
    <_>
      <rects>
        <_>
          6 14 24 6 -1.</_>
        <_>
          6 16 24 2 3.</_></rects>
      <tilted>0</tilted></_>
    <_>
      <rects>
        <_>
          6 29 19 2 -1.</_>
        <_>
          6 30 19 1 2.</_></rects>
      <tilted>0</tilted></_>
    <_>
      <rects>
        <_>
          7 0 18 15 -1.</_>
        <_>
          7 5 18 5 3.</_></rects>
      <tilted>0</tilted></_>
    <_>
      <rects>
        <_>
          7 1 12 12 -1.</_>
        <_>
          7 5 12 4 3.</_></rects>
      <tilted>0</tilted></_>
    <_>
      <rects>
        <_>
          7 1 21 6 -1.</_>
        <_>
          7 3 21 2 3.</_></rects>
      <tilted>0</tilted></_>
    <_>
      <rects>
        <_>
          7 7 17 9 -1.</_>
        <_>
          7 10 17 3 3.</_></rects>
      <tilted>0</tilted></_>
    <_>
      <rects>
        <_>
          7 7 18 8 -1.</_>
        <_>
          7 11 18 4 2.</_></rects>
      <tilted>0</tilted></_>
    <_>
      <rects>
        <_>
          7 27 24 4 -1.</_>
        <_>
          15 27 8 4 3.</_></rects>
      <tilted>0</tilted></_>
    <_>
      <rects>
        <_>
          8 6 1 2 -1.</_>
        <_>
          8 7 1 1 2.</_></rects>
      <tilted>0</tilted></_>
    <_>
      <rects>
        <_>
          8 6 4 3 -1.</_>
        <_>
          8 7 4 1 3.</_></rects>
      <tilted>0</tilted></_>
    <_>
      <rects>
        <_>
          8 21 24 3 -1.</_>
        <_>
          8 22 24 1 3.</_></rects>
      <tilted>0</tilted></_>
    <_>
      <rects>
        <_>
          8 26 14 6 -1.</_>
        <_>
          8 28 14 2 3.</_></rects>
      <tilted>0</tilted></_>
    <_>
      <rects>
        <_>
          9 2 3 4 -1.</_>
        <_>
          10 2 1 4 3.</_></rects>
      <tilted>0</tilted></_>
    <_>
      <rects>
        <_>
          9 2 3 5 -1.</_>
        <_>
          10 2 1 5 3.</_></rects>
      <tilted>0</tilted></_>
    <_>
      <rects>
        <_>
          10 0 3 5 -1.</_>
        <_>
          11 0 1 5 3.</_></rects>
      <tilted>0</tilted></_>
    <_>
      <rects>
        <_>
          10 2 9 25 -1.</_>
        <_>
          13 2 3 25 3.</_></rects>
      <tilted>0</tilted></_>
    <_>
      <rects>
        <_>
          10 3 3 6 -1.</_>
        <_>
          11 3 1 6 3.</_></rects>
      <tilted>0</tilted></_>
    <_>
      <rects>
        <_>
          10 20 3 9 -1.</_>
        <_>
          11 20 1 9 3.</_></rects>
      <tilted>0</tilted></_>
    <_>
      <rects>
        <_>
          10 26 3 6 -1.</_>
        <_>
          11 26 1 6 3.</_></rects>
      <tilted>0</tilted></_>
    <_>
      <rects>
        <_>
          10 30 14 2 -1.</_>
        <_>
          10 31 14 1 2.</_></rects>
      <tilted>0</tilted></_>
    <_>
      <rects>
        <_>
          11 1 21 2 -1.</_>
        <_>
          11 2 21 1 2.</_></rects>
      <tilted>0</tilted></_>
    <_>
      <rects>
        <_>
          11 2 3 22 -1.</_>
        <_>
          12 2 1 22 3.</_></rects>
      <tilted>0</tilted></_>
    <_>
      <rects>
        <_>
          11 6 3 23 -1.</_>
        <_>
          12 6 1 23 3.</_></rects>
      <tilted>0</tilted></_>
    <_>
      <rects>
        <_>
          11 10 21 6 -1.</_>
        <_>
          11 13 21 3 2.</_></rects>
      <tilted>0</tilted></_>
    <_>
      <rects>
        <_>
          12 28 3 4 -1.</_>
        <_>
          13 28 1 4 3.</_></rects>
      <tilted>0</tilted></_>
    <_>
      <rects>
        <_>
          12 28 6 4 -1.</_>
        <_>
          15 28 3 4 2.</_></rects>
      <tilted>0</tilted></_>
    <_>
      <rects>
        <_>
          12 30 1 2 -1.</_>
        <_>
          12 31 1 1 2.</_></rects>
      <tilted>0</tilted></_>
    <_>
      <rects>
        <_>
          13 2 3 10 -1.</_>
        <_>
          14 2 1 10 3.</_></rects>
      <tilted>0</tilted></_>
    <_>
      <rects>
        <_>
          13 28 1 2 -1.</_>
        <_>
          13 29 1 1 2.</_></rects>
      <tilted>0</tilted></_>
    <_>
      <rects>
        <_>
          14 8 3 3 -1.</_>
        <_>
          14 9 3 1 3.</_></rects>
      <tilted>0</tilted></_>
    <_>
      <rects>
        <_>
          14 10 3 2 -1.</_>
        <_>
          14 11 3 1 2.</_></rects>
      <tilted>0</tilted></_>
    <_>
      <rects>
        <_>
          14 13 12 12 -1.</_>
        <_>
          14 19 12 6 2.</_></rects>
      <tilted>0</tilted></_>
    <_>
      <rects>
        <_>
          14 20 12 12 -1.</_>
        <_>
          14 24 12 4 3.</_></rects>
      <tilted>0</tilted></_>
    <_>
      <rects>
        <_>
          14 24 2 2 -1.</_>
        <_>
          14 24 1 1 2.</_>
        <_>
          15 25 1 1 2.</_></rects>
      <tilted>0</tilted></_>
    <_>
      <rects>
        <_>
          14 28 3 3 -1.</_>
        <_>
          15 28 1 3 3.</_></rects>
      <tilted>0</tilted></_>
    <_>
      <rects>
        <_>
          15 1 6 3 -1.</_>
        <_>
          17 1 2 3 3.</_></rects>
      <tilted>0</tilted></_>
    <_>
      <rects>
        <_>
          15 2 6 3 -1.</_>
        <_>
          17 2 2 3 3.</_></rects>
      <tilted>0</tilted></_>
    <_>
      <rects>
        <_>
          15 13 2 2 -1.</_>
        <_>
          15 13 1 1 2.</_>
        <_>
          16 14 1 1 2.</_></rects>
      <tilted>0</tilted></_>
    <_>
      <rects>
        <_>
          16 1 3 7 -1.</_>
        <_>
          17 1 1 7 3.</_></rects>
      <tilted>0</tilted></_>
    <_>
      <rects>
        <_>
          16 1 3 13 -1.</_>
        <_>
          17 1 1 13 3.</_></rects>
      <tilted>0</tilted></_>
    <_>
      <rects>
        <_>
          16 30 1 2 -1.</_>
        <_>
          16 31 1 1 2.</_></rects>
      <tilted>0</tilted></_>
    <_>
      <rects>
        <_>
          17 1 6 21 -1.</_>
        <_>
          17 8 6 7 3.</_></rects>
      <tilted>0</tilted></_>
    <_>
      <rects>
        <_>
          17 17 2 2 -1.</_>
        <_>
          17 18 2 1 2.</_></rects>
      <tilted>0</tilted></_>
    <_>
      <rects>
        <_>
          17 28 15 4 -1.</_>
        <_>
          22 28 5 4 3.</_></rects>
      <tilted>0</tilted></_>
    <_>
      <rects>
        <_>
          18 1 2 5 -1.</_>
        <_>
          19 1 1 5 2.</_></rects>
      <tilted>0</tilted></_>
    <_>
      <rects>
        <_>
          18 16 11 8 -1.</_>
        <_>
          18 20 11 4 2.</_></rects>
      <tilted>0</tilted></_>
    <_>
      <rects>
        <_>
          19 4 3 3 -1.</_>
        <_>
          20 4 1 3 3.</_></rects>
      <tilted>0</tilted></_>
    <_>
      <rects>
        <_>
          19 21 2 1 -1.</_>
        <_>
          20 21 1 1 2.</_></rects>
      <tilted>0</tilted></_>
    <_>
      <rects>
        <_>
          20 3 3 6 -1.</_>
        <_>
          21 3 1 6 3.</_></rects>
      <tilted>0</tilted></_>
    <_>
      <rects>
        <_>
          20 3 7 3 -1.</_>
        <_>
          20 4 7 1 3.</_></rects>
      <tilted>0</tilted></_>
    <_>
      <rects>
        <_>
          21 3 10 14 -1.</_>
        <_>
          21 3 5 7 2.</_>
        <_>
          26 10 5 7 2.</_></rects>
      <tilted>0</tilted></_>
    <_>
      <rects>
        <_>
          21 30 3 1 -1.</_>
        <_>
          22 30 1 1 3.</_></rects>
      <tilted>0</tilted></_>
    <_>
      <rects>
        <_>
          22 5 10 4 -1.</_>
        <_>
          22 5 5 2 2.</_>
        <_>
          27 7 5 2 2.</_></rects>
      <tilted>0</tilted></_>
    <_>
      <rects>
        <_>
          22 7 3 16 -1.</_>
        <_>
          23 7 1 16 3.</_></rects>
      <tilted>0</tilted></_>
    <_>
      <rects>
        <_>
          23 30 4 2 -1.</_>
        <_>
          23 30 2 1 2.</_>
        <_>
          25 31 2 1 2.</_></rects>
      <tilted>0</tilted></_>
    <_>
      <rects>
        <_>
          24 26 8 6 -1.</_>
        <_>
          24 26 4 3 2.</_>
        <_>
          28 29 4 3 2.</_></rects>
      <tilted>0</tilted></_>
    <_>
      <rects>
        <_>
          25 15 7 12 -1.</_>
        <_>
          25 19 7 4 3.</_></rects>
      <tilted>0</tilted></_>
    <_>
      <rects>
        <_>
          26 2 6 22 -1.</_>
        <_>
          28 2 2 22 3.</_></rects>
      <tilted>0</tilted></_>
    <_>
      <rects>
        <_>
          26 5 4 6 -1.</_>
        <_>
          26 5 2 3 2.</_>
        <_>
          28 8 2 3 2.</_></rects>
      <tilted>0</tilted></_>
    <_>
      <rects>
        <_>
          27 18 3 1 -1.</_>
        <_>
          28 18 1 1 3.</_></rects>
      <tilted>0</tilted></_>
    <_>
      <rects>
        <_>
          28 3 4 9 -1.</_>
        <_>
          30 3 2 9 2.</_></rects>
      <tilted>0</tilted></_>
    <_>
      <rects>
        <_>
          28 26 2 2 -1.</_>
        <_>
          28 26 1 1 2.</_>
        <_>
          29 27 1 1 2.</_></rects>
      <tilted>0</tilted></_>
    <_>
      <rects>
        <_>
          29 5 3 9 -1.</_>
        <_>
          30 5 1 9 3.</_></rects>
      <tilted>0</tilted></_>
    <_>
      <rects>
        <_>
          29 13 2 2 -1.</_>
        <_>
          29 13 1 1 2.</_>
        <_>
          30 14 1 1 2.</_></rects>
      <tilted>0</tilted></_>
    <_>
      <rects>
        <_>
          30 2 2 26 -1.</_>
        <_>
          31 2 1 26 2.</_></rects>
      <tilted>0</tilted></_>
    <_>
      <rects>
        <_>
          30 7 2 7 -1.</_>
        <_>
          31 7 1 7 2.</_></rects>
      <tilted>0</tilted></_>
    <_>
      <rects>
        <_>
          30 8 2 6 -1.</_>
        <_>
          31 8 1 6 2.</_></rects>
      <tilted>0</tilted></_>
    <_>
      <rects>
        <_>
          31 0 1 2 -1.</_>
        <_>
          31 1 1 1 2.</_></rects>
      <tilted>0</tilted></_></features></cascade>
</opencv_storage>
