<?xml version="1.0"?>
<opencv_storage>
<stage4>
  <maxWeakCount>91</maxWeakCount>
  <stageThreshold>-8.3913123607635498e-01</stageThreshold>
  <weakClassifiers>
    <_>
      <internalNodes>
        0 -1 89802 -3.7737004458904266e-03</internalNodes>
      <leafValues>
        3.2020422816276550e-01 -2.6949048042297363e-01</leafValues></_>
    <_>
      <internalNodes>
        0 -1 161502 -4.3207914568483829e-03</internalNodes>
      <leafValues>
        3.5568407177925110e-01 -1.8144118785858154e-01</leafValues></_>
    <_>
      <internalNodes>
        0 -1 984 8.2579627633094788e-03</internalNodes>
      <leafValues>
        -1.4186879992485046e-01 3.8732883334159851e-01</leafValues></_>
    <_>
      <internalNodes>
        0 -1 76766 4.4663283042609692e-03</internalNodes>
      <leafValues>
        -2.1041335165500641e-01 2.2874328494071960e-01</leafValues></_>
    <_>
      <internalNodes>
        0 -1 8101 4.5557223260402679e-02</internalNodes>
      <leafValues>
        -1.3280817866325378e-01 2.4304458498954773e-01</leafValues></_>
    <_>
      <internalNodes>
        0 -1 32450 3.9429338648915291e-03</internalNodes>
      <leafValues>
        -1.1721858382225037e-01 2.8629580140113831e-01</leafValues></_>
    <_>
      <internalNodes>
        0 -1 90564 -1.0204198770225048e-03</internalNodes>
      <leafValues>
        -2.7699536085128784e-01 1.5313735604286194e-01</leafValues></_>
    <_>
      <internalNodes>
        0 -1 49342 -6.1975847929716110e-03</internalNodes>
      <leafValues>
        1.3741508126258850e-01 -2.0983625948429108e-01</leafValues></_>
    <_>
      <internalNodes>
        0 -1 298 3.4398034214973450e-02</internalNodes>
      <leafValues>
        -7.7939122915267944e-02 3.0453369021415710e-01</leafValues></_>
    <_>
      <internalNodes>
        0 -1 127967 -9.6144899725914001e-03</internalNodes>
      <leafValues>
        1.8404115736484528e-01 -1.4304116368293762e-01</leafValues></_>
    <_>
      <internalNodes>
        0 -1 38914 -7.8589931130409241e-02</internalNodes>
      <leafValues>
        2.3599189519882202e-01 -1.0970376431941986e-01</leafValues></_>
    <_>
      <internalNodes>
        0 -1 52717 1.9627675414085388e-02</internalNodes>
      <leafValues>
        -9.8796799778938293e-02 2.9452830553054810e-01</leafValues></_>
    <_>
      <internalNodes>
        0 -1 161888 -3.0101863667368889e-03</internalNodes>
      <leafValues>
        3.1998005509376526e-01 -7.4826292693614960e-02</leafValues></_>
    <_>
      <internalNodes>
        0 -1 38007 3.0374950729310513e-03</internalNodes>
      <leafValues>
        6.3881017267704010e-02 -4.0194967389106750e-01</leafValues></_>
    <_>
      <internalNodes>
        0 -1 8834 3.0996096320450306e-03</internalNodes>
      <leafValues>
        -7.9070024192333221e-02 3.0071607232093811e-01</leafValues></_>
    <_>
      <internalNodes>
        0 -1 95871 -5.1787734031677246e-02</internalNodes>
      <leafValues>
        -6.6842120885848999e-01 3.6839101463556290e-02</leafValues></_>
    <_>
      <internalNodes>
        0 -1 155496 -8.5902884602546692e-03</internalNodes>
      <leafValues>
        -4.3171477317810059e-01 4.9526624381542206e-02</leafValues></_>
    <_>
      <internalNodes>
        0 -1 94282 -2.0053389016538858e-03</internalNodes>
      <leafValues>
        1.9928173720836639e-01 -1.2956655025482178e-01</leafValues></_>
    <_>
      <internalNodes>
        0 -1 25609 -8.5912999929860234e-04</internalNodes>
      <leafValues>
        4.7407200932502747e-01 -4.2018212378025055e-02</leafValues></_>
    <_>
      <internalNodes>
        0 -1 144107 -1.3028271496295929e-02</internalNodes>
      <leafValues>
        -7.5205934047698975e-01 3.0032066628336906e-02</leafValues></_>
    <_>
      <internalNodes>
        0 -1 49018 -1.6335579857695848e-05</internalNodes>
      <leafValues>
        1.3159950077533722e-01 -1.7066004872322083e-01</leafValues></_>
    <_>
      <internalNodes>
        0 -1 161128 -2.3393477313220501e-03</internalNodes>
      <leafValues>
        4.1603666543960571e-01 -5.3424589335918427e-02</leafValues></_>
    <_>
      <internalNodes>
        0 -1 47596 2.2245261818170547e-02</internalNodes>
      <leafValues>
        6.6895529627799988e-02 -3.3046454191207886e-01</leafValues></_>
    <_>
      <internalNodes>
        0 -1 66431 -2.0447424054145813e-01</internalNodes>
      <leafValues>
        -8.3412778377532959e-01 2.5458475574851036e-02</leafValues></_>
    <_>
      <internalNodes>
        0 -1 134210 6.1782734701409936e-04</internalNodes>
      <leafValues>
        5.5703081190586090e-02 -3.6964470148086548e-01</leafValues></_>
    <_>
      <internalNodes>
        0 -1 133778 -1.9235005602240562e-03</internalNodes>
      <leafValues>
        -3.5285073518753052e-01 5.9054411947727203e-02</leafValues></_>
    <_>
      <internalNodes>
        0 -1 88790 1.0259915143251419e-02</internalNodes>
      <leafValues>
        -5.6103121489286423e-02 4.4077423214912415e-01</leafValues></_>
    <_>
      <internalNodes>
        0 -1 12229 -9.6352681517601013e-02</internalNodes>
      <leafValues>
        -9.6205371618270874e-01 2.7992382645606995e-02</leafValues></_>
    <_>
      <internalNodes>
        0 -1 133098 -7.8929267823696136e-02</internalNodes>
      <leafValues>
        -6.8359464406967163e-01 2.0529765635728836e-02</leafValues></_>
    <_>
      <internalNodes>
        0 -1 39517 -1.1904807388782501e-01</internalNodes>
      <leafValues>
        6.5447658300399780e-01 -3.2282620668411255e-02</leafValues></_>
    <_>
      <internalNodes>
        0 -1 62848 1.2340750545263290e-03</internalNodes>
      <leafValues>
        5.9346500784158707e-02 -3.9866405725479126e-01</leafValues></_>
    <_>
      <internalNodes>
        0 -1 118681 -1.2229040730744600e-03</internalNodes>
      <leafValues>
        1.8953585624694824e-01 -1.0576587170362473e-01</leafValues></_>
    <_>
      <internalNodes>
        0 -1 111502 1.9502809736877680e-03</internalNodes>
      <leafValues>
        -1.3824689388275146e-01 1.7625305056571960e-01</leafValues></_>
    <_>
      <internalNodes>
        0 -1 122041 -4.8194274306297302e-02</internalNodes>
      <leafValues>
        -7.0101553201675415e-01 3.6985266953706741e-02</leafValues></_>
    <_>
      <internalNodes>
        0 -1 148628 -1.6882421914488077e-03</internalNodes>
      <leafValues>
        -2.8820326924324036e-01 7.3297262191772461e-02</leafValues></_>
    <_>
      <internalNodes>
        0 -1 69230 1.0065712034702301e-02</internalNodes>
      <leafValues>
        -5.5068343877792358e-02 4.0408012270927429e-01</leafValues></_>
    <_>
      <internalNodes>
        0 -1 48464 2.5477502495050430e-03</internalNodes>
      <leafValues>
        -1.1321038752794266e-01 2.3328565061092377e-01</leafValues></_>
    <_>
      <internalNodes>
        0 -1 35350 1.8444948364049196e-04</internalNodes>
      <leafValues>
        1.1272919923067093e-01 -1.9244824349880219e-01</leafValues></_>
    <_>
      <internalNodes>
        0 -1 17848 2.8862559795379639e-01</internalNodes>
      <leafValues>
        3.7904139608144760e-02 -5.4351091384887695e-01</leafValues></_>
    <_>
      <internalNodes>
        0 -1 21909 -1.0121299326419830e-01</internalNodes>
      <leafValues>
        2.7215668559074402e-01 -8.6021855473518372e-02</leafValues></_>
    <_>
      <internalNodes>
        0 -1 31465 4.4997036457061768e-02</internalNodes>
      <leafValues>
        -1.2809500098228455e-01 2.4324914813041687e-01</leafValues></_>
    <_>
      <internalNodes>
        0 -1 106457 1.8699725624173880e-03</internalNodes>
      <leafValues>
        5.9435442090034485e-02 -3.8343963027000427e-01</leafValues></_>
    <_>
      <internalNodes>
        0 -1 135673 3.5256934352219105e-03</internalNodes>
      <leafValues>
        -8.1975847482681274e-02 2.8036075830459595e-01</leafValues></_>
    <_>
      <internalNodes>
        0 -1 92743 -5.4498620331287384e-02</internalNodes>
      <leafValues>
        -4.8278090357780457e-01 4.7316897660493851e-02</leafValues></_>
    <_>
      <internalNodes>
        0 -1 20940 4.1484578105155379e-05</internalNodes>
      <leafValues>
        -1.7331872880458832e-01 1.1926916241645813e-01</leafValues></_>
    <_>
      <internalNodes>
        0 -1 161187 -3.6232356796972454e-04</internalNodes>
      <leafValues>
        2.5651592016220093e-01 -7.3092147707939148e-02</leafValues></_>
    <_>
      <internalNodes>
        0 -1 62077 -5.7251669932156801e-04</internalNodes>
      <leafValues>
        -2.5637021660804749e-01 8.4012724459171295e-02</leafValues></_>
    <_>
      <internalNodes>
        0 -1 12067 -5.7184640318155289e-03</internalNodes>
      <leafValues>
        1.6154110431671143e-01 -1.2655892968177795e-01</leafValues></_>
    <_>
      <internalNodes>
        0 -1 158840 -5.4975869134068489e-03</internalNodes>
      <leafValues>
        4.2067492008209229e-01 -4.4107049703598022e-02</leafValues></_>
    <_>
      <internalNodes>
        0 -1 142321 -6.4198963344097137e-02</internalNodes>
      <leafValues>
        -5.5283379554748535e-01 3.4861356019973755e-02</leafValues></_>
    <_>
      <internalNodes>
        0 -1 152601 2.5106154382228851e-02</internalNodes>
      <leafValues>
        -9.4130776822566986e-02 2.0711524784564972e-01</leafValues></_>
    <_>
      <internalNodes>
        0 -1 78743 -1.8182234838604927e-02</internalNodes>
      <leafValues>
        -7.9655516147613525e-01 2.5078700855374336e-02</leafValues></_>
    <_>
      <internalNodes>
        0 -1 133652 -1.5224475646391511e-03</internalNodes>
      <leafValues>
        1.0830660164356232e-01 -1.6980634629726410e-01</leafValues></_>
    <_>
      <internalNodes>
        0 -1 139142 -7.7637820504605770e-03</internalNodes>
      <leafValues>
        -4.7667926549911499e-01 3.9810892194509506e-02</leafValues></_>
    <_>
      <internalNodes>
        0 -1 113779 1.4002913376316428e-03</internalNodes>
      <leafValues>
        -6.3017457723617554e-02 3.3244502544403076e-01</leafValues></_>
    <_>
      <internalNodes>
        0 -1 81535 -1.9957441836595535e-03</internalNodes>
      <leafValues>
        -3.3751448988914490e-01 5.6079592555761337e-02</leafValues></_>
    <_>
      <internalNodes>
        0 -1 49682 -1.5509516000747681e-02</internalNodes>
      <leafValues>
        2.5132533907890320e-01 -9.3037262558937073e-02</leafValues></_>
    <_>
      <internalNodes>
        0 -1 54442 1.4826981350779533e-02</internalNodes>
      <leafValues>
        -7.4909090995788574e-02 2.6089519262313843e-01</leafValues></_>
    <_>
      <internalNodes>
        0 -1 126877 -3.2756780274212360e-03</internalNodes>
      <leafValues>
        -5.3562855720520020e-01 3.6805227398872375e-02</leafValues></_>
    <_>
      <internalNodes>
        0 -1 84295 -7.6637072488665581e-03</internalNodes>
      <leafValues>
        1.8671809136867523e-01 -1.0685116052627563e-01</leafValues></_>
    <_>
      <internalNodes>
        0 -1 161187 9.4044429715722799e-04</internalNodes>
      <leafValues>
        -4.2839307337999344e-02 4.3265667557716370e-01</leafValues></_>
    <_>
      <internalNodes>
        0 -1 126656 6.8770055659115314e-03</internalNodes>
      <leafValues>
        3.3967953175306320e-02 -5.8661925792694092e-01</leafValues></_>
    <_>
      <internalNodes>
        0 -1 127854 -2.3095328360795975e-03</internalNodes>
      <leafValues>
        -5.1623976230621338e-01 3.2307703047990799e-02</leafValues></_>
    <_>
      <internalNodes>
        0 -1 129378 -4.0621835069032386e-05</internalNodes>
      <leafValues>
        1.4437247812747955e-01 -1.3120958209037781e-01</leafValues></_>
    <_>
      <internalNodes>
        0 -1 154513 2.9856925830245018e-03</internalNodes>
      <leafValues>
        9.3151658773422241e-02 -1.8438751995563507e-01</leafValues></_>
    <_>
      <internalNodes>
        0 -1 144039 5.2840169519186020e-04</internalNodes>
      <leafValues>
        -8.2487426698207855e-02 2.1851219236850739e-01</leafValues></_>
    <_>
      <internalNodes>
        0 -1 73072 -1.1619976721704006e-03</internalNodes>
      <leafValues>
        -3.8068830966949463e-01 4.9904398620128632e-02</leafValues></_>
    <_>
      <internalNodes>
        0 -1 5060 1.4415958896279335e-02</internalNodes>
      <leafValues>
        -3.3991061151027679e-02 5.4125726222991943e-01</leafValues></_>
    <_>
      <internalNodes>
        0 -1 155104 2.6247801724821329e-03</internalNodes>
      <leafValues>
        -3.6931298673152924e-02 4.6818891167640686e-01</leafValues></_>
    <_>
      <internalNodes>
        0 -1 59949 -4.4184431433677673e-02</internalNodes>
      <leafValues>
        -4.8219302296638489e-01 3.7453670054674149e-02</leafValues></_>
    <_>
      <internalNodes>
        0 -1 13369 8.6226742714643478e-03</internalNodes>
      <leafValues>
        -5.1772847771644592e-02 3.6375850439071655e-01</leafValues></_>
    <_>
      <internalNodes>
        0 -1 36276 -1.8202908104285598e-03</internalNodes>
      <leafValues>
        -4.1862884163856506e-01 4.5472666621208191e-02</leafValues></_>
    <_>
      <internalNodes>
        0 -1 58877 1.9523793889675289e-04</internalNodes>
      <leafValues>
        9.5360226929187775e-02 -2.2058150172233582e-01</leafValues></_>
    <_>
      <internalNodes>
        0 -1 24143 1.6774564981460571e-02</internalNodes>
      <leafValues>
        -7.3038592934608459e-02 2.7569934725761414e-01</leafValues></_>
    <_>
      <internalNodes>
        0 -1 5856 -1.7914369236677885e-03</internalNodes>
      <leafValues>
        2.1467988193035126e-01 -9.3231961131095886e-02</leafValues></_>
    <_>
      <internalNodes>
        0 -1 16520 -5.6303948163986206e-02</internalNodes>
      <leafValues>
        -7.3701548576354980e-01 2.5110062211751938e-02</leafValues></_>
    <_>
      <internalNodes>
        0 -1 154 1.1144649982452393e-01</internalNodes>
      <leafValues>
        1.7484033480286598e-02 -8.6442661285400391e-01</leafValues></_>
    <_>
      <internalNodes>
        0 -1 36600 5.9416424483060837e-03</internalNodes>
      <leafValues>
        -7.8565582633018494e-02 2.5182858109474182e-01</leafValues></_>
    <_>
      <internalNodes>
        0 -1 47444 4.0500219911336899e-03</internalNodes>
      <leafValues>
        -9.2875689268112183e-02 2.0745766162872314e-01</leafValues></_>
    <_>
      <internalNodes>
        0 -1 139010 -2.5512352585792542e-03</internalNodes>
      <leafValues>
        -3.7669107317924500e-01 4.8820532858371735e-02</leafValues></_>
    <_>
      <internalNodes>
        0 -1 22581 3.2712270040065050e-03</internalNodes>
      <leafValues>
        -1.0289216786623001e-01 1.8945129215717316e-01</leafValues></_>
    <_>
      <internalNodes>
        0 -1 96473 -8.4104537963867188e-03</internalNodes>
      <leafValues>
        -3.2303026318550110e-01 6.3647054135799408e-02</leafValues></_>
    <_>
      <internalNodes>
        0 -1 76918 2.4558710865676403e-03</internalNodes>
      <leafValues>
        -8.6584724485874176e-02 2.4061523377895355e-01</leafValues></_>
    <_>
      <internalNodes>
        0 -1 114504 -3.7103008944541216e-03</internalNodes>
      <leafValues>
        -2.9849526286125183e-01 6.8684034049510956e-02</leafValues></_>
    <_>
      <internalNodes>
        0 -1 161291 -8.1550481263548136e-04</internalNodes>
      <leafValues>
        1.5024790167808533e-01 -1.3833223283290863e-01</leafValues></_>
    <_>
      <internalNodes>
        0 -1 157137 -4.6878932043910027e-03</internalNodes>
      <leafValues>
        -5.7801854610443115e-01 3.3375576138496399e-02</leafValues></_>
    <_>
      <internalNodes>
        0 -1 160305 -2.0765413064509630e-03</internalNodes>
      <leafValues>
        2.3876889050006866e-01 -8.1593610346317291e-02</leafValues></_>
    <_>
      <internalNodes>
        0 -1 78382 9.2927226796746254e-03</internalNodes>
      <leafValues>
        4.9982808530330658e-02 -4.0352922677993774e-01</leafValues></_>
    <_>
      <internalNodes>
        0 -1 86850 4.6718679368495941e-03</internalNodes>
      <leafValues>
        -1.1839974671602249e-01 1.6930048167705536e-01</leafValues></_>
    <_>
      <internalNodes>
        0 -1 157170 4.6182289952412248e-04</internalNodes>
      <leafValues>
        1.1535715311765671e-01 -1.7520967125892639e-01</leafValues></_>
    <_>
      <internalNodes>
        0 -1 160973 6.4281169325113297e-03</internalNodes>
      <leafValues>
        6.4304098486900330e-02 -3.1742826104164124e-01</leafValues></_></weakClassifiers></stage4>
</opencv_storage>
