<?xml version="1.0"?>
<opencv_storage>
<cascade>
  <stageType>BOOST</stageType>
  <featureType>HAAR</featureType>
  <height>24</height>
  <width>24</width>
  <stageParams>
    <boostType>GAB</boostType>
    <minHitRate>9.9949997663497925e-01</minHitRate>
    <maxFalseAlarm>5.0000000000000000e-01</maxFalseAlarm>
    <weightTrimRate>9.4999999999999996e-01</weightTrimRate>
    <maxDepth>1</maxDepth>
    <maxWeakCount>100</maxWeakCount></stageParams>
  <featureParams>
    <maxCatCount>0</maxCatCount>
    <featSize>1</featSize>
    <mode>BASIC</mode></featureParams>
  <stageNum>10</stageNum>
  <stages>
    <!-- stage 0 -->
    <_>
      <maxWeakCount>35</maxWeakCount>
      <stageThreshold>-1.4563018083572388e+00</stageThreshold>
      <weakClassifiers>
        <_>
          <internalNodes>
            0 -1 383 -1.6356362029910088e-03</internalNodes>
          <leafValues>
            3.9026015996932983e-01 -3.8974016904830933e-01</leafValues></_>
        <_>
          <internalNodes>
            0 -1 47 1.6343142837285995e-02</internalNodes>
          <leafValues>
            -3.7688153982162476e-01 3.3246231079101562e-01</leafValues></_>
        <_>
          <internalNodes>
            0 -1 4 9.5411226153373718e-02</internalNodes>
          <leafValues>
            -2.0031245052814484e-01 4.6767100691795349e-01</leafValues></_>
        <_>
          <internalNodes>
            0 -1 677 -5.2153447177261114e-04</internalNodes>
          <leafValues>
            3.0501008033752441e-01 -2.3539866507053375e-01</leafValues></_>
        <_>
          <internalNodes>
            0 -1 32 7.1861194446682930e-03</internalNodes>
          <leafValues>
            -1.3241773843765259e-01 5.0302255153656006e-01</leafValues></_>
        <_>
          <internalNodes>
            0 -1 359 6.6999588161706924e-03</internalNodes>
          <leafValues>
            1.1332940310239792e-01 -5.1604896783828735e-01</leafValues></_>
        <_>
          <internalNodes>
            0 -1 433 2.8864978812634945e-03</internalNodes>
          <leafValues>
            -2.2947163879871368e-01 2.3791265487670898e-01</leafValues></_>
        <_>
          <internalNodes>
            0 -1 114 -1.0269577056169510e-01</internalNodes>
          <leafValues>
            -5.6675142049789429e-01 1.0521468520164490e-01</leafValues></_>
        <_>
          <internalNodes>
            0 -1 351 -4.2093619704246521e-03</internalNodes>
          <leafValues>
            -6.6461056470870972e-01 6.2664099037647247e-02</leafValues></_>
        <_>
          <internalNodes>
            0 -1 440 -1.6498087206855416e-03</internalNodes>
          <leafValues>
            1.7576260864734650e-01 -2.6677876710891724e-01</leafValues></_>
        <_>
          <internalNodes>
            0 -1 559 -5.6495233438909054e-03</internalNodes>
          <leafValues>
            -5.5128037929534912e-01 9.1827407479286194e-02</leafValues></_>
        <_>
          <internalNodes>
            0 -1 9 8.0969147384166718e-03</internalNodes>
          <leafValues>
            -1.4047674834728241e-01 3.6146855354309082e-01</leafValues></_>
        <_>
          <internalNodes>
            0 -1 209 -5.7987008243799210e-02</internalNodes>
          <leafValues>
            -5.7230383157730103e-01 9.5783002674579620e-02</leafValues></_>
        <_>
          <internalNodes>
            0 -1 520 3.1625572592020035e-02</internalNodes>
          <leafValues>
            8.2866393029689789e-02 -4.4319728016853333e-01</leafValues></_>
        <_>
          <internalNodes>
            0 -1 116 5.0395451486110687e-02</internalNodes>
          <leafValues>
            8.3387605845928192e-02 -5.6011486053466797e-01</leafValues></_>
        <_>
          <internalNodes>
            0 -1 296 4.3128076940774918e-03</internalNodes>
          <leafValues>
            -1.3310240209102631e-01 3.4844729304313660e-01</leafValues></_>
        <_>
          <internalNodes>
            0 -1 420 -3.1902007758617401e-03</internalNodes>
          <leafValues>
            -5.6741410493850708e-01 9.1484643518924713e-02</leafValues></_>
        <_>
          <internalNodes>
            0 -1 330 -1.4010891318321228e-02</internalNodes>
          <leafValues>
            6.7497563362121582e-01 -8.0858893692493439e-02</leafValues></_>
        <_>
          <internalNodes>
            0 -1 474 -3.0800178647041321e-03</internalNodes>
          <leafValues>
            -6.0475981235504150e-01 7.5545109808444977e-02</leafValues></_>
        <_>
          <internalNodes>
            0 -1 10 -1.4186948537826538e-02</internalNodes>
          <leafValues>
            4.6275290846824646e-01 -9.3117311596870422e-02</leafValues></_>
        <_>
          <internalNodes>
            0 -1 582 -2.0085312426090240e-02</internalNodes>
          <leafValues>
            -6.1433446407318115e-01 7.2875499725341797e-02</leafValues></_>
        <_>
          <internalNodes>
            0 -1 525 -7.0717441849410534e-04</internalNodes>
          <leafValues>
            1.7556148767471313e-01 -2.2365009784698486e-01</leafValues></_>
        <_>
          <internalNodes>
            0 -1 487 1.0526887327432632e-01</internalNodes>
          <leafValues>
            -8.8320128619670868e-02 4.9445134401321411e-01</leafValues></_>
        <_>
          <internalNodes>
            0 -1 633 -3.2593576179351658e-05</internalNodes>
          <leafValues>
            2.2343666851520538e-01 -1.7869932949542999e-01</leafValues></_>
        <_>
          <internalNodes>
            0 -1 14 7.0663169026374817e-03</internalNodes>
          <leafValues>
            -1.6634817421436310e-01 2.3305740952491760e-01</leafValues></_>
        <_>
          <internalNodes>
            0 -1 309 1.4087501913309097e-02</internalNodes>
          <leafValues>
            8.3752766251564026e-02 -4.7470462322235107e-01</leafValues></_>
        <_>
          <internalNodes>
            0 -1 622 2.4629561230540276e-02</internalNodes>
          <leafValues>
            6.9858320057392120e-02 -5.1066088676452637e-01</leafValues></_>
        <_>
          <internalNodes>
            0 -1 439 -2.9585080483229831e-05</internalNodes>
          <leafValues>
            2.2655007243156433e-01 -1.8119625747203827e-01</leafValues></_>
        <_>
          <internalNodes>
            0 -1 128 -2.9276451095938683e-03</internalNodes>
          <leafValues>
            -3.7021186947822571e-01 1.1484340578317642e-01</leafValues></_>
        <_>
          <internalNodes>
            0 -1 176 7.4733574874699116e-03</internalNodes>
          <leafValues>
            9.0447418391704559e-02 -3.9674901962280273e-01</leafValues></_>
        <_>
          <internalNodes>
            0 -1 378 -8.0259196693077683e-04</internalNodes>
          <leafValues>
            -3.4797564148902893e-01 1.0541857779026031e-01</leafValues></_>
        <_>
          <internalNodes>
            0 -1 65 -1.2343697249889374e-01</internalNodes>
          <leafValues>
            3.7961816787719727e-01 -1.0626411437988281e-01</leafValues></_>
        <_>
          <internalNodes>
            0 -1 434 2.3432222660630941e-03</internalNodes>
          <leafValues>
            -1.3479541242122650e-01 2.9905489087104797e-01</leafValues></_>
        <_>
          <internalNodes>
            0 -1 488 6.5312022343277931e-03</internalNodes>
          <leafValues>
            -2.2016474604606628e-01 2.0236434042453766e-01</leafValues></_>
        <_>
          <internalNodes>
            0 -1 16 -6.1398535035550594e-03</internalNodes>
          <leafValues>
            6.2294352054595947e-01 -5.8225411921739578e-02</leafValues></_></weakClassifiers></_>
    <!-- stage 1 -->
    <_>
      <maxWeakCount>35</maxWeakCount>
      <stageThreshold>-1.8026628494262695e+00</stageThreshold>
      <weakClassifiers>
        <_>
          <internalNodes>
            0 -1 526 -1.1774712220358197e-05</internalNodes>
          <leafValues>
            3.4772461652755737e-01 -4.6345257759094238e-01</leafValues></_>
        <_>
          <internalNodes>
            0 -1 60 1.6023102944018319e-05</internalNodes>
          <leafValues>
            -3.6640539765357971e-01 3.6587691307067871e-01</leafValues></_>
        <_>
          <internalNodes>
            0 -1 193 -9.7648710012435913e-02</internalNodes>
          <leafValues>
            7.4735260009765625e-01 -1.4888684451580048e-01</leafValues></_>
        <_>
          <internalNodes>
            0 -1 224 2.9363313689827919e-02</internalNodes>
          <leafValues>
            -1.3004799187183380e-01 6.7089825868606567e-01</leafValues></_>
        <_>
          <internalNodes>
            0 -1 681 -5.0124661065638065e-03</internalNodes>
          <leafValues>
            6.4477473497390747e-01 -1.1495226621627808e-01</leafValues></_>
        <_>
          <internalNodes>
            0 -1 35 -5.6721467524766922e-02</internalNodes>
          <leafValues>
            -4.4725057482719421e-01 1.9767601788043976e-01</leafValues></_>
        <_>
          <internalNodes>
            0 -1 398 7.9748742282390594e-02</internalNodes>
          <leafValues>
            1.6698034107685089e-01 -5.6293511390686035e-01</leafValues></_>
        <_>
          <internalNodes>
            0 -1 60 -2.7078302082372829e-05</internalNodes>
          <leafValues>
            3.7683317065238953e-01 -2.0906129479408264e-01</leafValues></_>
        <_>
          <internalNodes>
            0 -1 143 1.3957998817204498e-05</internalNodes>
          <leafValues>
            -2.1035994589328766e-01 3.1607007980346680e-01</leafValues></_>
        <_>
          <internalNodes>
            0 -1 526 1.4864274817227852e-05</internalNodes>
          <leafValues>
            -1.8658301234245300e-01 3.4052655100822449e-01</leafValues></_>
        <_>
          <internalNodes>
            0 -1 77 -1.3400591909885406e-01</internalNodes>
          <leafValues>
            -6.6666692495346069e-01 1.1461868882179260e-01</leafValues></_>
        <_>
          <internalNodes>
            0 -1 30 -9.8262183368206024e-02</internalNodes>
          <leafValues>
            -4.6486508846282959e-01 1.1308666318655014e-01</leafValues></_>
        <_>
          <internalNodes>
            0 -1 631 -1.7295388970524073e-03</internalNodes>
          <leafValues>
            6.1770445108413696e-01 -9.6240878105163574e-02</leafValues></_>
        <_>
          <internalNodes>
            0 -1 36 3.2509251468582079e-05</internalNodes>
          <leafValues>
            -2.1441698074340820e-01 2.6997369527816772e-01</leafValues></_>
        <_>
          <internalNodes>
            0 -1 304 -1.2285451591014862e-01</internalNodes>
          <leafValues>
            -6.0997831821441650e-01 7.6176181435585022e-02</leafValues></_>
        <_>
          <internalNodes>
            0 -1 275 1.3747151569987182e-05</internalNodes>
          <leafValues>
            -1.8762661516666412e-01 2.7394357323646545e-01</leafValues></_>
        <_>
          <internalNodes>
            0 -1 381 -1.1774712220358197e-05</internalNodes>
          <leafValues>
            2.1553410589694977e-01 -2.4679760634899139e-01</leafValues></_>
        <_>
          <internalNodes>
            0 -1 188 -2.4325698177563027e-05</internalNodes>
          <leafValues>
            2.5515788793563843e-01 -1.8198034167289734e-01</leafValues></_>
        <_>
          <internalNodes>
            0 -1 603 2.2258241660892963e-03</internalNodes>
          <leafValues>
            -7.4251964688301086e-02 5.9792739152908325e-01</leafValues></_>
        <_>
          <internalNodes>
            0 -1 379 -1.3246050002635457e-05</internalNodes>
          <leafValues>
            2.6243907213211060e-01 -1.8116654455661774e-01</leafValues></_>
        <_>
          <internalNodes>
            0 -1 345 3.1959651096258312e-05</internalNodes>
          <leafValues>
            -1.6814123094081879e-01 2.5597611069679260e-01</leafValues></_>
        <_>
          <internalNodes>
            0 -1 495 -1.4547147657140158e-05</internalNodes>
          <leafValues>
            2.4713203310966492e-01 -1.7771404981613159e-01</leafValues></_>
        <_>
          <internalNodes>
            0 -1 106 5.5584274232387543e-03</internalNodes>
          <leafValues>
            -1.2372795492410660e-01 3.3142650127410889e-01</leafValues></_>
        <_>
          <internalNodes>
            0 -1 412 2.1170931868255138e-03</internalNodes>
          <leafValues>
            9.3308158218860626e-02 -4.7813239693641663e-01</leafValues></_>
        <_>
          <internalNodes>
            0 -1 222 -4.7106966376304626e-02</internalNodes>
          <leafValues>
            9.6208041906356812e-01 -5.1639560610055923e-02</leafValues></_>
        <_>
          <internalNodes>
            0 -1 427 -2.7378402592148632e-05</internalNodes>
          <leafValues>
            2.5986847281455994e-01 -1.6868191957473755e-01</leafValues></_>
        <_>
          <internalNodes>
            0 -1 469 -7.0283059030771255e-03</internalNodes>
          <leafValues>
            -4.3834465742111206e-01 1.1125607788562775e-01</leafValues></_>
        <_>
          <internalNodes>
            0 -1 523 2.6071509637404233e-05</internalNodes>
          <leafValues>
            -1.8935965001583099e-01 2.3148488998413086e-01</leafValues></_>
        <_>
          <internalNodes>
            0 -1 56 4.8453570343554020e-03</internalNodes>
          <leafValues>
            -8.8783919811248779e-02 4.5130443572998047e-01</leafValues></_>
        <_>
          <internalNodes>
            0 -1 575 -2.6475641789147630e-05</internalNodes>
          <leafValues>
            2.4823592603206635e-01 -1.6861756145954132e-01</leafValues></_>
        <_>
          <internalNodes>
            0 -1 286 -4.1269576177000999e-03</internalNodes>
          <leafValues>
            -3.9994394779205322e-01 1.1458642035722733e-01</leafValues></_>
        <_>
          <internalNodes>
            0 -1 25 -1.8541002273559570e-01</internalNodes>
          <leafValues>
            7.3559850454330444e-01 -6.3140138983726501e-02</leafValues></_>
        <_>
          <internalNodes>
            0 -1 654 -1.7629326321184635e-03</internalNodes>
          <leafValues>
            7.9096251726150513e-01 -4.2226135730743408e-02</leafValues></_>
        <_>
          <internalNodes>
            0 -1 534 1.3320457190275192e-02</internalNodes>
          <leafValues>
            -1.4163027703762054e-01 2.9839563369750977e-01</leafValues></_>
        <_>
          <internalNodes>
            0 -1 251 1.2910097211715765e-05</internalNodes>
          <leafValues>
            -1.8532878160476685e-01 2.3297542333602905e-01</leafValues></_></weakClassifiers></_>
    <!-- stage 2 -->
    <_>
      <maxWeakCount>50</maxWeakCount>
      <stageThreshold>-1.5770837068557739e+00</stageThreshold>
      <weakClassifiers>
        <_>
          <internalNodes>
            0 -1 384 -4.1429768316447735e-03</internalNodes>
          <leafValues>
            5.5992507934570312e-01 -3.0952382087707520e-01</leafValues></_>
        <_>
          <internalNodes>
            0 -1 237 -4.8231683671474457e-02</internalNodes>
          <leafValues>
            5.8574354648590088e-01 -1.9158820807933807e-01</leafValues></_>
        <_>
          <internalNodes>
            0 -1 239 4.9173776060342789e-02</internalNodes>
          <leafValues>
            -1.4063616096973419e-01 4.3644660711288452e-01</leafValues></_>
        <_>
          <internalNodes>
            0 -1 271 -1.6758266836404800e-02</internalNodes>
          <leafValues>
            5.1792252063751221e-01 -1.4436757564544678e-01</leafValues></_>
        <_>
          <internalNodes>
            0 -1 263 -8.6475778371095657e-03</internalNodes>
          <leafValues>
            5.2348852157592773e-01 -1.4907298982143402e-01</leafValues></_>
        <_>
          <internalNodes>
            0 -1 189 1.3962004231871106e-05</internalNodes>
          <leafValues>
            -1.9255976378917694e-01 2.4733033776283264e-01</leafValues></_>
        <_>
          <internalNodes>
            0 -1 228 -3.6440663039684296e-02</internalNodes>
          <leafValues>
            5.1022922992706299e-01 -8.2283370196819305e-02</leafValues></_>
        <_>
          <internalNodes>
            0 -1 259 2.3844446986913681e-02</internalNodes>
          <leafValues>
            -1.3701507449150085e-01 4.0599986910820007e-01</leafValues></_>
        <_>
          <internalNodes>
            0 -1 27 7.3431562632322311e-03</internalNodes>
          <leafValues>
            -8.8139131665229797e-02 4.3672206997871399e-01</leafValues></_>
        <_>
          <internalNodes>
            0 -1 599 -1.3236506674729753e-05</internalNodes>
          <leafValues>
            2.1035991609096527e-01 -1.9446440041065216e-01</leafValues></_>
        <_>
          <internalNodes>
            0 -1 83 -7.5164809823036194e-02</internalNodes>
          <leafValues>
            3.6200574040412903e-01 -9.9803403019905090e-02</leafValues></_>
        <_>
          <internalNodes>
            0 -1 588 1.2620075140148401e-03</internalNodes>
          <leafValues>
            -1.2608620524406433e-01 3.0804792046546936e-01</leafValues></_>
        <_>
          <internalNodes>
            0 -1 585 -1.3962004231871106e-05</internalNodes>
          <leafValues>
            2.2622990608215332e-01 -1.5680995583534241e-01</leafValues></_>
        <_>
          <internalNodes>
            0 -1 672 1.4947731870051939e-05</internalNodes>
          <leafValues>
            -1.7254456877708435e-01 2.1909578144550323e-01</leafValues></_>
        <_>
          <internalNodes>
            0 -1 639 5.8967648074030876e-03</internalNodes>
          <leafValues>
            -1.2690603733062744e-01 3.0579066276550293e-01</leafValues></_>
        <_>
          <internalNodes>
            0 -1 425 1.3236506674729753e-05</internalNodes>
          <leafValues>
            -1.6989542543888092e-01 2.2551666200160980e-01</leafValues></_>
        <_>
          <internalNodes>
            0 -1 591 -1.3665334321558475e-02</internalNodes>
          <leafValues>
            2.6744735240936279e-01 -1.3691414892673492e-01</leafValues></_>
        <_>
          <internalNodes>
            0 -1 316 -3.2070968300104141e-03</internalNodes>
          <leafValues>
            -5.8472698926925659e-01 6.7796185612678528e-02</leafValues></_>
        <_>
          <internalNodes>
            0 -1 482 1.6764128304203041e-05</internalNodes>
          <leafValues>
            -1.8655118346214294e-01 1.9334584474563599e-01</leafValues></_>
        <_>
          <internalNodes>
            0 -1 247 -1.3195386528968811e-01</internalNodes>
          <leafValues>
            -6.9487053155899048e-01 5.5811472237110138e-02</leafValues></_>
        <_>
          <internalNodes>
            0 -1 298 -1.1807916685938835e-02</internalNodes>
          <leafValues>
            6.4000952243804932e-01 -5.8218259364366531e-02</leafValues></_>
        <_>
          <internalNodes>
            0 -1 392 -7.8071723692119122e-04</internalNodes>
          <leafValues>
            -2.9019123315811157e-01 1.1809986084699631e-01</leafValues></_>
        <_>
          <internalNodes>
            0 -1 268 -9.7147198393940926e-03</internalNodes>
          <leafValues>
            2.9042237997055054e-01 -1.1226267367601395e-01</leafValues></_>
        <_>
          <internalNodes>
            0 -1 256 -5.4409950971603394e-03</internalNodes>
          <leafValues>
            3.9524391293525696e-01 -7.9412035644054413e-02</leafValues></_>
        <_>
          <internalNodes>
            0 -1 584 1.1886999709531665e-03</internalNodes>
          <leafValues>
            1.0386293381452560e-01 -3.3008810877799988e-01</leafValues></_>
        <_>
          <internalNodes>
            0 -1 321 -2.5479886680841446e-02</internalNodes>
          <leafValues>
            6.4179515838623047e-01 -5.3870186209678650e-02</leafValues></_>
        <_>
          <internalNodes>
            0 -1 670 -2.1158398885745555e-04</internalNodes>
          <leafValues>
            2.9601621627807617e-01 -1.0735967010259628e-01</leafValues></_>
        <_>
          <internalNodes>
            0 -1 625 -3.1616200431017205e-05</internalNodes>
          <leafValues>
            1.6257877647876740e-01 -2.0007541775703430e-01</leafValues></_>
        <_>
          <internalNodes>
            0 -1 156 1.2910097211715765e-05</internalNodes>
          <leafValues>
            -1.7694430053234100e-01 1.9372762739658356e-01</leafValues></_>
        <_>
          <internalNodes>
            0 -1 86 -2.1535856649279594e-03</internalNodes>
          <leafValues>
            4.1168379783630371e-01 -8.1302583217620850e-02</leafValues></_>
        <_>
          <internalNodes>
            0 -1 460 -3.9945915341377258e-03</internalNodes>
          <leafValues>
            -5.7477802038192749e-01 6.5093211829662323e-02</leafValues></_>
        <_>
          <internalNodes>
            0 -1 167 -1.3150656741345301e-05</internalNodes>
          <leafValues>
            1.9742140173912048e-01 -1.6586273908615112e-01</leafValues></_>
        <_>
          <internalNodes>
            0 -1 387 -1.3144751392246690e-05</internalNodes>
          <leafValues>
            2.1223102509975433e-01 -1.5766611695289612e-01</leafValues></_>
        <_>
          <internalNodes>
            0 -1 311 -3.8807904347777367e-03</internalNodes>
          <leafValues>
            8.0675745010375977e-01 -3.1407680362462997e-02</leafValues></_>
        <_>
          <internalNodes>
            0 -1 443 -1.3891837625124026e-05</internalNodes>
          <leafValues>
            2.2857435047626495e-01 -1.4126312732696533e-01</leafValues></_>
        <_>
          <internalNodes>
            0 -1 136 4.6651419252157211e-03</internalNodes>
          <leafValues>
            -6.8387679755687714e-02 4.5893841981887817e-01</leafValues></_>
        <_>
          <internalNodes>
            0 -1 415 3.0971765518188477e-03</internalNodes>
          <leafValues>
            6.0850020498037338e-02 -5.9093850851058960e-01</leafValues></_>
        <_>
          <internalNodes>
            0 -1 88 -1.2188084423542023e-02</internalNodes>
          <leafValues>
            6.7118746042251587e-01 -5.4231196641921997e-02</leafValues></_>
        <_>
          <internalNodes>
            0 -1 473 3.7670659366995096e-03</internalNodes>
          <leafValues>
            4.8554450273513794e-02 -7.4848407506942749e-01</leafValues></_>
        <_>
          <internalNodes>
            0 -1 391 3.3724508248269558e-03</internalNodes>
          <leafValues>
            -9.3229681253433228e-02 3.5973241925239563e-01</leafValues></_>
        <_>
          <internalNodes>
            0 -1 481 1.1104023084044456e-02</internalNodes>
          <leafValues>
            -1.4438340067863464e-01 2.1137461066246033e-01</leafValues></_>
        <_>
          <internalNodes>
            0 -1 556 -4.1877562180161476e-03</internalNodes>
          <leafValues>
            2.1310976147651672e-01 -1.4127035439014435e-01</leafValues></_>
        <_>
          <internalNodes>
            0 -1 411 1.3150656741345301e-05</internalNodes>
          <leafValues>
            -1.4915885031223297e-01 2.0581510663032532e-01</leafValues></_>
        <_>
          <internalNodes>
            0 -1 175 -4.5762015506625175e-03</internalNodes>
          <leafValues>
            -4.1595554351806641e-01 7.5007580220699310e-02</leafValues></_>
        <_>
          <internalNodes>
            0 -1 692 2.0590033382177353e-03</internalNodes>
          <leafValues>
            -6.7763783037662506e-02 4.7880989313125610e-01</leafValues></_>
        <_>
          <internalNodes>
            0 -1 542 -5.8714714832603931e-03</internalNodes>
          <leafValues>
            -3.9042228460311890e-01 8.2915492355823517e-02</leafValues></_>
        <_>
          <internalNodes>
            0 -1 366 1.5214161976473406e-05</internalNodes>
          <leafValues>
            -1.5641885995864868e-01 2.0788799226284027e-01</leafValues></_>
        <_>
          <internalNodes>
            0 -1 517 -7.1788601577281952e-02</internalNodes>
          <leafValues>
            -6.5102928876876831e-01 5.4160133004188538e-02</leafValues></_>
        <_>
          <internalNodes>
            0 -1 364 2.9496612114598975e-05</internalNodes>
          <leafValues>
            -1.7983995378017426e-01 1.8685214221477509e-01</leafValues></_>
        <_>
          <internalNodes>
            0 -1 308 2.7618235908448696e-03</internalNodes>
          <leafValues>
            -1.3765415549278259e-01 2.4253997206687927e-01</leafValues></_></weakClassifiers></_>
    <!-- stage 3 -->
    <_>
      <maxWeakCount>46</maxWeakCount>
      <stageThreshold>-1.4967806339263916e+00</stageThreshold>
      <weakClassifiers>
        <_>
          <internalNodes>
            0 -1 254 -1.0742219164967537e-02</internalNodes>
          <leafValues>
            4.0333092212677002e-01 -3.4403952956199646e-01</leafValues></_>
        <_>
          <internalNodes>
            0 -1 13 1.0127721354365349e-02</internalNodes>
          <leafValues>
            -2.1933390200138092e-01 3.6685308814048767e-01</leafValues></_>
        <_>
          <internalNodes>
            0 -1 407 -6.0555799864232540e-03</internalNodes>
          <leafValues>
            2.1868027746677399e-01 -2.9828032851219177e-01</leafValues></_>
        <_>
          <internalNodes>
            0 -1 453 -1.4891822356730700e-03</internalNodes>
          <leafValues>
            -5.8277976512908936e-01 1.0646311193704605e-01</leafValues></_>
        <_>
          <internalNodes>
            0 -1 569 -1.1323811486363411e-02</internalNodes>
          <leafValues>
            -7.1666777133941650e-01 8.1873953342437744e-02</leafValues></_>
        <_>
          <internalNodes>
            0 -1 389 -1.6781482845544815e-03</internalNodes>
          <leafValues>
            -5.2569788694381714e-01 9.6434108912944794e-02</leafValues></_>
        <_>
          <internalNodes>
            0 -1 638 -6.5907537937164307e-03</internalNodes>
          <leafValues>
            2.9642817378044128e-01 -1.7201939225196838e-01</leafValues></_>
        <_>
          <internalNodes>
            0 -1 177 -1.8996466696262360e-01</internalNodes>
          <leafValues>
            3.8042193651199341e-01 -1.4000092446804047e-01</leafValues></_>
        <_>
          <internalNodes>
            0 -1 468 -1.3791543897241354e-03</internalNodes>
          <leafValues>
            -6.0492962598800659e-01 7.4924625456333160e-02</leafValues></_>
        <_>
          <internalNodes>
            0 -1 583 1.6009118407964706e-02</internalNodes>
          <leafValues>
            -1.3767480850219727e-01 3.3014345169067383e-01</leafValues></_>
        <_>
          <internalNodes>
            0 -1 614 5.1302919164299965e-03</internalNodes>
          <leafValues>
            -1.3719850778579712e-01 3.2642972469329834e-01</leafValues></_>
        <_>
          <internalNodes>
            0 -1 354 6.2229665927588940e-03</internalNodes>
          <leafValues>
            -1.3621309399604797e-01 3.3248892426490784e-01</leafValues></_>
        <_>
          <internalNodes>
            0 -1 513 -9.4753317534923553e-04</internalNodes>
          <leafValues>
            -4.7560170292854309e-01 7.5286395847797394e-02</leafValues></_>
        <_>
          <internalNodes>
            0 -1 218 -1.0380652733147144e-02</internalNodes>
          <leafValues>
            -9.0266084671020508e-01 4.0396858006715775e-02</leafValues></_>
        <_>
          <internalNodes>
            0 -1 63 1.0613312944769859e-02</internalNodes>
          <leafValues>
            -9.4315722584724426e-02 4.6764019131660461e-01</leafValues></_>
        <_>
          <internalNodes>
            0 -1 471 -7.1756739635020494e-04</internalNodes>
          <leafValues>
            -3.7193834781646729e-01 1.0983175039291382e-01</leafValues></_>
        <_>
          <internalNodes>
            0 -1 431 -4.1257422417402267e-03</internalNodes>
          <leafValues>
            3.1432756781578064e-01 -1.2509895861148834e-01</leafValues></_>
        <_>
          <internalNodes>
            0 -1 547 -2.0665139891207218e-03</internalNodes>
          <leafValues>
            -4.3344408273696899e-01 9.4070166349411011e-02</leafValues></_>
        <_>
          <internalNodes>
            0 -1 82 -2.0212069153785706e-02</internalNodes>
          <leafValues>
            3.0037790536880493e-01 -1.3250999152660370e-01</leafValues></_>
        <_>
          <internalNodes>
            0 -1 257 -1.3793321326375008e-02</internalNodes>
          <leafValues>
            -7.0055031776428223e-01 6.2503397464752197e-02</leafValues></_>
        <_>
          <internalNodes>
            0 -1 123 1.6373042017221451e-02</internalNodes>
          <leafValues>
            -1.2908202409744263e-01 3.4411311149597168e-01</leafValues></_>
        <_>
          <internalNodes>
            0 -1 317 -1.5572791919112206e-02</internalNodes>
          <leafValues>
            3.2538542151451111e-01 -1.2148097157478333e-01</leafValues></_>
        <_>
          <internalNodes>
            0 -1 644 -1.5372086316347122e-02</internalNodes>
          <leafValues>
            5.7561630010604858e-01 -6.1677124351263046e-02</leafValues></_>
        <_>
          <internalNodes>
            0 -1 357 -5.3302326705306768e-04</internalNodes>
          <leafValues>
            -3.1872606277465820e-01 1.2899447977542877e-01</leafValues></_>
        <_>
          <internalNodes>
            0 -1 273 3.9445562288165092e-03</internalNodes>
          <leafValues>
            -1.6744209825992584e-01 2.3429834842681885e-01</leafValues></_>
        <_>
          <internalNodes>
            0 -1 186 2.5083557702600956e-03</internalNodes>
          <leafValues>
            -1.7758683860301971e-01 2.1681536734104156e-01</leafValues></_>
        <_>
          <internalNodes>
            0 -1 465 2.2087066899985075e-03</internalNodes>
          <leafValues>
            5.2554611116647720e-02 -7.1069294214248657e-01</leafValues></_>
        <_>
          <internalNodes>
            0 -1 34 -2.4558611214160919e-01</internalNodes>
          <leafValues>
            3.4971195459365845e-01 -1.0984725505113602e-01</leafValues></_>
        <_>
          <internalNodes>
            0 -1 405 1.7103634774684906e-02</internalNodes>
          <leafValues>
            -9.7279302775859833e-02 4.2837709188461304e-01</leafValues></_>
        <_>
          <internalNodes>
            0 -1 693 1.4981516636908054e-02</internalNodes>
          <leafValues>
            -5.2800592035055161e-02 6.3321882486343384e-01</leafValues></_>
        <_>
          <internalNodes>
            0 -1 61 1.4258708106353879e-03</internalNodes>
          <leafValues>
            -9.9463887512683868e-02 3.5366648435592651e-01</leafValues></_>
        <_>
          <internalNodes>
            0 -1 617 1.1653029359877110e-02</internalNodes>
          <leafValues>
            5.5069055408239365e-02 -6.4961510896682739e-01</leafValues></_>
        <_>
          <internalNodes>
            0 -1 604 -1.2337498366832733e-02</internalNodes>
          <leafValues>
            2.5226777791976929e-01 -1.5015979111194611e-01</leafValues></_>
        <_>
          <internalNodes>
            0 -1 414 1.4055536594241858e-03</internalNodes>
          <leafValues>
            7.7132791280746460e-02 -4.5364111661911011e-01</leafValues></_>
        <_>
          <internalNodes>
            0 -1 107 -1.8170762807130814e-02</internalNodes>
          <leafValues>
            2.8567761182785034e-01 -1.3039465248584747e-01</leafValues></_>
        <_>
          <internalNodes>
            0 -1 244 -1.6612553596496582e-01</internalNodes>
          <leafValues>
            -6.7586445808410645e-01 5.9293039143085480e-02</leafValues></_>
        <_>
          <internalNodes>
            0 -1 173 -4.2895511724054813e-03</internalNodes>
          <leafValues>
            -4.8319393396377563e-01 6.8140164017677307e-02</leafValues></_>
        <_>
          <internalNodes>
            0 -1 93 -1.0103438049554825e-02</internalNodes>
          <leafValues>
            4.3062493205070496e-01 -7.8465051949024200e-02</leafValues></_>
        <_>
          <internalNodes>
            0 -1 437 -1.3539223000407219e-02</internalNodes>
          <leafValues>
            2.8665503859519958e-01 -1.1214827746152878e-01</leafValues></_>
        <_>
          <internalNodes>
            0 -1 213 -4.1394674917683005e-04</internalNodes>
          <leafValues>
            1.8874730169773102e-01 -1.8782274425029755e-01</leafValues></_>
        <_>
          <internalNodes>
            0 -1 530 -5.1345904357731342e-03</internalNodes>
          <leafValues>
            -4.6290758252143860e-01 7.6693981885910034e-02</leafValues></_>
        <_>
          <internalNodes>
            0 -1 688 2.2060275077819824e-03</internalNodes>
          <leafValues>
            -1.1039586365222931e-01 2.9383298754692078e-01</leafValues></_>
        <_>
          <internalNodes>
            0 -1 320 -5.1772547885775566e-03</internalNodes>
          <leafValues>
            -4.7953641414642334e-01 7.0231750607490540e-02</leafValues></_>
        <_>
          <internalNodes>
            0 -1 369 -9.0615898370742798e-02</internalNodes>
          <leafValues>
            -5.4630780220031738e-01 5.6622698903083801e-02</leafValues></_>
        <_>
          <internalNodes>
            0 -1 592 -1.0560649447143078e-02</internalNodes>
          <leafValues>
            -6.2706446647644043e-01 4.6293769031763077e-02</leafValues></_>
        <_>
          <internalNodes>
            0 -1 238 1.7423394322395325e-01</internalNodes>
          <leafValues>
            8.0634802579879761e-02 -4.1026017069816589e-01</leafValues></_></weakClassifiers></_>
    <!-- stage 4 -->
    <_>
      <maxWeakCount>65</maxWeakCount>
      <stageThreshold>-1.3167908191680908e+00</stageThreshold>
      <weakClassifiers>
        <_>
          <internalNodes>
            0 -1 349 -7.4191479943692684e-03</internalNodes>
          <leafValues>
            4.6882218122482300e-01 -1.9025304913520813e-01</leafValues></_>
        <_>
          <internalNodes>
            0 -1 142 8.4326744079589844e-02</internalNodes>
          <leafValues>
            -2.1696780622005463e-01 3.2688662409782410e-01</leafValues></_>
        <_>
          <internalNodes>
            0 -1 39 5.6299772113561630e-03</internalNodes>
          <leafValues>
            -1.3414216041564941e-01 4.3860042095184326e-01</leafValues></_>
        <_>
          <internalNodes>
            0 -1 227 -1.0652023553848267e-01</internalNodes>
          <leafValues>
            4.2911687493324280e-01 -1.5821166336536407e-01</leafValues></_>
        <_>
          <internalNodes>
            0 -1 684 -9.0648513287305832e-03</internalNodes>
          <leafValues>
            5.4726070165634155e-01 -6.2976971268653870e-02</leafValues></_>
        <_>
          <internalNodes>
            0 -1 627 2.4907219994929619e-05</internalNodes>
          <leafValues>
            -1.5287514030933380e-01 2.0476137101650238e-01</leafValues></_>
        <_>
          <internalNodes>
            0 -1 627 -3.3690976124489680e-05</internalNodes>
          <leafValues>
            2.4394178390502930e-01 -1.4925973117351532e-01</leafValues></_>
        <_>
          <internalNodes>
            0 -1 324 1.8776801880449057e-03</internalNodes>
          <leafValues>
            5.4077539592981339e-02 -5.1733112335205078e-01</leafValues></_>
        <_>
          <internalNodes>
            0 -1 274 6.6609098576009274e-03</internalNodes>
          <leafValues>
            -8.1868901848793030e-02 3.5432663559913635e-01</leafValues></_>
        <_>
          <internalNodes>
            0 -1 479 -7.4302926659584045e-03</internalNodes>
          <leafValues>
            -4.5011365413665771e-01 9.9573224782943726e-02</leafValues></_>
        <_>
          <internalNodes>
            0 -1 1 3.2520569220650941e-05</internalNodes>
          <leafValues>
            -1.8246248364448547e-01 1.6621753573417664e-01</leafValues></_>
        <_>
          <internalNodes>
            0 -1 18 1.2910097211715765e-05</internalNodes>
          <leafValues>
            -1.7304725944995880e-01 1.8968267738819122e-01</leafValues></_>
        <_>
          <internalNodes>
            0 -1 59 -1.4809086918830872e-01</internalNodes>
          <leafValues>
            -4.1487151384353638e-01 7.9444363713264465e-02</leafValues></_>
        <_>
          <internalNodes>
            0 -1 8 -1.0871977359056473e-01</internalNodes>
          <leafValues>
            4.2757129669189453e-01 -7.0977479219436646e-02</leafValues></_>
        <_>
          <internalNodes>
            0 -1 229 6.8117037415504456e-02</internalNodes>
          <leafValues>
            -9.9724091589450836e-02 3.7717318534851074e-01</leafValues></_>
        <_>
          <internalNodes>
            0 -1 686 5.9041772037744522e-03</internalNodes>
          <leafValues>
            -5.8777894824743271e-02 5.3681844472885132e-01</leafValues></_>
        <_>
          <internalNodes>
            0 -1 281 1.0275347158312798e-02</internalNodes>
          <leafValues>
            -5.2105482667684555e-02 5.2100127935409546e-01</leafValues></_>
        <_>
          <internalNodes>
            0 -1 490 -2.9864928364986554e-05</internalNodes>
          <leafValues>
            1.7280440032482147e-01 -1.6618351638317108e-01</leafValues></_>
        <_>
          <internalNodes>
            0 -1 568 -2.6263161562383175e-03</internalNodes>
          <leafValues>
            -4.6269086003303528e-01 6.7857742309570312e-02</leafValues></_>
        <_>
          <internalNodes>
            0 -1 678 -2.9524690035032108e-05</internalNodes>
          <leafValues>
            1.5608257055282593e-01 -1.7440725862979889e-01</leafValues></_>
        <_>
          <internalNodes>
            0 -1 512 -3.3161930332425982e-05</internalNodes>
          <leafValues>
            1.8687078356742859e-01 -1.4137092232704163e-01</leafValues></_>
        <_>
          <internalNodes>
            0 -1 512 -3.6560080479830503e-04</internalNodes>
          <leafValues>
            -3.1274366378784180e-01 8.7197497487068176e-02</leafValues></_>
        <_>
          <internalNodes>
            0 -1 48 -6.6423334646970034e-04</internalNodes>
          <leafValues>
            1.8231993913650513e-01 -1.3821884989738464e-01</leafValues></_>
        <_>
          <internalNodes>
            0 -1 112 -3.3530622720718384e-02</internalNodes>
          <leafValues>
            4.6799635887145996e-01 -6.6077701747417450e-02</leafValues></_>
        <_>
          <internalNodes>
            0 -1 5 7.3719456791877747e-02</internalNodes>
          <leafValues>
            -1.4430966973304749e-01 2.0615215599536896e-01</leafValues></_>
        <_>
          <internalNodes>
            0 -1 581 3.1386662158183753e-05</internalNodes>
          <leafValues>
            -1.5123933553695679e-01 1.8899202346801758e-01</leafValues></_>
        <_>
          <internalNodes>
            0 -1 581 -2.3652832169318572e-05</internalNodes>
          <leafValues>
            2.1501053869724274e-01 -1.4763496816158295e-01</leafValues></_>
        <_>
          <internalNodes>
            0 -1 348 4.4663967564702034e-03</internalNodes>
          <leafValues>
            7.5225874781608582e-02 -3.5841649770736694e-01</leafValues></_>
        <_>
          <internalNodes>
            0 -1 467 -3.1010364182293415e-05</internalNodes>
          <leafValues>
            1.8305926024913788e-01 -1.4588543772697449e-01</leafValues></_>
        <_>
          <internalNodes>
            0 -1 379 -5.2282691467553377e-04</internalNodes>
          <leafValues>
            -3.2937672734260559e-01 8.1399269402027130e-02</leafValues></_>
        <_>
          <internalNodes>
            0 -1 446 3.0199333195923828e-05</internalNodes>
          <leafValues>
            -1.5295079350471497e-01 1.9229334592819214e-01</leafValues></_>
        <_>
          <internalNodes>
            0 -1 446 -2.9214888854767196e-05</internalNodes>
          <leafValues>
            1.8811663985252380e-01 -1.3821554183959961e-01</leafValues></_>
        <_>
          <internalNodes>
            0 -1 134 -6.8239286541938782e-02</internalNodes>
          <leafValues>
            -4.0655040740966797e-01 6.4722612500190735e-02</leafValues></_>
        <_>
          <internalNodes>
            0 -1 53 -6.5953969955444336e-02</internalNodes>
          <leafValues>
            2.9223838448524475e-01 -8.2570038735866547e-02</leafValues></_>
        <_>
          <internalNodes>
            0 -1 305 -1.5682103112339973e-02</internalNodes>
          <leafValues>
            5.7039958238601685e-01 -4.3357446789741516e-02</leafValues></_>
        <_>
          <internalNodes>
            0 -1 400 2.4937033653259277e-02</internalNodes>
          <leafValues>
            -1.3918425142765045e-01 2.2734892368316650e-01</leafValues></_>
        <_>
          <internalNodes>
            0 -1 278 -3.9901368319988251e-02</internalNodes>
          <leafValues>
            -6.0042887926101685e-01 4.3919675052165985e-02</leafValues></_>
        <_>
          <internalNodes>
            0 -1 406 -2.9535050998674706e-05</internalNodes>
          <leafValues>
            1.7909812927246094e-01 -1.4714291691780090e-01</leafValues></_>
        <_>
          <internalNodes>
            0 -1 503 -8.3309952169656754e-03</internalNodes>
          <leafValues>
            2.0784752070903778e-01 -1.1771994084119797e-01</leafValues></_>
        <_>
          <internalNodes>
            0 -1 546 -7.4018607847392559e-04</internalNodes>
          <leafValues>
            -4.3540298938751221e-01 6.2534227967262268e-02</leafValues></_>
        <_>
          <internalNodes>
            0 -1 665 -2.9614719096571207e-03</internalNodes>
          <leafValues>
            5.1219421625137329e-01 -5.6250434368848801e-02</leafValues></_>
        <_>
          <internalNodes>
            0 -1 329 1.8072973471134901e-03</internalNodes>
          <leafValues>
            -1.1347334086894989e-01 2.4032048881053925e-01</leafValues></_>
        <_>
          <internalNodes>
            0 -1 319 -1.1462530819699168e-03</internalNodes>
          <leafValues>
            -3.7002915143966675e-01 7.6270364224910736e-02</leafValues></_>
        <_>
          <internalNodes>
            0 -1 620 3.7653593608411029e-05</internalNodes>
          <leafValues>
            -1.6442747414112091e-01 1.5733474493026733e-01</leafValues></_>
        <_>
          <internalNodes>
            0 -1 457 -3.1933221180224791e-05</internalNodes>
          <leafValues>
            1.7727202177047729e-01 -1.4095304906368256e-01</leafValues></_>
        <_>
          <internalNodes>
            0 -1 641 -2.9156653909012675e-05</internalNodes>
          <leafValues>
            1.7626729607582092e-01 -1.3356417417526245e-01</leafValues></_>
        <_>
          <internalNodes>
            0 -1 23 5.1973043009638786e-03</internalNodes>
          <leafValues>
            -5.4513033479452133e-02 4.6570697426795959e-01</leafValues></_>
        <_>
          <internalNodes>
            0 -1 634 1.2541299220174551e-03</internalNodes>
          <leafValues>
            -1.1490695178508759e-01 2.1409741044044495e-01</leafValues></_>
        <_>
          <internalNodes>
            0 -1 500 -4.3036689021391794e-05</internalNodes>
          <leafValues>
            1.3970009982585907e-01 -1.8702150881290436e-01</leafValues></_>
        <_>
          <internalNodes>
            0 -1 544 -1.2621721252799034e-03</internalNodes>
          <leafValues>
            -4.1891828179359436e-01 5.8967951685190201e-02</leafValues></_>
        <_>
          <internalNodes>
            0 -1 260 -2.7630543336272240e-02</internalNodes>
          <leafValues>
            6.9323366880416870e-01 -3.7500720471143723e-02</leafValues></_>
        <_>
          <internalNodes>
            0 -1 687 -2.5490012485533953e-03</internalNodes>
          <leafValues>
            2.1328687667846680e-01 -1.0315094888210297e-01</leafValues></_>
        <_>
          <internalNodes>
            0 -1 661 7.3687285184860229e-03</internalNodes>
          <leafValues>
            7.4775345623493195e-02 -3.4782594442367554e-01</leafValues></_>
        <_>
          <internalNodes>
            0 -1 659 4.8904158174991608e-03</internalNodes>
          <leafValues>
            -7.9713277518749237e-02 3.5512688755989075e-01</leafValues></_>
        <_>
          <internalNodes>
            0 -1 623 -1.3236506674729753e-05</internalNodes>
          <leafValues>
            1.7227859795093536e-01 -1.4514832198619843e-01</leafValues></_>
        <_>
          <internalNodes>
            0 -1 619 -3.0191405676305294e-03</internalNodes>
          <leafValues>
            4.9335590004920959e-01 -4.6717967838048935e-02</leafValues></_>
        <_>
          <internalNodes>
            0 -1 415 -1.6008316306397319e-03</internalNodes>
          <leafValues>
            -3.0625480413436890e-01 7.5659766793251038e-02</leafValues></_>
        <_>
          <internalNodes>
            0 -1 26 3.2773190177977085e-03</internalNodes>
          <leafValues>
            -8.7024174630641937e-02 2.9220783710479736e-01</leafValues></_>
        <_>
          <internalNodes>
            0 -1 66 2.7066254988312721e-03</internalNodes>
          <leafValues>
            7.2381772100925446e-02 -3.2585042715072632e-01</leafValues></_>
        <_>
          <internalNodes>
            0 -1 476 -2.6960537070408463e-05</internalNodes>
          <leafValues>
            1.8176239728927612e-01 -1.5004183351993561e-01</leafValues></_>
        <_>
          <internalNodes>
            0 -1 115 3.0034461815375835e-05</internalNodes>
          <leafValues>
            -1.3116827607154846e-01 1.7654736340045929e-01</leafValues></_>
        <_>
          <internalNodes>
            0 -1 246 3.8563372800126672e-04</internalNodes>
          <leafValues>
            8.4553740918636322e-02 -3.0741211771965027e-01</leafValues></_>
        <_>
          <internalNodes>
            0 -1 95 3.6853951215744019e-01</internalNodes>
          <leafValues>
            4.1236497461795807e-02 -5.7351905107498169e-01</leafValues></_>
        <_>
          <internalNodes>
            0 -1 292 -6.7637750180438161e-04</internalNodes>
          <leafValues>
            -2.9958665370941162e-01 8.0640614032745361e-02</leafValues></_>
        <_>
          <internalNodes>
            0 -1 332 3.0134739354252815e-03</internalNodes>
          <leafValues>
            -1.7522592842578888e-01 1.4274582266807556e-01</leafValues></_></weakClassifiers></_>
    <!-- stage 5 -->
    <_>
      <maxWeakCount>94</maxWeakCount>
      <stageThreshold>-1.3608043193817139e+00</stageThreshold>
      <weakClassifiers>
        <_>
          <internalNodes>
            0 -1 385 -2.5129504501819611e-03</internalNodes>
          <leafValues>
            3.2675871253013611e-01 -3.3603787422180176e-01</leafValues></_>
        <_>
          <internalNodes>
            0 -1 199 5.8553863316774368e-02</internalNodes>
          <leafValues>
            -2.5266852974891663e-01 2.9335021972656250e-01</leafValues></_>
        <_>
          <internalNodes>
            0 -1 676 -1.1233177036046982e-02</internalNodes>
          <leafValues>
            6.3023626804351807e-01 -1.1425668001174927e-01</leafValues></_>
        <_>
          <internalNodes>
            0 -1 225 6.3337665051221848e-03</internalNodes>
          <leafValues>
            -1.3574779033660889e-01 3.2543495297431946e-01</leafValues></_>
        <_>
          <internalNodes>
            0 -1 28 2.6633661240339279e-02</internalNodes>
          <leafValues>
            -7.5498282909393311e-02 4.0906888246536255e-01</leafValues></_>
        <_>
          <internalNodes>
            0 -1 558 9.6533307805657387e-03</internalNodes>
          <leafValues>
            5.6840457022190094e-02 -4.1110533475875854e-01</leafValues></_>
        <_>
          <internalNodes>
            0 -1 276 -1.0830914974212646e-01</internalNodes>
          <leafValues>
            -4.5369622111320496e-01 6.2899477779865265e-02</leafValues></_>
        <_>
          <internalNodes>
            0 -1 395 3.2133340835571289e-02</internalNodes>
          <leafValues>
            -9.1951884329319000e-02 2.7880477905273438e-01</leafValues></_>
        <_>
          <internalNodes>
            0 -1 198 2.3824112489819527e-02</internalNodes>
          <leafValues>
            -9.6413150429725647e-02 3.5268598794937134e-01</leafValues></_>
        <_>
          <internalNodes>
            0 -1 108 -1.8288895487785339e-01</internalNodes>
          <leafValues>
            -7.3330491781234741e-01 4.2001694440841675e-02</leafValues></_>
        <_>
          <internalNodes>
            0 -1 40 -7.6370604336261749e-02</internalNodes>
          <leafValues>
            -4.2877176403999329e-01 5.1845092326402664e-02</leafValues></_>
        <_>
          <internalNodes>
            0 -1 121 -1.0136036574840546e-01</internalNodes>
          <leafValues>
            6.2452769279479980e-01 -3.3959273248910904e-02</leafValues></_>
        <_>
          <internalNodes>
            0 -1 393 -2.8579209465533495e-03</internalNodes>
          <leafValues>
            -2.8891038894653320e-01 8.6484454572200775e-02</leafValues></_>
        <_>
          <internalNodes>
            0 -1 306 2.2986680269241333e-03</internalNodes>
          <leafValues>
            -1.1337362229824066e-01 2.2167490422725677e-01</leafValues></_>
        <_>
          <internalNodes>
            0 -1 266 7.9889103770256042e-02</internalNodes>
          <leafValues>
            6.7071117460727692e-02 -3.6374425888061523e-01</leafValues></_>
        <_>
          <internalNodes>
            0 -1 180 -9.3811098486185074e-03</internalNodes>
          <leafValues>
            3.0141675472259521e-01 -8.1225752830505371e-02</leafValues></_>
        <_>
          <internalNodes>
            0 -1 507 7.2320932522416115e-03</internalNodes>
          <leafValues>
            -1.3497672975063324e-01 2.4393233656883240e-01</leafValues></_>
        <_>
          <internalNodes>
            0 -1 674 -7.1779685094952583e-03</internalNodes>
          <leafValues>
            -2.8358748555183411e-01 6.9370903074741364e-02</leafValues></_>
        <_>
          <internalNodes>
            0 -1 151 -4.9310515169054270e-04</internalNodes>
          <leafValues>
            -2.7408164739608765e-01 7.8355878591537476e-02</leafValues></_>
        <_>
          <internalNodes>
            0 -1 78 5.6956410408020020e-03</internalNodes>
          <leafValues>
            -8.2321844995021820e-02 2.6457688212394714e-01</leafValues></_>
        <_>
          <internalNodes>
            0 -1 522 -2.4486191570758820e-02</internalNodes>
          <leafValues>
            -4.7403326630592346e-01 4.7069232910871506e-02</leafValues></_>
        <_>
          <internalNodes>
            0 -1 466 -1.7175595276057720e-03</internalNodes>
          <leafValues>
            -4.0883621573448181e-01 4.5116014778614044e-02</leafValues></_>
        <_>
          <internalNodes>
            0 -1 587 1.2874998152256012e-02</internalNodes>
          <leafValues>
            -6.2118209898471832e-02 3.8022962212562561e-01</leafValues></_>
        <_>
          <internalNodes>
            0 -1 516 -2.3537117987871170e-02</internalNodes>
          <leafValues>
            3.0764836072921753e-01 -6.1485186219215393e-02</leafValues></_>
        <_>
          <internalNodes>
            0 -1 483 7.7471487224102020e-02</internalNodes>
          <leafValues>
            8.8341988623142242e-02 -2.2942136228084564e-01</leafValues></_>
        <_>
          <internalNodes>
            0 -1 299 1.1767097748816013e-02</internalNodes>
          <leafValues>
            -1.5935474634170532e-01 1.2873549759387970e-01</leafValues></_>
        <_>
          <internalNodes>
            0 -1 19 5.2051888778805733e-03</internalNodes>
          <leafValues>
            -7.3151707649230957e-02 2.9336109757423401e-01</leafValues></_>
        <_>
          <internalNodes>
            0 -1 528 1.2651858851313591e-03</internalNodes>
          <leafValues>
            6.5635763108730316e-02 -3.5690999031066895e-01</leafValues></_>
        <_>
          <internalNodes>
            0 -1 529 -9.1387977590784431e-04</internalNodes>
          <leafValues>
            -3.2775238156318665e-01 8.9939109981060028e-02</leafValues></_>
        <_>
          <internalNodes>
            0 -1 570 1.2446530163288116e-03</internalNodes>
          <leafValues>
            -9.1452084481716156e-02 2.4304465949535370e-01</leafValues></_>
        <_>
          <internalNodes>
            0 -1 368 -1.5582611784338951e-02</internalNodes>
          <leafValues>
            4.7552430629730225e-01 -3.8816113024950027e-02</leafValues></_>
        <_>
          <internalNodes>
            0 -1 403 2.4310373701155186e-03</internalNodes>
          <leafValues>
            -1.2828984856605530e-01 1.7564292252063751e-01</leafValues></_>
        <_>
          <internalNodes>
            0 -1 510 3.2620370388031006e-02</internalNodes>
          <leafValues>
            6.7437641322612762e-02 -3.6003747582435608e-01</leafValues></_>
        <_>
          <internalNodes>
            0 -1 642 1.3310028240084648e-02</internalNodes>
          <leafValues>
            -7.3613658547401428e-02 2.8603449463844299e-01</leafValues></_>
        <_>
          <internalNodes>
            0 -1 196 2.3460774682462215e-03</internalNodes>
          <leafValues>
            -1.0500179976224899e-01 1.8827067315578461e-01</leafValues></_>
        <_>
          <internalNodes>
            0 -1 605 -1.4936842024326324e-02</internalNodes>
          <leafValues>
            4.0693172812461853e-01 -4.3688949197530746e-02</leafValues></_>
        <_>
          <internalNodes>
            0 -1 341 1.6572434687986970e-03</internalNodes>
          <leafValues>
            7.1443438529968262e-02 -2.7943372726440430e-01</leafValues></_>
        <_>
          <internalNodes>
            0 -1 336 -1.3493043370544910e-03</internalNodes>
          <leafValues>
            1.5949180722236633e-01 -1.2772859632968903e-01</leafValues></_>
        <_>
          <internalNodes>
            0 -1 571 -8.5091888904571533e-03</internalNodes>
          <leafValues>
            5.9420192241668701e-01 -3.0847478657960892e-02</leafValues></_>
        <_>
          <internalNodes>
            0 -1 42 1.5194611623883247e-03</internalNodes>
          <leafValues>
            -1.6840410232543945e-01 1.2698358297348022e-01</leafValues></_>
        <_>
          <internalNodes>
            0 -1 394 -1.5736941248178482e-02</internalNodes>
          <leafValues>
            3.9164182543754578e-01 -5.6120015680789948e-02</leafValues></_>
        <_>
          <internalNodes>
            0 -1 618 -1.7720725387334824e-02</internalNodes>
          <leafValues>
            -7.8526127338409424e-01 3.0827572569251060e-02</leafValues></_>
        <_>
          <internalNodes>
            0 -1 499 -5.9892807621508837e-04</internalNodes>
          <leafValues>
            -3.5117396712303162e-01 5.3835578262805939e-02</leafValues></_>
        <_>
          <internalNodes>
            0 -1 449 -4.7093321336433291e-04</internalNodes>
          <leafValues>
            1.1671961843967438e-01 -1.6670244932174683e-01</leafValues></_>
        <_>
          <internalNodes>
            0 -1 284 -7.6711000874638557e-03</internalNodes>
          <leafValues>
            1.5854556858539581e-01 -1.1733642220497131e-01</leafValues></_>
        <_>
          <internalNodes>
            0 -1 448 -1.3938718475401402e-02</internalNodes>
          <leafValues>
            1.8758867681026459e-01 -1.1175137013196945e-01</leafValues></_>
        <_>
          <internalNodes>
            0 -1 69 1.4036559732630849e-03</internalNodes>
          <leafValues>
            9.2077530920505524e-02 -2.2188606858253479e-01</leafValues></_>
        <_>
          <internalNodes>
            0 -1 85 9.6540281083434820e-04</internalNodes>
          <leafValues>
            9.0777322649955750e-02 -2.0872320234775543e-01</leafValues></_>
        <_>
          <internalNodes>
            0 -1 7 7.2384043596684933e-04</internalNodes>
          <leafValues>
            -1.4519870281219482e-01 1.3270577788352966e-01</leafValues></_>
        <_>
          <internalNodes>
            0 -1 191 1.1755804531276226e-02</internalNodes>
          <leafValues>
            -8.9311264455318451e-02 2.3410475254058838e-01</leafValues></_>
        <_>
          <internalNodes>
            0 -1 505 4.2883865535259247e-04</internalNodes>
          <leafValues>
            6.6733404994010925e-02 -3.1570237874984741e-01</leafValues></_>
        <_>
          <internalNodes>
            0 -1 73 6.4743859693408012e-03</internalNodes>
          <leafValues>
            -7.9151101410388947e-02 2.5374430418014526e-01</leafValues></_>
        <_>
          <internalNodes>
            0 -1 231 -3.5928737372159958e-02</internalNodes>
          <leafValues>
            6.6178369522094727e-01 -2.9455751180648804e-02</leafValues></_>
        <_>
          <internalNodes>
            0 -1 253 -5.5409903870895505e-04</internalNodes>
          <leafValues>
            2.0715925097465515e-01 -8.5276477038860321e-02</leafValues></_>
        <_>
          <internalNodes>
            0 -1 643 -1.6750904032960534e-03</internalNodes>
          <leafValues>
            -2.8973844647407532e-01 6.5306954085826874e-02</leafValues></_>
        <_>
          <internalNodes>
            0 -1 363 1.6716010868549347e-02</internalNodes>
          <leafValues>
            -8.6039878427982330e-02 2.2480851411819458e-01</leafValues></_>
        <_>
          <internalNodes>
            0 -1 197 2.1208779886364937e-02</internalNodes>
          <leafValues>
            -1.0107744485139847e-01 1.9280324876308441e-01</leafValues></_>
        <_>
          <internalNodes>
            0 -1 577 1.3430722057819366e-01</internalNodes>
          <leafValues>
            -4.2480248957872391e-02 4.7287553548812866e-01</leafValues></_>
        <_>
          <internalNodes>
            0 -1 480 2.2455126047134399e-02</internalNodes>
          <leafValues>
            -2.6395294815301895e-02 7.3351538181304932e-01</leafValues></_>
        <_>
          <internalNodes>
            0 -1 150 5.0346525385975838e-03</internalNodes>
          <leafValues>
            -8.0543905496597290e-02 2.3087263107299805e-01</leafValues></_>
        <_>
          <internalNodes>
            0 -1 651 -8.1160236150026321e-03</internalNodes>
          <leafValues>
            4.0598401427268982e-01 -4.8135098069906235e-02</leafValues></_>
        <_>
          <internalNodes>
            0 -1 648 -2.8283364372327924e-04</internalNodes>
          <leafValues>
            -2.2210080921649933e-01 9.7197070717811584e-02</leafValues></_>
        <_>
          <internalNodes>
            0 -1 272 -6.0852216556668282e-03</internalNodes>
          <leafValues>
            3.2937878370285034e-01 -5.6795161217451096e-02</leafValues></_>
        <_>
          <internalNodes>
            0 -1 375 2.2829480469226837e-02</internalNodes>
          <leafValues>
            4.1473548859357834e-02 -4.7723093628883362e-01</leafValues></_>
        <_>
          <internalNodes>
            0 -1 600 -1.4154560631141067e-05</internalNodes>
          <leafValues>
            1.2522041797637939e-01 -1.4948247373104095e-01</leafValues></_>
        <_>
          <internalNodes>
            0 -1 660 1.4123599976301193e-03</internalNodes>
          <leafValues>
            -6.0139786452054977e-02 3.0246588587760925e-01</leafValues></_>
        <_>
          <internalNodes>
            0 -1 572 -4.5159216970205307e-03</internalNodes>
          <leafValues>
            -4.5004278421401978e-01 4.1351038962602615e-02</leafValues></_>
        <_>
          <internalNodes>
            0 -1 478 -5.3764297626912594e-04</internalNodes>
          <leafValues>
            -2.2676932811737061e-01 8.0926299095153809e-02</leafValues></_>
        <_>
          <internalNodes>
            0 -1 55 6.8636715877801180e-04</internalNodes>
          <leafValues>
            -6.7935571074485779e-02 2.9648301005363464e-01</leafValues></_>
        <_>
          <internalNodes>
            0 -1 261 -1.0187798179686069e-03</internalNodes>
          <leafValues>
            -3.5361412167549133e-01 5.1793895661830902e-02</leafValues></_>
        <_>
          <internalNodes>
            0 -1 632 -6.7651886492967606e-03</internalNodes>
          <leafValues>
            2.3847603797912598e-01 -8.2652546465396881e-02</leafValues></_>
        <_>
          <internalNodes>
            0 -1 75 -4.5904023572802544e-03</internalNodes>
          <leafValues>
            -2.4920478463172913e-01 7.9431183636188507e-02</leafValues></_>
        <_>
          <internalNodes>
            0 -1 144 8.9010745286941528e-02</internalNodes>
          <leafValues>
            4.9353629350662231e-02 -4.4659376144409180e-01</leafValues></_>
        <_>
          <internalNodes>
            0 -1 46 1.7858469858765602e-02</internalNodes>
          <leafValues>
            -1.3841918110847473e-01 1.4529956877231598e-01</leafValues></_>
        <_>
          <internalNodes>
            0 -1 12 -9.8415547981858253e-03</internalNodes>
          <leafValues>
            6.0346478223800659e-01 -3.2055921852588654e-02</leafValues></_>
        <_>
          <internalNodes>
            0 -1 96 -3.4180772490799427e-04</internalNodes>
          <leafValues>
            -1.5989784896373749e-01 1.1731951683759689e-01</leafValues></_>
        <_>
          <internalNodes>
            0 -1 70 2.2572348825633526e-03</internalNodes>
          <leafValues>
            -5.7778704911470413e-02 3.2764816284179688e-01</leafValues></_>
        <_>
          <internalNodes>
            0 -1 680 -3.0787384603172541e-03</internalNodes>
          <leafValues>
            2.6061823964118958e-01 -7.0804759860038757e-02</leafValues></_>
        <_>
          <internalNodes>
            0 -1 682 5.9111823793500662e-04</internalNodes>
          <leafValues>
            -1.1537688225507736e-01 1.6478179395198822e-01</leafValues></_>
        <_>
          <internalNodes>
            0 -1 597 2.5401126593351364e-02</internalNodes>
          <leafValues>
            5.3501304239034653e-02 -3.2377877831459045e-01</leafValues></_>
        <_>
          <internalNodes>
            0 -1 653 7.3030283674597740e-03</internalNodes>
          <leafValues>
            -6.1365399509668350e-02 2.9304736852645874e-01</leafValues></_>
        <_>
          <internalNodes>
            0 -1 216 -1.4111420139670372e-02</internalNodes>
          <leafValues>
            -4.8109203577041626e-01 4.0872547775506973e-02</leafValues></_>
        <_>
          <internalNodes>
            0 -1 423 -1.2857756018638611e-01</internalNodes>
          <leafValues>
            -7.1399039030075073e-01 2.2169252857565880e-02</leafValues></_>
        <_>
          <internalNodes>
            0 -1 44 3.9893211796879768e-03</internalNodes>
          <leafValues>
            -4.2884539812803268e-02 4.4857600331306458e-01</leafValues></_>
        <_>
          <internalNodes>
            0 -1 608 -7.8485114499926567e-03</internalNodes>
          <leafValues>
            -4.1710853576660156e-01 4.7551438212394714e-02</leafValues></_>
        <_>
          <internalNodes>
            0 -1 445 3.8652103394269943e-03</internalNodes>
          <leafValues>
            -6.7159719765186310e-02 2.8378671407699585e-01</leafValues></_>
        <_>
          <internalNodes>
            0 -1 373 -5.3010970354080200e-02</internalNodes>
          <leafValues>
            -5.9143447875976562e-01 3.0373938381671906e-02</leafValues></_>
        <_>
          <internalNodes>
            0 -1 685 -1.7403988167643547e-03</internalNodes>
          <leafValues>
            3.5070037841796875e-01 -5.2243798971176147e-02</leafValues></_>
        <_>
          <internalNodes>
            0 -1 613 3.7454576231539249e-03</internalNodes>
          <leafValues>
            5.4640844464302063e-02 -3.2130599021911621e-01</leafValues></_>
        <_>
          <internalNodes>
            0 -1 656 2.3587713949382305e-03</internalNodes>
          <leafValues>
            -9.2828355729579926e-02 1.7828747630119324e-01</leafValues></_>
        <_>
          <internalNodes>
            0 -1 294 -9.3149358872324228e-04</internalNodes>
          <leafValues>
            -4.4197046756744385e-01 4.0410134941339493e-02</leafValues></_>
        <_>
          <internalNodes>
            0 -1 290 9.3158218078315258e-04</internalNodes>
          <leafValues>
            6.9719456136226654e-02 -2.2898067533969879e-01</leafValues></_>
        <_>
          <internalNodes>
            0 -1 184 -6.9703459739685059e-03</internalNodes>
          <leafValues>
            3.7303051352500916e-01 -4.9281243234872818e-02</leafValues></_>
        <_>
          <internalNodes>
            0 -1 168 8.0975660239346325e-05</internalNodes>
          <leafValues>
            1.0698758065700531e-01 -1.4995683729648590e-01</leafValues></_></weakClassifiers></_>
    <!-- stage 6 -->
    <_>
      <maxWeakCount>90</maxWeakCount>
      <stageThreshold>-1.3431441783905029e+00</stageThreshold>
      <weakClassifiers>
        <_>
          <internalNodes>
            0 -1 349 -4.5130997896194458e-03</internalNodes>
          <leafValues>
            3.7229782342910767e-01 -2.6556253433227539e-01</leafValues></_>
        <_>
          <internalNodes>
            0 -1 206 2.8213981539011002e-02</internalNodes>
          <leafValues>
            -1.5737274289131165e-01 4.3106132745742798e-01</leafValues></_>
        <_>
          <internalNodes>
            0 -1 92 2.3263903334736824e-02</internalNodes>
          <leafValues>
            -1.3475215435028076e-01 2.9971271753311157e-01</leafValues></_>
        <_>
          <internalNodes>
            0 -1 204 2.8707209974527359e-02</internalNodes>
          <leafValues>
            -1.3500720262527466e-01 2.9496142268180847e-01</leafValues></_>
        <_>
          <internalNodes>
            0 -1 236 2.0533232018351555e-02</internalNodes>
          <leafValues>
            -1.4101582765579224e-01 2.9090082645416260e-01</leafValues></_>
        <_>
          <internalNodes>
            0 -1 675 -2.9418866615742445e-03</internalNodes>
          <leafValues>
            2.8589814901351929e-01 -9.8731562495231628e-02</leafValues></_>
        <_>
          <internalNodes>
            0 -1 127 -2.2394604980945587e-02</internalNodes>
          <leafValues>
            2.8164726495742798e-01 -1.5792532265186310e-01</leafValues></_>
        <_>
          <internalNodes>
            0 -1 45 4.9814619123935699e-03</internalNodes>
          <leafValues>
            -5.6823920458555222e-03 4.5807436108589172e-01</leafValues></_>
        <_>
          <internalNodes>
            0 -1 72 5.1583531312644482e-03</internalNodes>
          <leafValues>
            -1.4532849192619324e-01 2.1473394334316254e-01</leafValues></_>
        <_>
          <internalNodes>
            0 -1 518 -1.0280237346887589e-01</internalNodes>
          <leafValues>
            -5.7222157716751099e-01 6.4837977290153503e-02</leafValues></_>
        <_>
          <internalNodes>
            0 -1 89 -1.4393882825970650e-02</internalNodes>
          <leafValues>
            1.7046557366847992e-01 -1.4166119694709778e-01</leafValues></_>
        <_>
          <internalNodes>
            0 -1 153 -3.6048414185643196e-03</internalNodes>
          <leafValues>
            2.2586287558078766e-01 -1.1911240220069885e-01</leafValues></_>
        <_>
          <internalNodes>
            0 -1 452 4.6563911018893123e-04</internalNodes>
          <leafValues>
            7.7695384621620178e-02 -3.1902804970741272e-01</leafValues></_>
        <_>
          <internalNodes>
            0 -1 358 1.6822288744151592e-03</internalNodes>
          <leafValues>
            6.1406116932630539e-02 -3.6316028237342834e-01</leafValues></_>
        <_>
          <internalNodes>
            0 -1 113 -2.1622313652187586e-03</internalNodes>
          <leafValues>
            1.4030817151069641e-01 -1.5909367799758911e-01</leafValues></_>
        <_>
          <internalNodes>
            0 -1 489 -3.6710143089294434e-02</internalNodes>
          <leafValues>
            -4.2891594767570496e-01 4.8730347305536270e-02</leafValues></_>
        <_>
          <internalNodes>
            0 -1 158 -3.0688280239701271e-03</internalNodes>
          <leafValues>
            -3.8921794295310974e-01 5.1300324499607086e-02</leafValues></_>
        <_>
          <internalNodes>
            0 -1 270 3.3732964657247066e-03</internalNodes>
          <leafValues>
            -7.7305912971496582e-02 2.7928039431571960e-01</leafValues></_>
        <_>
          <internalNodes>
            0 -1 120 8.8869653642177582e-02</internalNodes>
          <leafValues>
            3.3599231392145157e-02 -6.2704533338546753e-01</leafValues></_>
        <_>
          <internalNodes>
            0 -1 464 -3.2762847840785980e-03</internalNodes>
          <leafValues>
            5.2309715747833252e-01 -4.4120367616415024e-02</leafValues></_>
        <_>
          <internalNodes>
            0 -1 442 6.7404955625534058e-03</internalNodes>
          <leafValues>
            -5.5018503218889236e-02 3.8101723790168762e-01</leafValues></_>
        <_>
          <internalNodes>
            0 -1 41 -3.3534264564514160e-01</internalNodes>
          <leafValues>
            4.5168289542198181e-01 -4.6767063438892365e-02</leafValues></_>
        <_>
          <internalNodes>
            0 -1 146 4.1932899504899979e-02</internalNodes>
          <leafValues>
            -1.0816763341426849e-01 2.0982740819454193e-01</leafValues></_>
        <_>
          <internalNodes>
            0 -1 313 -2.5658430531620979e-03</internalNodes>
          <leafValues>
            1.5078903734683990e-01 -1.3772456347942352e-01</leafValues></_>
        <_>
          <internalNodes>
            0 -1 71 3.4162215888500214e-02</internalNodes>
          <leafValues>
            6.7997723817825317e-02 -2.9055020213127136e-01</leafValues></_>
        <_>
          <internalNodes>
            0 -1 205 1.5425753779709339e-02</internalNodes>
          <leafValues>
            -1.3962225615978241e-01 1.3921204209327698e-01</leafValues></_>
        <_>
          <internalNodes>
            0 -1 2 3.1968262046575546e-03</internalNodes>
          <leafValues>
            -7.6035149395465851e-02 2.7213683724403381e-01</leafValues></_>
        <_>
          <internalNodes>
            0 -1 531 6.9105089642107487e-04</internalNodes>
          <leafValues>
            6.6077820956707001e-02 -3.0228227376937866e-01</leafValues></_>
        <_>
          <internalNodes>
            0 -1 173 9.4508407637476921e-03</internalNodes>
          <leafValues>
            2.8615348041057587e-02 -6.7218649387359619e-01</leafValues></_>
        <_>
          <internalNodes>
            0 -1 470 2.7268361300230026e-03</internalNodes>
          <leafValues>
            -9.0153649449348450e-02 2.2098778188228607e-01</leafValues></_>
        <_>
          <internalNodes>
            0 -1 11 -1.9024624489247799e-03</internalNodes>
          <leafValues>
            3.6733400821685791e-01 -5.1534332334995270e-02</leafValues></_>
        <_>
          <internalNodes>
            0 -1 543 -2.9457269702106714e-03</internalNodes>
          <leafValues>
            -4.3345066905021667e-01 4.5993518084287643e-02</leafValues></_>
        <_>
          <internalNodes>
            0 -1 103 -5.0394460558891296e-03</internalNodes>
          <leafValues>
            1.6806884109973907e-01 -1.1708120256662369e-01</leafValues></_>
        <_>
          <internalNodes>
            0 -1 21 1.3020265847444534e-02</internalNodes>
          <leafValues>
            -1.4121665060520172e-01 1.3761423528194427e-01</leafValues></_>
        <_>
          <internalNodes>
            0 -1 281 -4.5943688601255417e-03</internalNodes>
          <leafValues>
            2.4979694187641144e-01 -7.7875293791294098e-02</leafValues></_>
        <_>
          <internalNodes>
            0 -1 185 6.0862191021442413e-03</internalNodes>
          <leafValues>
            6.6501110792160034e-02 -2.9271292686462402e-01</leafValues></_>
        <_>
          <internalNodes>
            0 -1 245 3.6353922914713621e-03</internalNodes>
          <leafValues>
            -8.8218212127685547e-02 2.2174827754497528e-01</leafValues></_>
        <_>
          <internalNodes>
            0 -1 650 -4.5901566045358777e-04</internalNodes>
          <leafValues>
            1.3945969939231873e-01 -1.3336950540542603e-01</leafValues></_>
        <_>
          <internalNodes>
            0 -1 683 7.4414932169020176e-03</internalNodes>
          <leafValues>
            -4.2392089962959290e-02 4.7834467887878418e-01</leafValues></_>
        <_>
          <internalNodes>
            0 -1 104 -3.5384252667427063e-02</internalNodes>
          <leafValues>
            1.7898932099342346e-01 -1.0540545731782913e-01</leafValues></_>
        <_>
          <internalNodes>
            0 -1 212 -1.3012582436203957e-02</internalNodes>
          <leafValues>
            -3.5737565159797668e-01 5.7777103036642075e-02</leafValues></_>
        <_>
          <internalNodes>
            0 -1 422 -6.4368590712547302e-02</internalNodes>
          <leafValues>
            -7.6906198263168335e-01 1.9990542903542519e-02</leafValues></_>
        <_>
          <internalNodes>
            0 -1 521 1.4422312378883362e-02</internalNodes>
          <leafValues>
            6.3589170575141907e-02 -2.7731886506080627e-01</leafValues></_>
        <_>
          <internalNodes>
            0 -1 562 -1.6896948218345642e-03</internalNodes>
          <leafValues>
            1.6761265695095062e-01 -1.2826751172542572e-01</leafValues></_>
        <_>
          <internalNodes>
            0 -1 377 -3.2571732997894287e-02</internalNodes>
          <leafValues>
            -8.4855890274047852e-01 2.3293809965252876e-02</leafValues></_>
        <_>
          <internalNodes>
            0 -1 139 -6.9673201069235802e-03</internalNodes>
          <leafValues>
            2.0766165852546692e-01 -8.6843423545360565e-02</leafValues></_>
        <_>
          <internalNodes>
            0 -1 183 -3.2900262158364058e-03</internalNodes>
          <leafValues>
            -3.1067830324172974e-01 5.6833501905202866e-02</leafValues></_>
        <_>
          <internalNodes>
            0 -1 217 5.2451565861701965e-03</internalNodes>
          <leafValues>
            -2.8621667996048927e-02 6.3351249694824219e-01</leafValues></_>
        <_>
          <internalNodes>
            0 -1 333 -4.4572545448318124e-04</internalNodes>
          <leafValues>
            1.4751121401786804e-01 -1.3303194940090179e-01</leafValues></_>
        <_>
          <internalNodes>
            0 -1 401 -1.9986019469797611e-03</internalNodes>
          <leafValues>
            3.0766728520393372e-01 -7.0617407560348511e-02</leafValues></_>
        <_>
          <internalNodes>
            0 -1 233 5.2472174866124988e-04</internalNodes>
          <leafValues>
            -1.1730340868234634e-01 1.4918091893196106e-01</leafValues></_>
        <_>
          <internalNodes>
            0 -1 461 -8.8644959032535553e-03</internalNodes>
          <leafValues>
            -3.1427273154258728e-01 6.0697630047798157e-02</leafValues></_>
        <_>
          <internalNodes>
            0 -1 111 -7.5547002255916595e-02</internalNodes>
          <leafValues>
            -7.1607053279876709e-01 2.1917356178164482e-02</leafValues></_>
        <_>
          <internalNodes>
            0 -1 240 1.8915008753538132e-02</internalNodes>
          <leafValues>
            3.2997943460941315e-02 -4.7948777675628662e-01</leafValues></_>
        <_>
          <internalNodes>
            0 -1 536 -1.0274044424295425e-01</internalNodes>
          <leafValues>
            -9.7492128610610962e-01 1.7415789887309074e-02</leafValues></_>
        <_>
          <internalNodes>
            0 -1 380 1.3373878318816423e-03</internalNodes>
          <leafValues>
            5.3189128637313843e-02 -2.9537484049797058e-01</leafValues></_>
        <_>
          <internalNodes>
            0 -1 250 -2.1985045168548822e-03</internalNodes>
          <leafValues>
            1.9731073081493378e-01 -9.3130968511104584e-02</leafValues></_>
        <_>
          <internalNodes>
            0 -1 295 -3.0050240457057953e-03</internalNodes>
          <leafValues>
            2.1706041693687439e-01 -8.6124993860721588e-02</leafValues></_>
        <_>
          <internalNodes>
            0 -1 382 -1.1665084166452289e-03</internalNodes>
          <leafValues>
            -3.3749011158943176e-01 5.5012822151184082e-02</leafValues></_>
        <_>
          <internalNodes>
            0 -1 624 -2.8103764634579420e-05</internalNodes>
          <leafValues>
            1.4805416762828827e-01 -1.1860741674900055e-01</leafValues></_>
        <_>
          <internalNodes>
            0 -1 130 1.1540561914443970e-02</internalNodes>
          <leafValues>
            -5.9213042259216309e-02 2.8277894854545593e-01</leafValues></_>
        <_>
          <internalNodes>
            0 -1 262 3.5515931085683405e-04</internalNodes>
          <leafValues>
            7.5383655726909637e-02 -2.5170189142227173e-01</leafValues></_>
        <_>
          <internalNodes>
            0 -1 663 2.9482908546924591e-02</internalNodes>
          <leafValues>
            -3.4106612205505371e-02 5.5717188119888306e-01</leafValues></_>
        <_>
          <internalNodes>
            0 -1 689 -1.4135835226625204e-04</internalNodes>
          <leafValues>
            1.2609034776687622e-01 -1.4946599304676056e-01</leafValues></_>
        <_>
          <internalNodes>
            0 -1 493 -1.4261965407058597e-03</internalNodes>
          <leafValues>
            -2.5193157792091370e-01 7.1227915585041046e-02</leafValues></_>
        <_>
          <internalNodes>
            0 -1 280 -4.2960541322827339e-03</internalNodes>
          <leafValues>
            1.6185873746871948e-01 -1.1854921281337738e-01</leafValues></_>
        <_>
          <internalNodes>
            0 -1 310 2.3205620236694813e-03</internalNodes>
          <leafValues>
            -9.4901524484157562e-02 2.1835213899612427e-01</leafValues></_>
        <_>
          <internalNodes>
            0 -1 612 2.9363919049501419e-02</internalNodes>
          <leafValues>
            5.5544812232255936e-02 -3.9340126514434814e-01</leafValues></_>
        <_>
          <internalNodes>
            0 -1 162 1.2723167892545462e-03</internalNodes>
          <leafValues>
            -1.1905387789011002e-01 1.5427882969379425e-01</leafValues></_>
        <_>
          <internalNodes>
            0 -1 187 2.4083796143531799e-01</internalNodes>
          <leafValues>
            -6.2734164297580719e-02 2.8393560647964478e-01</leafValues></_>
        <_>
          <internalNodes>
            0 -1 514 -7.7680908143520355e-03</internalNodes>
          <leafValues>
            1.9461330771446228e-01 -1.1076740920543671e-01</leafValues></_>
        <_>
          <internalNodes>
            0 -1 402 -9.7676198929548264e-03</internalNodes>
          <leafValues>
            2.4315181374549866e-01 -9.0560771524906158e-02</leafValues></_>
        <_>
          <internalNodes>
            0 -1 125 -7.3182268533855677e-04</internalNodes>
          <leafValues>
            4.0296068787574768e-01 -5.1581665873527527e-02</leafValues></_>
        <_>
          <internalNodes>
            0 -1 20 6.9943312555551529e-03</internalNodes>
          <leafValues>
            -3.4882877022027969e-02 5.5886155366897583e-01</leafValues></_>
        <_>
          <internalNodes>
            0 -1 255 -2.1945014595985413e-03</internalNodes>
          <leafValues>
            2.2110193967819214e-01 -8.8344283401966095e-02</leafValues></_>
        <_>
          <internalNodes>
            0 -1 611 -2.9511822387576103e-02</internalNodes>
          <leafValues>
            -3.7249377369880676e-01 5.2631013095378876e-02</leafValues></_>
        <_>
          <internalNodes>
            0 -1 610 -3.6013005301356316e-03</internalNodes>
          <leafValues>
            3.6728370189666748e-01 -4.9641035497188568e-02</leafValues></_>
        <_>
          <internalNodes>
            0 -1 396 2.6346265804022551e-04</internalNodes>
          <leafValues>
            7.8486584126949310e-02 -2.3497146368026733e-01</leafValues></_>
        <_>
          <internalNodes>
            0 -1 0 9.4556322437711060e-05</internalNodes>
          <leafValues>
            1.0782061517238617e-01 -1.7542092502117157e-01</leafValues></_>
        <_>
          <internalNodes>
            0 -1 554 3.4047864377498627e-02</internalNodes>
          <leafValues>
            2.5568367913365364e-02 -6.8698561191558838e-01</leafValues></_>
        <_>
          <internalNodes>
            0 -1 169 -2.6283096522092819e-02</internalNodes>
          <leafValues>
            2.4500402808189392e-01 -8.0231674015522003e-02</leafValues></_>
        <_>
          <internalNodes>
            0 -1 657 -1.8761699320748448e-03</internalNodes>
          <leafValues>
            1.8084193766117096e-01 -1.1647726595401764e-01</leafValues></_>
        <_>
          <internalNodes>
            0 -1 694 2.0407536067068577e-04</internalNodes>
          <leafValues>
            8.9993402361869812e-02 -2.1859571337699890e-01</leafValues></_>
        <_>
          <internalNodes>
            0 -1 451 -5.9231661260128021e-02</internalNodes>
          <leafValues>
            6.0110312700271606e-01 -3.2717641443014145e-02</leafValues></_>
        <_>
          <internalNodes>
            0 -1 589 5.3056777687743306e-04</internalNodes>
          <leafValues>
            8.2664437592029572e-02 -2.3267978429794312e-01</leafValues></_>
        <_>
          <internalNodes>
            0 -1 561 -6.2999874353408813e-03</internalNodes>
          <leafValues>
            1.6337345540523529e-01 -1.1011996120214462e-01</leafValues></_>
        <_>
          <internalNodes>
            0 -1 647 -2.4163094349205494e-03</internalNodes>
          <leafValues>
            1.6294476389884949e-01 -1.1729040741920471e-01</leafValues></_>
        <_>
          <internalNodes>
            0 -1 486 -6.7617371678352356e-03</internalNodes>
          <leafValues>
            1.4933902025222778e-01 -1.1747796833515167e-01</leafValues></_>
        <_>
          <internalNodes>
            0 -1 463 1.2496896088123322e-03</internalNodes>
          <leafValues>
            6.8642035126686096e-02 -2.8585708141326904e-01</leafValues></_>
        <_>
          <internalNodes>
            0 -1 630 -1.3705559540539980e-03</internalNodes>
          <leafValues>
            1.7226560413837433e-01 -1.0413559526205063e-01</leafValues></_></weakClassifiers></_>
    <!-- stage 7 -->
    <_>
      <maxWeakCount>97</maxWeakCount>
      <stageThreshold>-1.2076719999313354e+00</stageThreshold>
      <weakClassifiers>
        <_>
          <internalNodes>
            0 -1 350 -9.6228588372468948e-03</internalNodes>
          <leafValues>
            4.8751643300056458e-01 -1.6569897532463074e-01</leafValues></_>
        <_>
          <internalNodes>
            0 -1 145 3.1342238187789917e-02</internalNodes>
          <leafValues>
            -1.6804352402687073e-01 3.6202886700630188e-01</leafValues></_>
        <_>
          <internalNodes>
            0 -1 226 4.7947615385055542e-02</internalNodes>
          <leafValues>
            -1.2953510880470276e-01 4.1577237844467163e-01</leafValues></_>
        <_>
          <internalNodes>
            0 -1 318 -6.6431775689125061e-02</internalNodes>
          <leafValues>
            6.6590154170989990e-01 -1.2330863624811172e-02</leafValues></_>
        <_>
          <internalNodes>
            0 -1 267 -9.5689624547958374e-02</internalNodes>
          <leafValues>
            4.4373542070388794e-01 -7.3132880032062531e-02</leafValues></_>
        <_>
          <internalNodes>
            0 -1 141 3.3964380621910095e-02</internalNodes>
          <leafValues>
            -1.1203642189502716e-01 3.1238207221031189e-01</leafValues></_>
        <_>
          <internalNodes>
            0 -1 669 -5.3879385814070702e-03</internalNodes>
          <leafValues>
            2.7054259181022644e-01 -1.0966971516609192e-01</leafValues></_>
        <_>
          <internalNodes>
            0 -1 326 9.4919360708445311e-04</internalNodes>
          <leafValues>
            7.8699916601181030e-02 -2.9828509688377380e-01</leafValues></_>
        <_>
          <internalNodes>
            0 -1 324 -1.1750948615372181e-03</internalNodes>
          <leafValues>
            -3.3674117922782898e-01 9.3146212399005890e-02</leafValues></_>
        <_>
          <internalNodes>
            0 -1 38 3.4189112484455109e-03</internalNodes>
          <leafValues>
            -1.0799586772918701e-01 2.4446503818035126e-01</leafValues></_>
        <_>
          <internalNodes>
            0 -1 501 -1.2428946793079376e-03</internalNodes>
          <leafValues>
            -3.5384765267372131e-01 7.0340275764465332e-02</leafValues></_>
        <_>
          <internalNodes>
            0 -1 501 4.6043939073570073e-04</internalNodes>
          <leafValues>
            9.9182590842247009e-02 -2.4864229559898376e-01</leafValues></_>
        <_>
          <internalNodes>
            0 -1 207 3.0856428202241659e-03</internalNodes>
          <leafValues>
            -1.0447341948747635e-01 2.1171353757381439e-01</leafValues></_>
        <_>
          <internalNodes>
            0 -1 76 1.1581545695662498e-02</internalNodes>
          <leafValues>
            -4.3382946401834488e-02 4.5254775881767273e-01</leafValues></_>
        <_>
          <internalNodes>
            0 -1 509 1.1786352843046188e-03</internalNodes>
          <leafValues>
            4.1429959237575531e-02 -5.3449964523315430e-01</leafValues></_>
        <_>
          <internalNodes>
            0 -1 390 1.7889952287077904e-02</internalNodes>
          <leafValues>
            -6.6631630063056946e-02 3.2644644379615784e-01</leafValues></_>
        <_>
          <internalNodes>
            0 -1 211 -1.2981215119361877e-01</internalNodes>
          <leafValues>
            -5.7573270797729492e-01 3.4850444644689560e-02</leafValues></_>
        <_>
          <internalNodes>
            0 -1 450 1.0125611443072557e-03</internalNodes>
          <leafValues>
            5.3155299276113510e-02 -3.1386399269104004e-01</leafValues></_>
        <_>
          <internalNodes>
            0 -1 312 6.3802967779338360e-03</internalNodes>
          <leafValues>
            -5.4942503571510315e-02 3.1806245446205139e-01</leafValues></_>
        <_>
          <internalNodes>
            0 -1 57 -8.6513586342334747e-02</internalNodes>
          <leafValues>
            -4.6946591138839722e-01 3.8835968822240829e-02</leafValues></_>
        <_>
          <internalNodes>
            0 -1 181 -4.9772314727306366e-02</internalNodes>
          <leafValues>
            2.1087402105331421e-01 -9.1513149440288544e-02</leafValues></_>
        <_>
          <internalNodes>
            0 -1 594 5.9093195945024490e-02</internalNodes>
          <leafValues>
            2.5704961270093918e-02 -7.3637038469314575e-01</leafValues></_>
        <_>
          <internalNodes>
            0 -1 667 7.6536822598427534e-04</internalNodes>
          <leafValues>
            -1.7496544122695923e-01 1.0749351233243942e-01</leafValues></_>
        <_>
          <internalNodes>
            0 -1 220 3.6519211716949940e-03</internalNodes>
          <leafValues>
            -1.3620524108409882e-01 1.3440488278865814e-01</leafValues></_>
        <_>
          <internalNodes>
            0 -1 214 -9.3789622187614441e-03</internalNodes>
          <leafValues>
            3.7536206841468811e-01 -5.2655063569545746e-02</leafValues></_>
        <_>
          <internalNodes>
            0 -1 462 -1.9442761549726129e-03</internalNodes>
          <leafValues>
            -2.8368431329727173e-01 6.5290071070194244e-02</leafValues></_>
        <_>
          <internalNodes>
            0 -1 459 4.1301818564534187e-03</internalNodes>
          <leafValues>
            5.1241070032119751e-02 -4.0299141407012939e-01</leafValues></_>
        <_>
          <internalNodes>
            0 -1 161 6.2311878427863121e-03</internalNodes>
          <leafValues>
            -6.7136272788047791e-02 3.2781690359115601e-01</leafValues></_>
        <_>
          <internalNodes>
            0 -1 343 4.7007375396788120e-03</internalNodes>
          <leafValues>
            9.5095001161098480e-02 -1.8482659757137299e-01</leafValues></_>
        <_>
          <internalNodes>
            0 -1 303 1.9361659884452820e-02</internalNodes>
          <leafValues>
            4.7431066632270813e-02 -3.4497451782226562e-01</leafValues></_>
        <_>
          <internalNodes>
            0 -1 297 5.8000072836875916e-02</internalNodes>
          <leafValues>
            6.5619289875030518e-02 -2.8169608116149902e-01</leafValues></_>
        <_>
          <internalNodes>
            0 -1 307 -1.6390915960073471e-02</internalNodes>
          <leafValues>
            -2.8862178325653076e-01 6.1530798673629761e-02</leafValues></_>
        <_>
          <internalNodes>
            0 -1 339 -3.5612451029010117e-05</internalNodes>
          <leafValues>
            1.4424327015876770e-01 -1.1710061877965927e-01</leafValues></_>
        <_>
          <internalNodes>
            0 -1 372 2.3808555677533150e-02</internalNodes>
          <leafValues>
            -7.7174365520477295e-02 2.2362750768661499e-01</leafValues></_>
        <_>
          <internalNodes>
            0 -1 550 1.1515332153066993e-03</internalNodes>
          <leafValues>
            3.3535357564687729e-02 -4.9808111786842346e-01</leafValues></_>
        <_>
          <internalNodes>
            0 -1 397 -4.1926233097910881e-03</internalNodes>
          <leafValues>
            1.8190908432006836e-01 -9.6319712698459625e-02</leafValues></_>
        <_>
          <internalNodes>
            0 -1 129 -7.3210354894399643e-03</internalNodes>
          <leafValues>
            6.8368917703628540e-01 -2.3999419063329697e-02</leafValues></_>
        <_>
          <internalNodes>
            0 -1 182 1.4822738012298942e-04</internalNodes>
          <leafValues>
            -8.9436225593090057e-02 1.9602657854557037e-01</leafValues></_>
        <_>
          <internalNodes>
            0 -1 545 -2.7395595679990947e-05</internalNodes>
          <leafValues>
            1.4373204112052917e-01 -1.1442154645919800e-01</leafValues></_>
        <_>
          <internalNodes>
            0 -1 408 4.0129553526639938e-03</internalNodes>
          <leafValues>
            3.4172289073467255e-02 -4.6012124419212341e-01</leafValues></_>
        <_>
          <internalNodes>
            0 -1 117 -4.2254533618688583e-03</internalNodes>
          <leafValues>
            2.3076140880584717e-01 -7.5840182602405548e-02</leafValues></_>
        <_>
          <internalNodes>
            0 -1 506 -9.2884828336536884e-04</internalNodes>
          <leafValues>
            -3.1386235356330872e-01 5.6718088686466217e-02</leafValues></_>
        <_>
          <internalNodes>
            0 -1 163 2.8237188234925270e-03</internalNodes>
          <leafValues>
            -4.4793009757995605e-02 3.5483300685882568e-01</leafValues></_>
        <_>
          <internalNodes>
            0 -1 157 9.8333787173032761e-04</internalNodes>
          <leafValues>
            6.1319679021835327e-02 -2.7109324932098389e-01</leafValues></_>
        <_>
          <internalNodes>
            0 -1 502 -2.0638173446059227e-03</internalNodes>
          <leafValues>
            1.4423047006130219e-01 -1.1652226001024246e-01</leafValues></_>
        <_>
          <internalNodes>
            0 -1 152 -9.0274818241596222e-02</internalNodes>
          <leafValues>
            -6.8977361917495728e-01 2.4173665791749954e-02</leafValues></_>
        <_>
          <internalNodes>
            0 -1 565 1.0560856026131660e-04</internalNodes>
          <leafValues>
            -1.1779554188251495e-01 1.4396989345550537e-01</leafValues></_>
        <_>
          <internalNodes>
            0 -1 285 1.7173431813716888e-02</internalNodes>
          <leafValues>
            2.9800519347190857e-02 -5.7460355758666992e-01</leafValues></_>
        <_>
          <internalNodes>
            0 -1 455 -2.5823630392551422e-02</internalNodes>
          <leafValues>
            2.9104530811309814e-01 -5.9819255024194717e-02</leafValues></_>
        <_>
          <internalNodes>
            0 -1 428 -1.7891846597194672e-02</internalNodes>
          <leafValues>
            5.8986014127731323e-01 -2.6841882616281509e-02</leafValues></_>
        <_>
          <internalNodes>
            0 -1 616 3.0651954148197547e-05</internalNodes>
          <leafValues>
            -1.2017787247896194e-01 1.3997785747051239e-01</leafValues></_>
        <_>
          <internalNodes>
            0 -1 586 -2.5778128765523434e-03</internalNodes>
          <leafValues>
            -3.2382261753082275e-01 4.8518273979425430e-02</leafValues></_>
        <_>
          <internalNodes>
            0 -1 616 -1.3900870726502035e-05</internalNodes>
          <leafValues>
            1.4859139919281006e-01 -1.0355313122272491e-01</leafValues></_>
        <_>
          <internalNodes>
            0 -1 418 4.9647735431790352e-03</internalNodes>
          <leafValues>
            -6.8382769823074341e-02 2.3296648263931274e-01</leafValues></_>
        <_>
          <internalNodes>
            0 -1 424 2.0378675311803818e-02</internalNodes>
          <leafValues>
            -3.8517907261848450e-02 4.2955499887466431e-01</leafValues></_>
        <_>
          <internalNodes>
            0 -1 573 -1.1568095535039902e-02</internalNodes>
          <leafValues>
            1.3625267148017883e-01 -1.2182568013668060e-01</leafValues></_>
        <_>
          <internalNodes>
            0 -1 118 -5.1573775708675385e-02</internalNodes>
          <leafValues>
            2.2609905898571014e-01 -7.8514501452445984e-02</leafValues></_>
        <_>
          <internalNodes>
            0 -1 126 -4.9672659952193499e-04</internalNodes>
          <leafValues>
            -1.5870130062103271e-01 1.1120259761810303e-01</leafValues></_>
        <_>
          <internalNodes>
            0 -1 232 1.0903754271566868e-02</internalNodes>
          <leafValues>
            2.6154894381761551e-02 -6.5612304210662842e-01</leafValues></_>
        <_>
          <internalNodes>
            0 -1 74 6.4392741769552231e-03</internalNodes>
          <leafValues>
            -6.0467950999736786e-02 2.8679823875427246e-01</leafValues></_>
        <_>
          <internalNodes>
            0 -1 315 6.1147607630118728e-04</internalNodes>
          <leafValues>
            7.5563572347164154e-02 -2.1578821539878845e-01</leafValues></_>
        <_>
          <internalNodes>
            0 -1 258 2.7495096437633038e-03</internalNodes>
          <leafValues>
            -7.0284523069858551e-02 2.6042887568473816e-01</leafValues></_>
        <_>
          <internalNodes>
            0 -1 491 4.4922521337866783e-03</internalNodes>
          <leafValues>
            2.3173434659838676e-02 -7.5351363420486450e-01</leafValues></_>
        <_>
          <internalNodes>
            0 -1 527 -5.1625403575599194e-03</internalNodes>
          <leafValues>
            4.8191606998443604e-01 -3.8732443004846573e-02</leafValues></_>
        <_>
          <internalNodes>
            0 -1 576 1.3528879499062896e-03</internalNodes>
          <leafValues>
            4.8507388681173325e-02 -3.6492544412612915e-01</leafValues></_>
        <_>
          <internalNodes>
            0 -1 668 1.5184185467660427e-03</internalNodes>
          <leafValues>
            -8.1625439226627350e-02 2.1268816292285919e-01</leafValues></_>
        <_>
          <internalNodes>
            0 -1 346 1.2910097211715765e-05</internalNodes>
          <leafValues>
            -1.1775395274162292e-01 1.3807098567485809e-01</leafValues></_>
        <_>
          <internalNodes>
            0 -1 578 3.3230651170015335e-03</internalNodes>
          <leafValues>
            -3.4853860735893250e-02 4.2277404665946960e-01</leafValues></_>
        <_>
          <internalNodes>
            0 -1 666 -2.6596330571919680e-03</internalNodes>
          <leafValues>
            -4.6575099229812622e-01 3.3541273325681686e-02</leafValues></_>
        <_>
          <internalNodes>
            0 -1 495 -1.4547147657140158e-05</internalNodes>
          <leafValues>
            1.3270622491836548e-01 -1.1394120007753372e-01</leafValues></_>
        <_>
          <internalNodes>
            0 -1 553 2.3455494083464146e-03</internalNodes>
          <leafValues>
            6.0800068080425262e-02 -2.5788465142250061e-01</leafValues></_>
        <_>
          <internalNodes>
            0 -1 563 -1.6629714518785477e-02</internalNodes>
          <leafValues>
            2.9025241732597351e-01 -5.3504504263401031e-02</leafValues></_>
        <_>
          <internalNodes>
            0 -1 498 -9.3258805572986603e-03</internalNodes>
          <leafValues>
            -4.3564319610595703e-01 4.2377542704343796e-02</leafValues></_>
        <_>
          <internalNodes>
            0 -1 538 1.1927305161952972e-01</internalNodes>
          <leafValues>
            1.6740199178457260e-02 -8.4056419134140015e-01</leafValues></_>
        <_>
          <internalNodes>
            0 -1 243 4.4267503544688225e-03</internalNodes>
          <leafValues>
            -7.6767355203628540e-02 2.1736945211887360e-01</leafValues></_>
        <_>
          <internalNodes>
            0 -1 279 7.4693962931632996e-02</internalNodes>
          <leafValues>
            4.2381174862384796e-02 -4.7399207949638367e-01</leafValues></_>
        <_>
          <internalNodes>
            0 -1 628 -2.7588749071583152e-04</internalNodes>
          <leafValues>
            -2.3052071034908295e-01 7.5032621622085571e-02</leafValues></_>
        <_>
          <internalNodes>
            0 -1 410 8.0308793112635612e-03</internalNodes>
          <leafValues>
            -4.8873353749513626e-02 3.8340806961059570e-01</leafValues></_>
        <_>
          <internalNodes>
            0 -1 580 -5.5774273350834846e-03</internalNodes>
          <leafValues>
            1.9793637096881866e-01 -8.2258798182010651e-02</leafValues></_>
        <_>
          <internalNodes>
            0 -1 635 -5.7501709088683128e-03</internalNodes>
          <leafValues>
            1.6212984919548035e-01 -1.0395497083663940e-01</leafValues></_>
        <_>
          <internalNodes>
            0 -1 133 -3.8307465612888336e-02</internalNodes>
          <leafValues>
            4.8414170742034912e-01 -3.5490702837705612e-02</leafValues></_>
        <_>
          <internalNodes>
            0 -1 323 -3.9025669684633613e-04</internalNodes>
