<?xml version="1.0"?>
<opencv_storage>
<stage2>
  <maxWeakCount>50</maxWeakCount>
  <stageThreshold>-1.5770837068557739e+00</stageThreshold>
  <weakClassifiers>
    <_>
      <internalNodes>
        0 -1 98628 -4.1429768316447735e-03</internalNodes>
      <leafValues>
        5.5992507934570312e-01 -3.0952382087707520e-01</leafValues></_>
    <_>
      <internalNodes>
        0 -1 53417 -4.8231683671474457e-02</internalNodes>
      <leafValues>
        5.8574354648590088e-01 -1.9158820807933807e-01</leafValues></_>
    <_>
      <internalNodes>
        0 -1 54858 4.9173776060342789e-02</internalNodes>
      <leafValues>
        -1.4063616096973419e-01 4.3644660711288452e-01</leafValues></_>
    <_>
      <internalNodes>
        0 -1 65962 -1.6758266836404800e-02</internalNodes>
      <leafValues>
        5.1792252063751221e-01 -1.4436757564544678e-01</leafValues></_>
    <_>
      <internalNodes>
        0 -1 62224 -8.6475778371095657e-03</internalNodes>
      <leafValues>
        5.2348852157592773e-01 -1.4907298982143402e-01</leafValues></_>
    <_>
      <internalNodes>
        0 -1 41483 1.3962004231871106e-05</internalNodes>
      <leafValues>
        -1.9255976378917694e-01 2.4733033776283264e-01</leafValues></_>
    <_>
      <internalNodes>
        0 -1 50283 -3.6440663039684296e-02</internalNodes>
      <leafValues>
        5.1022922992706299e-01 -8.2283370196819305e-02</leafValues></_>
    <_>
      <internalNodes>
        0 -1 61227 2.3844446986913681e-02</internalNodes>
      <leafValues>
        -1.3701507449150085e-01 4.0599986910820007e-01</leafValues></_>
    <_>
      <internalNodes>
        0 -1 4126 7.3431562632322311e-03</internalNodes>
      <leafValues>
        -8.8139131665229797e-02 4.3672206997871399e-01</leafValues></_>
    <_>
      <internalNodes>
        0 -1 151376 -1.3236506674729753e-05</internalNodes>
      <leafValues>
        2.1035991609096527e-01 -1.9446440041065216e-01</leafValues></_>
    <_>
      <internalNodes>
        0 -1 12923 -7.5164809823036194e-02</internalNodes>
      <leafValues>
        3.6200574040412903e-01 -9.9803403019905090e-02</leafValues></_>
    <_>
      <internalNodes>
        0 -1 148284 1.2620075140148401e-03</internalNodes>
      <leafValues>
        -1.2608620524406433e-01 3.0804792046546936e-01</leafValues></_>
    <_>
      <internalNodes>
        0 -1 148118 -1.3962004231871106e-05</internalNodes>
      <leafValues>
        2.2622990608215332e-01 -1.5680995583534241e-01</leafValues></_>
    <_>
      <internalNodes>
        0 -1 161465 1.4947731870051939e-05</internalNodes>
      <leafValues>
        -1.7254456877708435e-01 2.1909578144550323e-01</leafValues></_>
    <_>
      <internalNodes>
        0 -1 158475 5.8967648074030876e-03</internalNodes>
      <leafValues>
        -1.2690603733062744e-01 3.0579066276550293e-01</leafValues></_>
    <_>
      <internalNodes>
        0 -1 108585 1.3236506674729753e-05</internalNodes>
      <leafValues>
        -1.6989542543888092e-01 2.2551666200160980e-01</leafValues></_>
    <_>
      <internalNodes>
        0 -1 149074 -1.3665334321558475e-02</internalNodes>
      <leafValues>
        2.6744735240936279e-01 -1.3691414892673492e-01</leafValues></_>
    <_>
      <internalNodes>
        0 -1 80792 -3.2070968300104141e-03</internalNodes>
      <leafValues>
        -5.8472698926925659e-01 6.7796185612678528e-02</leafValues></_>
    <_>
      <internalNodes>
        0 -1 124261 1.6764128304203041e-05</internalNodes>
      <leafValues>
        -1.8655118346214294e-01 1.9334584474563599e-01</leafValues></_>
    <_>
      <internalNodes>
        0 -1 59199 -1.3195386528968811e-01</internalNodes>
      <leafValues>
        -6.9487053155899048e-01 5.5811472237110138e-02</leafValues></_>
    <_>
      <internalNodes>
        0 -1 75577 -1.1807916685938835e-02</internalNodes>
      <leafValues>
        6.4000952243804932e-01 -5.8218259364366531e-02</leafValues></_>
    <_>
      <internalNodes>
        0 -1 99339 -7.8071723692119122e-04</internalNodes>
      <leafValues>
        -2.9019123315811157e-01 1.1809986084699631e-01</leafValues></_>
    <_>
      <internalNodes>
        0 -1 65677 -9.7147198393940926e-03</internalNodes>
      <leafValues>
        2.9042237997055054e-01 -1.1226267367601395e-01</leafValues></_>
    <_>
      <internalNodes>
        0 -1 60404 -5.4409950971603394e-03</internalNodes>
      <leafValues>
        3.9524391293525696e-01 -7.9412035644054413e-02</leafValues></_>
    <_>
      <internalNodes>
        0 -1 147947 1.1886999709531665e-03</internalNodes>
      <leafValues>
        1.0386293381452560e-01 -3.3008810877799988e-01</leafValues></_>
    <_>
      <internalNodes>
        0 -1 81942 -2.5479886680841446e-02</internalNodes>
      <leafValues>
        6.4179515838623047e-01 -5.3870186209678650e-02</leafValues></_>
    <_>
      <internalNodes>
        0 -1 161333 -2.1158398885745555e-04</internalNodes>
      <leafValues>
        2.9601621627807617e-01 -1.0735967010259628e-01</leafValues></_>
    <_>
      <internalNodes>
        0 -1 157341 -3.1616200431017205e-05</internalNodes>
      <leafValues>
        1.6257877647876740e-01 -2.0007541775703430e-01</leafValues></_>
    <_>
      <internalNodes>
        0 -1 36249 1.2910097211715765e-05</internalNodes>
      <leafValues>
        -1.7694430053234100e-01 1.9372762739658356e-01</leafValues></_>
    <_>
      <internalNodes>
        0 -1 13311 -2.1535856649279594e-03</internalNodes>
      <leafValues>
        4.1168379783630371e-01 -8.1302583217620850e-02</leafValues></_>
    <_>
      <internalNodes>
        0 -1 120150 -3.9945915341377258e-03</internalNodes>
      <leafValues>
        -5.7477802038192749e-01 6.5093211829662323e-02</leafValues></_>
    <_>
      <internalNodes>
        0 -1 37628 -1.3150656741345301e-05</internalNodes>
      <leafValues>
        1.9742140173912048e-01 -1.6586273908615112e-01</leafValues></_>
    <_>
      <internalNodes>
        0 -1 98656 -1.3144751392246690e-05</internalNodes>
      <leafValues>
        2.1223102509975433e-01 -1.5766611695289612e-01</leafValues></_>
    <_>
      <internalNodes>
        0 -1 79915 -3.8807904347777367e-03</internalNodes>
      <leafValues>
        8.0675745010375977e-01 -3.1407680362462997e-02</leafValues></_>
    <_>
      <internalNodes>
        0 -1 113758 -1.3891837625124026e-05</internalNodes>
      <leafValues>
        2.2857435047626495e-01 -1.4126312732696533e-01</leafValues></_>
    <_>
      <internalNodes>
        0 -1 30588 4.6651419252157211e-03</internalNodes>
      <leafValues>
        -6.8387679755687714e-02 4.5893841981887817e-01</leafValues></_>
    <_>
      <internalNodes>
        0 -1 106457 3.0971765518188477e-03</internalNodes>
      <leafValues>
        6.0850020498037338e-02 -5.9093850851058960e-01</leafValues></_>
    <_>
      <internalNodes>
        0 -1 13341 -1.2188084423542023e-02</internalNodes>
      <leafValues>
        6.7118746042251587e-01 -5.4231196641921997e-02</leafValues></_>
    <_>
      <internalNodes>
        0 -1 121913 3.7670659366995096e-03</internalNodes>
      <leafValues>
        4.8554450273513794e-02 -7.4848407506942749e-01</leafValues></_>
    <_>
      <internalNodes>
        0 -1 99054 3.3724508248269558e-03</internalNodes>
      <leafValues>
        -9.3229681253433228e-02 3.5973241925239563e-01</leafValues></_>
    <_>
      <internalNodes>
        0 -1 123253 1.1104023084044456e-02</internalNodes>
      <leafValues>
        -1.4438340067863464e-01 2.1137461066246033e-01</leafValues></_>
    <_>
      <internalNodes>
        0 -1 142285 -4.1877562180161476e-03</internalNodes>
      <leafValues>
        2.1310976147651672e-01 -1.4127035439014435e-01</leafValues></_>
    <_>
      <internalNodes>
        0 -1 106099 1.3150656741345301e-05</internalNodes>
      <leafValues>
        -1.4915885031223297e-01 2.0581510663032532e-01</leafValues></_>
    <_>
      <internalNodes>
        0 -1 38072 -4.5762015506625175e-03</internalNodes>
      <leafValues>
        -4.1595554351806641e-01 7.5007580220699310e-02</leafValues></_>
    <_>
      <internalNodes>
        0 -1 162067 2.0590033382177353e-03</internalNodes>
      <leafValues>
        -6.7763783037662506e-02 4.7880989313125610e-01</leafValues></_>
    <_>
      <internalNodes>
        0 -1 138913 -5.8714714832603931e-03</internalNodes>
      <leafValues>
        -3.9042228460311890e-01 8.2915492355823517e-02</leafValues></_>
    <_>
      <internalNodes>
        0 -1 92518 1.5214161976473406e-05</internalNodes>
      <leafValues>
        -1.5641885995864868e-01 2.0788799226284027e-01</leafValues></_>
    <_>
      <internalNodes>
        0 -1 130690 -7.1788601577281952e-02</internalNodes>
      <leafValues>
        -6.5102928876876831e-01 5.4160133004188538e-02</leafValues></_>
    <_>
      <internalNodes>
        0 -1 91889 2.9496612114598975e-05</internalNodes>
      <leafValues>
        -1.7983995378017426e-01 1.8685214221477509e-01</leafValues></_>
    <_>
      <internalNodes>
        0 -1 78617 2.7618235908448696e-03</internalNodes>
      <leafValues>
        -1.3765415549278259e-01 2.4253997206687927e-01</leafValues></_></weakClassifiers></stage2>
</opencv_storage>
