<?xml version="1.0"?>
<opencv_storage>
<stage5>
  <maxWeakCount>94</maxWeakCount>
  <stageThreshold>-1.3608043193817139e+00</stageThreshold>
  <weakClassifiers>
    <_>
      <internalNodes>
        0 -1 98631 -2.5129504501819611e-03</internalNodes>
      <leafValues>
        3.2675871253013611e-01 -3.3603787422180176e-01</leafValues></_>
    <_>
      <internalNodes>
        0 -1 43645 5.8553863316774368e-02</internalNodes>
      <leafValues>
        -2.5266852974891663e-01 2.9335021972656250e-01</leafValues></_>
    <_>
      <internalNodes>
        0 -1 161506 -1.1233177036046982e-02</internalNodes>
      <leafValues>
        6.3023626804351807e-01 -1.1425668001174927e-01</leafValues></_>
    <_>
      <internalNodes>
        0 -1 50241 6.3337665051221848e-03</internalNodes>
      <leafValues>
        -1.3574779033660889e-01 3.2543495297431946e-01</leafValues></_>
    <_>
      <internalNodes>
        0 -1 4198 2.6633661240339279e-02</internalNodes>
      <leafValues>
        -7.5498282909393311e-02 4.0906888246536255e-01</leafValues></_>
    <_>
      <internalNodes>
        0 -1 142842 9.6533307805657387e-03</internalNodes>
      <leafValues>
        5.6840457022190094e-02 -4.1110533475875854e-01</leafValues></_>
    <_>
      <internalNodes>
        0 -1 67100 -1.0830914974212646e-01</internalNodes>
      <leafValues>
        -4.5369622111320496e-01 6.2899477779865265e-02</leafValues></_>
    <_>
      <internalNodes>
        0 -1 99844 3.2133340835571289e-02</internalNodes>
      <leafValues>
        -9.1951884329319000e-02 2.7880477905273438e-01</leafValues></_>
    <_>
      <internalNodes>
        0 -1 43596 2.3824112489819527e-02</internalNodes>
      <leafValues>
        -9.6413150429725647e-02 3.5268598794937134e-01</leafValues></_>
    <_>
      <internalNodes>
        0 -1 23054 -1.8288895487785339e-01</internalNodes>
      <leafValues>
        -7.3330491781234741e-01 4.2001694440841675e-02</leafValues></_>
    <_>
      <internalNodes>
        0 -1 6372 -7.6370604336261749e-02</internalNodes>
      <leafValues>
        -4.2877176403999329e-01 5.1845092326402664e-02</leafValues></_>
    <_>
      <internalNodes>
        0 -1 25374 -1.0136036574840546e-01</internalNodes>
      <leafValues>
        6.2452769279479980e-01 -3.3959273248910904e-02</leafValues></_>
    <_>
      <internalNodes>
        0 -1 99411 -2.8579209465533495e-03</internalNodes>
      <leafValues>
        -2.8891038894653320e-01 8.6484454572200775e-02</leafValues></_>
    <_>
      <internalNodes>
        0 -1 77664 2.2986680269241333e-03</internalNodes>
      <leafValues>
        -1.1337362229824066e-01 2.2167490422725677e-01</leafValues></_>
    <_>
      <internalNodes>
        0 -1 63148 7.9889103770256042e-02</internalNodes>
      <leafValues>
        6.7071117460727692e-02 -3.6374425888061523e-01</leafValues></_>
    <_>
      <internalNodes>
        0 -1 38908 -9.3811098486185074e-03</internalNodes>
      <leafValues>
        3.0141675472259521e-01 -8.1225752830505371e-02</leafValues></_>
    <_>
      <internalNodes>
        0 -1 128415 7.2320932522416115e-03</internalNodes>
      <leafValues>
        -1.3497672975063324e-01 2.4393233656883240e-01</leafValues></_>
    <_>
      <internalNodes>
        0 -1 161489 -7.1779685094952583e-03</internalNodes>
      <leafValues>
        -2.8358748555183411e-01 6.9370903074741364e-02</leafValues></_>
    <_>
      <internalNodes>
        0 -1 35409 -4.9310515169054270e-04</internalNodes>
      <leafValues>
        -2.7408164739608765e-01 7.8355878591537476e-02</leafValues></_>
    <_>
      <internalNodes>
        0 -1 11874 5.6956410408020020e-03</internalNodes>
      <leafValues>
        -8.2321844995021820e-02 2.6457688212394714e-01</leafValues></_>
    <_>
      <internalNodes>
        0 -1 133259 -2.4486191570758820e-02</internalNodes>
      <leafValues>
        -4.7403326630592346e-01 4.7069232910871506e-02</leafValues></_>
    <_>
      <internalNodes>
        0 -1 121154 -1.7175595276057720e-03</internalNodes>
      <leafValues>
        -4.0883621573448181e-01 4.5116014778614044e-02</leafValues></_>
    <_>
      <internalNodes>
        0 -1 148217 1.2874998152256012e-02</internalNodes>
      <leafValues>
        -6.2118209898471832e-02 3.8022962212562561e-01</leafValues></_>
    <_>
      <internalNodes>
        0 -1 130678 -2.3537117987871170e-02</internalNodes>
      <leafValues>
        3.0764836072921753e-01 -6.1485186219215393e-02</leafValues></_>
    <_>
      <internalNodes>
        0 -1 124643 7.7471487224102020e-02</internalNodes>
      <leafValues>
        8.8341988623142242e-02 -2.2942136228084564e-01</leafValues></_>
    <_>
      <internalNodes>
        0 -1 75584 1.1767097748816013e-02</internalNodes>
      <leafValues>
        -1.5935474634170532e-01 1.2873549759387970e-01</leafValues></_>
    <_>
      <internalNodes>
        0 -1 2182 5.2051888778805733e-03</internalNodes>
      <leafValues>
        -7.3151707649230957e-02 2.9336109757423401e-01</leafValues></_>
    <_>
      <internalNodes>
        0 -1 133768 1.2651858851313591e-03</internalNodes>
      <leafValues>
        6.5635763108730316e-02 -3.5690999031066895e-01</leafValues></_>
    <_>
      <internalNodes>
        0 -1 133773 -9.1387977590784431e-04</internalNodes>
      <leafValues>
        -3.2775238156318665e-01 8.9939109981060028e-02</leafValues></_>
    <_>
      <internalNodes>
        0 -1 144199 1.2446530163288116e-03</internalNodes>
      <leafValues>
        -9.1452084481716156e-02 2.4304465949535370e-01</leafValues></_>
    <_>
      <internalNodes>
        0 -1 93183 -1.5582611784338951e-02</internalNodes>
      <leafValues>
        4.7552430629730225e-01 -3.8816113024950027e-02</leafValues></_>
    <_>
      <internalNodes>
        0 -1 102933 2.4310373701155186e-03</internalNodes>
      <leafValues>
        -1.2828984856605530e-01 1.7564292252063751e-01</leafValues></_>
    <_>
      <internalNodes>
        0 -1 128618 3.2620370388031006e-02</internalNodes>
      <leafValues>
        6.7437641322612762e-02 -3.6003747582435608e-01</leafValues></_>
    <_>
      <internalNodes>
        0 -1 158741 1.3310028240084648e-02</internalNodes>
      <leafValues>
        -7.3613658547401428e-02 2.8603449463844299e-01</leafValues></_>
    <_>
      <internalNodes>
        0 -1 42912 2.3460774682462215e-03</internalNodes>
      <leafValues>
        -1.0500179976224899e-01 1.8827067315578461e-01</leafValues></_>
    <_>
      <internalNodes>
        0 -1 152763 -1.4936842024326324e-02</internalNodes>
      <leafValues>
        4.0693172812461853e-01 -4.3688949197530746e-02</leafValues></_>
    <_>
      <internalNodes>
        0 -1 88016 1.6572434687986970e-03</internalNodes>
      <leafValues>
        7.1443438529968262e-02 -2.7943372726440430e-01</leafValues></_>
    <_>
      <internalNodes>
        0 -1 86335 -1.3493043370544910e-03</internalNodes>
      <leafValues>
        1.5949180722236633e-01 -1.2772859632968903e-01</leafValues></_>
    <_>
      <internalNodes>
        0 -1 144255 -8.5091888904571533e-03</internalNodes>
      <leafValues>
        5.9420192241668701e-01 -3.0847478657960892e-02</leafValues></_>
    <_>
      <internalNodes>
        0 -1 6535 1.5194611623883247e-03</internalNodes>
      <leafValues>
        -1.6840410232543945e-01 1.2698358297348022e-01</leafValues></_>
    <_>
      <internalNodes>
        0 -1 99446 -1.5736941248178482e-02</internalNodes>
      <leafValues>
        3.9164182543754578e-01 -5.6120015680789948e-02</leafValues></_>
    <_>
      <internalNodes>
        0 -1 155305 -1.7720725387334824e-02</internalNodes>
      <leafValues>
        -7.8526127338409424e-01 3.0827572569251060e-02</leafValues></_>
    <_>
      <internalNodes>
        0 -1 127932 -5.9892807621508837e-04</internalNodes>
      <leafValues>
        -3.5117396712303162e-01 5.3835578262805939e-02</leafValues></_>
    <_>
      <internalNodes>
        0 -1 114346 -4.7093321336433291e-04</internalNodes>
      <leafValues>
        1.1671961843967438e-01 -1.6670244932174683e-01</leafValues></_>
    <_>
      <internalNodes>
        0 -1 70491 -7.6711000874638557e-03</internalNodes>
      <leafValues>
        1.5854556858539581e-01 -1.1733642220497131e-01</leafValues></_>
    <_>
      <internalNodes>
        0 -1 114167 -1.3938718475401402e-02</internalNodes>
      <leafValues>
        1.8758867681026459e-01 -1.1175137013196945e-01</leafValues></_>
    <_>
      <internalNodes>
        0 -1 10209 1.4036559732630849e-03</internalNodes>
      <leafValues>
        9.2077530920505524e-02 -2.2188606858253479e-01</leafValues></_>
    <_>
      <internalNodes>
        0 -1 13224 9.6540281083434820e-04</internalNodes>
      <leafValues>
        9.0777322649955750e-02 -2.0872320234775543e-01</leafValues></_>
    <_>
      <internalNodes>
        0 -1 640 7.2384043596684933e-04</internalNodes>
      <leafValues>
        -1.4519870281219482e-01 1.3270577788352966e-01</leafValues></_>
    <_>
      <internalNodes>
        0 -1 42118 1.1755804531276226e-02</internalNodes>
      <leafValues>
        -8.9311264455318451e-02 2.3410475254058838e-01</leafValues></_>
    <_>
      <internalNodes>
        0 -1 128040 4.2883865535259247e-04</internalNodes>
      <leafValues>
        6.6733404994010925e-02 -3.1570237874984741e-01</leafValues></_>
    <_>
      <internalNodes>
        0 -1 11025 6.4743859693408012e-03</internalNodes>
      <leafValues>
        -7.9151101410388947e-02 2.5374430418014526e-01</leafValues></_>
    <_>
      <internalNodes>
        0 -1 50471 -3.5928737372159958e-02</internalNodes>
      <leafValues>
        6.6178369522094727e-01 -2.9455751180648804e-02</leafValues></_>
    <_>
      <internalNodes>
        0 -1 60133 -5.5409903870895505e-04</internalNodes>
      <leafValues>
        2.0715925097465515e-01 -8.5276477038860321e-02</leafValues></_>
    <_>
      <internalNodes>
        0 -1 159093 -1.6750904032960534e-03</internalNodes>
      <leafValues>
        -2.8973844647407532e-01 6.5306954085826874e-02</leafValues></_>
    <_>
      <internalNodes>
        0 -1 91820 1.6716010868549347e-02</internalNodes>
      <leafValues>
        -8.6039878427982330e-02 2.2480851411819458e-01</leafValues></_>
    <_>
      <internalNodes>
        0 -1 42917 2.1208779886364937e-02</internalNodes>
      <leafValues>
        -1.0107744485139847e-01 1.9280324876308441e-01</leafValues></_>
    <_>
      <internalNodes>
        0 -1 145284 1.3430722057819366e-01</internalNodes>
      <leafValues>
        -4.2480248957872391e-02 4.7287553548812866e-01</leafValues></_>
    <_>
      <internalNodes>
        0 -1 123234 2.2455126047134399e-02</internalNodes>
      <leafValues>
        -2.6395294815301895e-02 7.3351538181304932e-01</leafValues></_>
    <_>
      <internalNodes>
        0 -1 35367 5.0346525385975838e-03</internalNodes>
      <leafValues>
        -8.0543905496597290e-02 2.3087263107299805e-01</leafValues></_>
    <_>
      <internalNodes>
        0 -1 159580 -8.1160236150026321e-03</internalNodes>
      <leafValues>
        4.0598401427268982e-01 -4.8135098069906235e-02</leafValues></_>
    <_>
      <internalNodes>
        0 -1 159495 -2.8283364372327924e-04</internalNodes>
      <leafValues>
        -2.2210080921649933e-01 9.7197070717811584e-02</leafValues></_>
    <_>
      <internalNodes>
        0 -1 66232 -6.0852216556668282e-03</internalNodes>
      <leafValues>
        3.2937878370285034e-01 -5.6795161217451096e-02</leafValues></_>
    <_>
      <internalNodes>
        0 -1 96218 2.2829480469226837e-02</internalNodes>
      <leafValues>
        4.1473548859357834e-02 -4.7723093628883362e-01</leafValues></_>
    <_>
      <internalNodes>
        0 -1 151557 -1.4154560631141067e-05</internalNodes>
      <leafValues>
        1.2522041797637939e-01 -1.4948247373104095e-01</leafValues></_>
    <_>
      <internalNodes>
        0 -1 160464 1.4123599976301193e-03</internalNodes>
      <leafValues>
        -6.0139786452054977e-02 3.0246588587760925e-01</leafValues></_>
    <_>
      <internalNodes>
        0 -1 144437 -4.5159216970205307e-03</internalNodes>
      <leafValues>
        -4.5004278421401978e-01 4.1351038962602615e-02</leafValues></_>
    <_>
      <internalNodes>
        0 -1 122922 -5.3764297626912594e-04</internalNodes>
      <leafValues>
        -2.2676932811737061e-01 8.0926299095153809e-02</leafValues></_>
    <_>
      <internalNodes>
        0 -1 8138 6.8636715877801180e-04</internalNodes>
      <leafValues>
        -6.7935571074485779e-02 2.9648301005363464e-01</leafValues></_>
    <_>
      <internalNodes>
        0 -1 61291 -1.0187798179686069e-03</internalNodes>
      <leafValues>
        -3.5361412167549133e-01 5.1793895661830902e-02</leafValues></_>
    <_>
      <internalNodes>
        0 -1 157696 -6.7651886492967606e-03</internalNodes>
      <leafValues>
        2.3847603797912598e-01 -8.2652546465396881e-02</leafValues></_>
    <_>
      <internalNodes>
        0 -1 11396 -4.5904023572802544e-03</internalNodes>
      <leafValues>
        -2.4920478463172913e-01 7.9431183636188507e-02</leafValues></_>
    <_>
      <internalNodes>
        0 -1 33723 8.9010745286941528e-02</internalNodes>
      <leafValues>
        4.9353629350662231e-02 -4.4659376144409180e-01</leafValues></_>
    <_>
      <internalNodes>
        0 -1 7189 1.7858469858765602e-02</internalNodes>
      <leafValues>
        -1.3841918110847473e-01 1.4529956877231598e-01</leafValues></_>
    <_>
      <internalNodes>
        0 -1 1188 -9.8415547981858253e-03</internalNodes>
      <leafValues>
        6.0346478223800659e-01 -3.2055921852588654e-02</leafValues></_>
    <_>
      <internalNodes>
        0 -1 16395 -3.4180772490799427e-04</internalNodes>
      <leafValues>
        -1.5989784896373749e-01 1.1731951683759689e-01</leafValues></_>
    <_>
      <internalNodes>
        0 -1 10574 2.2572348825633526e-03</internalNodes>
      <leafValues>
        -5.7778704911470413e-02 3.2764816284179688e-01</leafValues></_>
    <_>
      <internalNodes>
        0 -1 161607 -3.0787384603172541e-03</internalNodes>
      <leafValues>
        2.6061823964118958e-01 -7.0804759860038757e-02</leafValues></_>
    <_>
      <internalNodes>
        0 -1 161656 5.9111823793500662e-04</internalNodes>
      <leafValues>
        -1.1537688225507736e-01 1.6478179395198822e-01</leafValues></_>
    <_>
      <internalNodes>
        0 -1 151113 2.5401126593351364e-02</internalNodes>
      <leafValues>
        5.3501304239034653e-02 -3.2377877831459045e-01</leafValues></_>
    <_>
      <internalNodes>
        0 -1 159625 7.3030283674597740e-03</internalNodes>
      <leafValues>
        -6.1365399509668350e-02 2.9304736852645874e-01</leafValues></_>
    <_>
      <internalNodes>
        0 -1 49285 -1.4111420139670372e-02</internalNodes>
      <leafValues>
        -4.8109203577041626e-01 4.0872547775506973e-02</leafValues></_>
    <_>
      <internalNodes>
        0 -1 107207 -1.2857756018638611e-01</internalNodes>
      <leafValues>
        -7.1399039030075073e-01 2.2169252857565880e-02</leafValues></_>
    <_>
      <internalNodes>
        0 -1 6674 3.9893211796879768e-03</internalNodes>
      <leafValues>
        -4.2884539812803268e-02 4.4857600331306458e-01</leafValues></_>
    <_>
      <internalNodes>
        0 -1 153191 -7.8485114499926567e-03</internalNodes>
      <leafValues>
        -4.1710853576660156e-01 4.7551438212394714e-02</leafValues></_>
    <_>
      <internalNodes>
        0 -1 113893 3.8652103394269943e-03</internalNodes>
      <leafValues>
        -6.7159719765186310e-02 2.8378671407699585e-01</leafValues></_>
    <_>
      <internalNodes>
        0 -1 95903 -5.3010970354080200e-02</internalNodes>
      <leafValues>
        -5.9143447875976562e-01 3.0373938381671906e-02</leafValues></_>
    <_>
      <internalNodes>
        0 -1 161699 -1.7403988167643547e-03</internalNodes>
      <leafValues>
        3.5070037841796875e-01 -5.2243798971176147e-02</leafValues></_>
    <_>
      <internalNodes>
        0 -1 154558 3.7454576231539249e-03</internalNodes>
      <leafValues>
        5.4640844464302063e-02 -3.2130599021911621e-01</leafValues></_>
    <_>
      <internalNodes>
        0 -1 159797 2.3587713949382305e-03</internalNodes>
      <leafValues>
        -9.2828355729579926e-02 1.7828747630119324e-01</leafValues></_>
    <_>
      <internalNodes>
        0 -1 73778 -9.3149358872324228e-04</internalNodes>
      <leafValues>
        -4.4197046756744385e-01 4.0410134941339493e-02</leafValues></_>
    <_>
      <internalNodes>
        0 -1 71566 9.3158218078315258e-04</internalNodes>
      <leafValues>
        6.9719456136226654e-02 -2.2898067533969879e-01</leafValues></_>
    <_>
      <internalNodes>
        0 -1 39307 -6.9703459739685059e-03</internalNodes>
      <leafValues>
        3.7303051352500916e-01 -4.9281243234872818e-02</leafValues></_>
    <_>
      <internalNodes>
        0 -1 37703 8.0975660239346325e-05</internalNodes>
      <leafValues>
        1.0698758065700531e-01 -1.4995683729648590e-01</leafValues></_></weakClassifiers></stage5>
</opencv_storage>
