<?xml version="1.0"?>
<opencv_storage>
<stage9>
  <maxWeakCount>100</maxWeakCount>
  <stageThreshold>-1.0731751918792725e+00</stageThreshold>
  <weakClassifiers>
    <_>
      <internalNodes>
        0 -1 134905 -2.6916004717350006e-02</internalNodes>
      <leafValues>
        4.4350281357765198e-01 -1.3699825108051300e-01</leafValues></_>
    <_>
      <internalNodes>
        0 -1 49228 5.0287224352359772e-02</internalNodes>
      <leafValues>
        -1.0176923125982285e-01 3.8793203234672546e-01</leafValues></_>
    <_>
      <internalNodes>
        0 -1 31819 6.4874649047851562e-02</internalNodes>
      <leafValues>
        -1.4847278594970703e-01 2.3412965238094330e-01</leafValues></_>
    <_>
      <internalNodes>
        0 -1 13210 -8.6953733116388321e-03</internalNodes>
      <leafValues>
        2.5648289918899536e-01 -1.0425651818513870e-01</leafValues></_>
    <_>
      <internalNodes>
        0 -1 1252 2.7428861707448959e-02</internalNodes>
      <leafValues>
        -9.6655957400798798e-02 3.0171045660972595e-01</leafValues></_>
    <_>
      <internalNodes>
        0 -1 153080 4.0206469595432281e-02</internalNodes>
      <leafValues>
        -9.2090979218482971e-02 3.2138976454734802e-01</leafValues></_>
    <_>
      <internalNodes>
        0 -1 144003 -2.4765078705968335e-05</internalNodes>
      <leafValues>
        1.2264984846115112e-01 -1.8908730149269104e-01</leafValues></_>
    <_>
      <internalNodes>
        0 -1 72225 -8.0442279577255249e-02</internalNodes>
      <leafValues>
        5.5857890844345093e-01 -2.7280997484922409e-02</leafValues></_>
    <_>
      <internalNodes>
        0 -1 139574 6.7526437342166901e-03</internalNodes>
      <leafValues>
        -6.6099494695663452e-02 2.7020251750946045e-01</leafValues></_>
    <_>
      <internalNodes>
        0 -1 70364 -2.2565972059965134e-02</internalNodes>
      <leafValues>
        2.2894366085529327e-01 -1.2116492539644241e-01</leafValues></_>
    <_>
      <internalNodes>
        0 -1 62759 -1.4789956808090210e-01</internalNodes>
      <leafValues>
        3.7979009747505188e-01 -6.7454330623149872e-02</leafValues></_>
    <_>
      <internalNodes>
        0 -1 38851 -2.3347834125161171e-02</internalNodes>
      <leafValues>
        2.5392001867294312e-01 -8.5343308746814728e-02</leafValues></_>
    <_>
      <internalNodes>
        0 -1 142529 1.3086782768368721e-02</internalNodes>
      <leafValues>
        -7.7486053109169006e-02 2.2472634911537170e-01</leafValues></_>
    <_>
      <internalNodes>
        0 -1 7557 -3.5412926226854324e-02</internalNodes>
      <leafValues>
        3.6946141719818115e-01 -6.6607572138309479e-02</leafValues></_>
    <_>
      <internalNodes>
        0 -1 140011 1.5558945015072823e-03</internalNodes>
      <leafValues>
        6.0144174844026566e-02 -3.7996348738670349e-01</leafValues></_>
    <_>
      <internalNodes>
        0 -1 34835 4.2285579256713390e-03</internalNodes>
      <leafValues>
        -1.0247916728258133e-01 1.8593028187751770e-01</leafValues></_>
    <_>
      <internalNodes>
        0 -1 37878 1.7931859940290451e-02</internalNodes>
      <leafValues>
        3.5690624266862869e-02 -5.7070696353912354e-01</leafValues></_>
    <_>
      <internalNodes>
        0 -1 42857 7.9648442566394806e-02</internalNodes>
      <leafValues>
        -5.6092634797096252e-02 3.7995836138725281e-01</leafValues></_>
    <_>
      <internalNodes>
        0 -1 14125 9.8629333078861237e-03</internalNodes>
      <leafValues>
        -9.7237884998321533e-02 2.0620605349540710e-01</leafValues></_>
    <_>
      <internalNodes>
        0 -1 65682 -1.7665574327111244e-02</internalNodes>
      <leafValues>
        2.5028762221336365e-01 -7.7295780181884766e-02</leafValues></_>
    <_>
      <internalNodes>
        0 -1 43898 7.5033204630017281e-03</internalNodes>
      <leafValues>
        -1.2177446484565735e-01 1.6319851577281952e-01</leafValues></_>
    <_>
      <internalNodes>
        0 -1 10171 -2.0931246690452099e-03</internalNodes>
      <leafValues>
        -2.8520399332046509e-01 7.0322908461093903e-02</leafValues></_>
    <_>
      <internalNodes>
        0 -1 10131 1.8100440502166748e-03</internalNodes>
      <leafValues>
        6.9895312190055847e-02 -2.5998359918594360e-01</leafValues></_>
    <_>
      <internalNodes>
        0 -1 144019 -3.6150813102722168e-03</internalNodes>
      <leafValues>
        1.8068961799144745e-01 -9.2332191765308380e-02</leafValues></_>
    <_>
      <internalNodes>
        0 -1 110042 4.9810428172349930e-03</internalNodes>
      <leafValues>
        -7.4028335511684418e-02 2.4890086054801941e-01</leafValues></_>
    <_>
      <internalNodes>
        0 -1 106574 1.6504290979355574e-03</internalNodes>
      <leafValues>
        4.7902077436447144e-02 -3.5799533128738403e-01</leafValues></_>
    <_>
      <internalNodes>
        0 -1 80320 -3.1431758543476462e-05</internalNodes>
      <leafValues>
        1.2489585578441620e-01 -1.3404451310634613e-01</leafValues></_>
    <_>
      <internalNodes>
        0 -1 37552 -7.7763097360730171e-03</internalNodes>
      <leafValues>
        -4.8352578282356262e-01 4.0200501680374146e-02</leafValues></_>
    <_>
      <internalNodes>
        0 -1 102623 -1.5681196004152298e-02</internalNodes>
      <leafValues>
        -2.2617761790752411e-01 7.2559393942356110e-02</leafValues></_>
    <_>
      <internalNodes>
        0 -1 117787 1.8924338510259986e-03</internalNodes>
      <leafValues>
        -8.8070929050445557e-02 2.0185019075870514e-01</leafValues></_>
    <_>
      <internalNodes>
        0 -1 635 -1.7053826153278351e-01</internalNodes>
      <leafValues>
        2.5049543380737305e-01 -6.7405894398689270e-02</leafValues></_>
    <_>
      <internalNodes>
        0 -1 37825 3.9936304092407227e-03</internalNodes>
      <leafValues>
        -1.0574455559253693e-01 1.8295888602733612e-01</leafValues></_>
    <_>
      <internalNodes>
        0 -1 22055 -2.1502284333109856e-02</internalNodes>
      <leafValues>
        3.1920301914215088e-01 -5.7044055312871933e-02</leafValues></_>
    <_>
      <internalNodes>
        0 -1 98664 2.0509446039795876e-03</internalNodes>
      <leafValues>
        4.1249211877584457e-02 -4.4376248121261597e-01</leafValues></_>
    <_>
      <internalNodes>
        0 -1 15805 1.0829322040081024e-02</internalNodes>
      <leafValues>
        -9.6314623951911926e-02 1.9556581974029541e-01</leafValues></_>
    <_>
      <internalNodes>
        0 -1 159617 9.0328289661556482e-04</internalNodes>
      <leafValues>
        6.3413478434085846e-02 -2.4104809761047363e-01</leafValues></_>
    <_>
      <internalNodes>
        0 -1 127637 -8.1121327821165323e-04</internalNodes>
      <leafValues>
        1.7468020319938660e-01 -9.3812815845012665e-02</leafValues></_>
    <_>
      <internalNodes>
        0 -1 37925 -7.5277034193277359e-03</internalNodes>
      <leafValues>
        1.9591611623764038e-01 -8.9928053319454193e-02</leafValues></_>
    <_>
      <internalNodes>
        0 -1 57554 8.8468015193939209e-02</internalNodes>
      <leafValues>
        3.4929376095533371e-02 -5.6238538026809692e-01</leafValues></_>
    <_>
      <internalNodes>
        0 -1 104781 -4.7172731719911098e-03</internalNodes>
      <leafValues>
        -3.4755641222000122e-01 4.1383150964975357e-02</leafValues></_>
    <_>
      <internalNodes>
        0 -1 7528 8.4721930325031281e-03</internalNodes>
      <leafValues>
        -7.5806185603141785e-02 2.4040059745311737e-01</leafValues></_>
    <_>
      <internalNodes>
        0 -1 8993 -9.5507578225806355e-04</internalNodes>
      <leafValues>
        -2.2481094300746918e-01 7.1155644953250885e-02</leafValues></_>
    <_>
      <internalNodes>
        0 -1 50420 -6.2218327075242996e-03</internalNodes>
      <leafValues>
        2.2616726160049438e-01 -7.6607003808021545e-02</leafValues></_>
    <_>
      <internalNodes>
        0 -1 18324 4.3629357242025435e-04</internalNodes>
      <leafValues>
        -1.3297474384307861e-01 1.5997080504894257e-01</leafValues></_>
    <_>
      <internalNodes>
        0 -1 30323 -1.0128634050488472e-02</internalNodes>
      <leafValues>
        1.4998538792133331e-01 -1.3772752881050110e-01</leafValues></_>
    <_>
      <internalNodes>
        0 -1 156267 1.3150656741345301e-05</internalNodes>
      <leafValues>
        -1.2711195647716522e-01 1.3998819887638092e-01</leafValues></_>
    <_>
      <internalNodes>
        0 -1 160124 3.5422001965343952e-03</internalNodes>
      <leafValues>
        -7.4774391949176788e-02 2.1375197172164917e-01</leafValues></_>
    <_>
      <internalNodes>
        0 -1 122263 -1.3909040018916130e-02</internalNodes>
      <leafValues>
        1.9089950621128082e-01 -8.4006972610950470e-02</leafValues></_>
    <_>
      <internalNodes>
        0 -1 151918 -4.7271172516047955e-03</internalNodes>
      <leafValues>
        -3.7133082747459412e-01 5.0741069018840790e-02</leafValues></_>
    <_>
      <internalNodes>
        0 -1 67103 5.9101665392518044e-03</internalNodes>
      <leafValues>
        -8.6279541254043579e-02 1.9087673723697662e-01</leafValues></_>
    <_>
      <internalNodes>
        0 -1 93685 1.0811264626681805e-02</internalNodes>
      <leafValues>
        5.1003437489271164e-02 -3.5808837413787842e-01</leafValues></_>
    <_>
      <internalNodes>
        0 -1 133280 1.6391717363148928e-03</internalNodes>
      <leafValues>
        5.3839262574911118e-02 -2.8925222158432007e-01</leafValues></_>
    <_>
      <internalNodes>
        0 -1 86002 -2.1331798285245895e-02</internalNodes>
      <leafValues>
        2.8238096833229065e-01 -5.5244550108909607e-02</leafValues></_>
    <_>
      <internalNodes>
        0 -1 86360 -5.7547334581613541e-03</internalNodes>
      <leafValues>
        1.6895814239978790e-01 -8.7530538439750671e-02</leafValues></_>
    <_>
      <internalNodes>
        0 -1 42558 3.8716726005077362e-02</internalNodes>
      <leafValues>
        -9.6270911395549774e-02 1.8982388079166412e-01</leafValues></_>
    <_>
      <internalNodes>
        0 -1 119128 -6.9427333772182465e-02</internalNodes>
      <leafValues>
        -6.8226462602615356e-01 2.1466020494699478e-02</leafValues></_>
    <_>
      <internalNodes>
        0 -1 71551 1.6032538842409849e-03</internalNodes>
      <leafValues>
        3.2942771911621094e-02 -4.0030795335769653e-01</leafValues></_>
    <_>
      <internalNodes>
        0 -1 71201 -3.7276463117450476e-03</internalNodes>
      <leafValues>
        1.5824384987354279e-01 -9.7857587039470673e-02</leafValues></_>
    <_>
      <internalNodes>
        0 -1 82129 1.1471691541373730e-03</internalNodes>
      <leafValues>
        -1.1134073883295059e-01 1.4123100042343140e-01</leafValues></_>
    <_>
      <internalNodes>
        0 -1 21546 4.8174079507589340e-02</internalNodes>
      <leafValues>
        1.3176761567592621e-02 -1.</leafValues></_>
    <_>
      <internalNodes>
        0 -1 149477 4.0345139801502228e-02</internalNodes>
      <leafValues>
        2.1763052791357040e-02 -5.9809821844100952e-01</leafValues></_>
    <_>
      <internalNodes>
        0 -1 161985 -7.9941973090171814e-03</internalNodes>
      <leafValues>
        6.3031077384948730e-01 -2.7241360396146774e-02</leafValues></_>
    <_>
      <internalNodes>
        0 -1 91947 -1.2041155248880386e-02</internalNodes>
      <leafValues>
        -6.9225960969924927e-01 2.3342341184616089e-02</leafValues></_>
    <_>
      <internalNodes>
        0 -1 157643 1.4284194447100163e-02</internalNodes>
      <leafValues>
        1.9215106964111328e-02 -6.2942880392074585e-01</leafValues></_>
    <_>
      <internalNodes>
        0 -1 142933 -1.0131975635886192e-02</internalNodes>
      <leafValues>
        1.8660314381122589e-01 -8.4926217794418335e-02</leafValues></_>
    <_>
      <internalNodes>
        0 -1 158492 -3.4868732094764709e-02</internalNodes>
      <leafValues>
        3.8882425427436829e-01 -4.0871970355510712e-02</leafValues></_>
    <_>
      <internalNodes>
        0 -1 161484 -1.5637118369340897e-02</internalNodes>
      <leafValues>
        -8.7491387128829956e-01 1.7070285975933075e-02</leafValues></_>
    <_>
      <internalNodes>
        0 -1 88434 9.1348461806774139e-02</internalNodes>
      <leafValues>
        2.6258502155542374e-02 -5.0893819332122803e-01</leafValues></_>
    <_>
      <internalNodes>
        0 -1 24903 1.3775893021374941e-03</internalNodes>
      <leafValues>
        -1.1209751665592194e-01 1.5849053859710693e-01</leafValues></_>
    <_>
      <internalNodes>
        0 -1 52057 -2.1115862764418125e-03</internalNodes>
      <leafValues>
        -3.6169523000717163e-01 4.1793826967477798e-02</leafValues></_>
    <_>
      <internalNodes>
        0 -1 4998 -4.1804034262895584e-03</internalNodes>
      <leafValues>
        4.4197404384613037e-01 -4.1078463196754456e-02</leafValues></_>
    <_>
      <internalNodes>
        0 -1 4233 5.7176515460014343e-02</internalNodes>
      <leafValues>
        2.8546001762151718e-02 -5.7383024692535400e-01</leafValues></_>
    <_>
      <internalNodes>
        0 -1 88797 2.6921951211988926e-03</internalNodes>
      <leafValues>
        -9.1367609798908234e-02 1.7415617406368256e-01</leafValues></_>
    <_>
      <internalNodes>
        0 -1 161008 1.6374937258660793e-03</internalNodes>
      <leafValues>
        5.6875716894865036e-02 -3.6438855528831482e-01</leafValues></_>
    <_>
      <internalNodes>
        0 -1 7475 -3.7127882242202759e-03</internalNodes>
      <leafValues>
        2.1481202542781830e-01 -7.9324476420879364e-02</leafValues></_>
    <_>
      <internalNodes>
        0 -1 92521 3.5629235208034515e-03</internalNodes>
      <leafValues>
        2.0794991403818130e-02 -7.6362085342407227e-01</leafValues></_>
    <_>
      <internalNodes>
        0 -1 36565 -1.1377021670341492e-02</internalNodes>
      <leafValues>
        3.3732202649116516e-01 -5.0546940416097641e-02</leafValues></_>
    <_>
      <internalNodes>
        0 -1 113324 -6.3071474432945251e-02</internalNodes>
      <leafValues>
        -5.9283220767974854e-01 2.9126279056072235e-02</leafValues></_>
    <_>
      <internalNodes>
        0 -1 34429 -7.3291832813993096e-04</internalNodes>
      <leafValues>
        -2.2864423692226410e-01 6.4687132835388184e-02</leafValues></_>
    <_>
      <internalNodes>
        0 -1 34385 -2.5827263016253710e-05</internalNodes>
      <leafValues>
        1.5467464923858643e-01 -1.1724512279033661e-01</leafValues></_>
    <_>
      <internalNodes>
        0 -1 159509 -3.9049377664923668e-03</internalNodes>
      <leafValues>
        3.7955886125564575e-01 -4.3205592781305313e-02</leafValues></_>
    <_>
      <internalNodes>
        0 -1 113935 -9.8245462868362665e-04</internalNodes>
      <leafValues>
        -2.2244447469711304e-01 7.4976794421672821e-02</leafValues></_>
    <_>
      <internalNodes>
        0 -1 157499 -5.3093775932211429e-05</internalNodes>
      <leafValues>
        1.1897606402635574e-01 -1.2355992197990417e-01</leafValues></_>
    <_>
      <internalNodes>
        0 -1 90794 -1.2522147735580802e-03</internalNodes>
      <leafValues>
        1.3671208918094635e-01 -1.0334321111440659e-01</leafValues></_>
    <_>
      <internalNodes>
        0 -1 140844 -3.5124886780977249e-02</internalNodes>
      <leafValues>
        3.6319893598556519e-01 -3.7197284400463104e-02</leafValues></_>
    <_>
      <internalNodes>
        0 -1 23184 1.3236506674729753e-05</internalNodes>
      <leafValues>
        -1.1599083989858627e-01 1.2503984570503235e-01</leafValues></_>
    <_>
      <internalNodes>
        0 -1 86989 4.5881718397140503e-03</internalNodes>
      <leafValues>
        5.1207270473241806e-02 -2.6051065325737000e-01</leafValues></_>
    <_>
      <internalNodes>
        0 -1 12525 -5.1169686019420624e-02</internalNodes>
      <leafValues>
        -5.6160467863082886e-01 2.7536654844880104e-02</leafValues></_>
    <_>
      <internalNodes>
        0 -1 83691 2.2350663319230080e-02</internalNodes>
      <leafValues>
        -6.1353418976068497e-02 2.5559839606285095e-01</leafValues></_>
    <_>
      <internalNodes>
        0 -1 25445 -2.5980847567552701e-05</internalNodes>
      <leafValues>
        1.2560486793518066e-01 -1.1441515386104584e-01</leafValues></_>
    <_>
      <internalNodes>
        0 -1 84846 -3.8347113877534866e-03</internalNodes>
      <leafValues>
        1.4525808393955231e-01 -9.1264434158802032e-02</leafValues></_>
    <_>
      <internalNodes>
        0 -1 90554 5.1817588973790407e-04</internalNodes>
      <leafValues>
        5.1271986216306686e-02 -2.7743196487426758e-01</leafValues></_>
    <_>
      <internalNodes>
        0 -1 3117 -8.4877565503120422e-02</internalNodes>
      <leafValues>
        3.7249994277954102e-01 -3.7635181099176407e-02</leafValues></_>
    <_>
      <internalNodes>
        0 -1 62925 1.4322819188237190e-02</internalNodes>
      <leafValues>
        -2.5969369336962700e-02 5.8192235231399536e-01</leafValues></_>
    <_>
      <internalNodes>
        0 -1 145034 -4.0839680877979845e-05</internalNodes>
      <leafValues>
        1.3348758220672607e-01 -1.0182211548089981e-01</leafValues></_>
    <_>
      <internalNodes>
        0 -1 17818 1.9342899322509766e-01</internalNodes>
      <leafValues>
        -7.4062660336494446e-02 1.9232845306396484e-01</leafValues></_>
    <_>
      <internalNodes>
        0 -1 43969 1.4549818634986877e-01</internalNodes>
      <leafValues>
        3.0926115810871124e-02 -5.3471881151199341e-01</leafValues></_>
    <_>
      <internalNodes>
        0 -1 111645 3.1369522213935852e-02</internalNodes>
      <leafValues>
        5.6851703673601151e-02 -2.5296089053153992e-01</leafValues></_>
    <_>
      <internalNodes>
        0 -1 122555 5.4166223853826523e-03</internalNodes>
      <leafValues>
        2.3086899891495705e-02 -5.6837356090545654e-01</leafValues></_>
    <_>
      <internalNodes>
        0 -1 135963 1.3485867530107498e-02</internalNodes>
      <leafValues>
        -8.5419647395610809e-02 1.6587647795677185e-01</leafValues></_></weakClassifiers></stage9>
</opencv_storage>
