<?xml version="1.0"?>
<opencv_storage>
<stage28>
  <maxWeakCount>100</maxWeakCount>
  <stageThreshold>-8.8191545009613037e-01</stageThreshold>
  <weakClassifiers>
    <_>
      <internalNodes>
        0 -1 58594 1.5806104987859726e-02</internalNodes>
      <leafValues>
        -8.0734729766845703e-02 2.8679817914962769e-01</leafValues></_>
    <_>
      <internalNodes>
        0 -1 150946 -4.0434085531160235e-04</internalNodes>
      <leafValues>
        1.0069281607866287e-01 -2.1968652307987213e-01</leafValues></_>
    <_>
      <internalNodes>
        0 -1 148483 2.7938159182667732e-02</internalNodes>
      <leafValues>
        -6.8833738565444946e-02 2.5391829013824463e-01</leafValues></_>
    <_>
      <internalNodes>
        0 -1 138787 -4.1563310660421848e-03</internalNodes>
      <leafValues>
        3.9458033442497253e-01 -5.2995130419731140e-02</leafValues></_>
    <_>
      <internalNodes>
        0 -1 45330 -9.2298477888107300e-02</internalNodes>
      <leafValues>
        -4.5264005661010742e-01 2.1573908627033234e-02</leafValues></_>
    <_>
      <internalNodes>
        0 -1 26862 -1.5502664260566235e-02</internalNodes>
      <leafValues>
        -8.3752954006195068e-01 3.1546581536531448e-02</leafValues></_>
    <_>
      <internalNodes>
        0 -1 82962 -1.3983941636979580e-02</internalNodes>
      <leafValues>
        -6.8141537904739380e-01 2.2872118279337883e-02</leafValues></_>
    <_>
      <internalNodes>
        0 -1 6695 3.6017103120684624e-03</internalNodes>
      <leafValues>
        -7.1527734398841858e-02 1.7723162472248077e-01</leafValues></_>
    <_>
      <internalNodes>
        0 -1 93574 -8.1723056733608246e-02</internalNodes>
      <leafValues>
        -4.2359000444412231e-01 2.3101881146430969e-02</leafValues></_>
    <_>
      <internalNodes>
        0 -1 54210 1.4638370275497437e-01</internalNodes>
      <leafValues>
        -2.3329969495534897e-02 4.7468557953834534e-01</leafValues></_>
    <_>
      <internalNodes>
        0 -1 81226 3.2243050634860992e-02</internalNodes>
      <leafValues>
        -8.5774265229701996e-02 1.5433059632778168e-01</leafValues></_>
    <_>
      <internalNodes>
        0 -1 50280 -8.2998145371675491e-03</internalNodes>
      <leafValues>
        2.3010307550430298e-01 -5.7891447097063065e-02</leafValues></_>
    <_>
      <internalNodes>
        0 -1 151862 1.4637667918577790e-03</internalNodes>
      <leafValues>
        -1.6953706741333008e-02 4.0198877453804016e-01</leafValues></_>
    <_>
      <internalNodes>
        0 -1 161008 1.3607073342427611e-03</internalNodes>
      <leafValues>
        5.1223512738943100e-02 -2.5055712461471558e-01</leafValues></_>
    <_>
      <internalNodes>
        0 -1 151171 -1.5307662077248096e-02</internalNodes>
      <leafValues>
        -5.2121943235397339e-01 2.0613413304090500e-02</leafValues></_>
    <_>
      <internalNodes>
        0 -1 5058 2.1754533052444458e-02</internalNodes>
      <leafValues>
        1.9988274201750755e-02 -5.0793087482452393e-01</leafValues></_>
    <_>
      <internalNodes>
        0 -1 26365 3.5552608314901590e-03</internalNodes>
      <leafValues>
        -8.3233520388603210e-02 1.5664918720722198e-01</leafValues></_>
    <_>
      <internalNodes>
        0 -1 683 7.2780787944793701e-02</internalNodes>
      <leafValues>
        6.2552690505981445e-02 -2.0246066153049469e-01</leafValues></_>
    <_>
      <internalNodes>
        0 -1 196 9.9049031734466553e-02</internalNodes>
      <leafValues>
        2.5887502357363701e-02 -5.0772881507873535e-01</leafValues></_>
    <_>
      <internalNodes>
        0 -1 28267 1.9825015217065811e-02</internalNodes>
      <leafValues>
        -1.0070144385099411e-01 1.3795277476310730e-01</leafValues></_>
    <_>
      <internalNodes>
        0 -1 161922 -3.5255274269729853e-03</internalNodes>
      <leafValues>
        2.7826616168022156e-01 -3.8176823407411575e-02</leafValues></_>
    <_>
      <internalNodes>
        0 -1 9989 3.4350198693573475e-03</internalNodes>
      <leafValues>
        -1.1055635660886765e-01 1.1151175945997238e-01</leafValues></_>
    <_>
      <internalNodes>
        0 -1 111787 -1.1808141134679317e-03</internalNodes>
      <leafValues>
        1.7361633479595184e-01 -7.5938954949378967e-02</leafValues></_>
    <_>
      <internalNodes>
        0 -1 134778 6.6016818163916469e-04</internalNodes>
      <leafValues>
        8.6741372942924500e-02 -1.4373996853828430e-01</leafValues></_>
    <_>
      <internalNodes>
        0 -1 48152 -1.3709952123463154e-02</internalNodes>
      <leafValues>
        2.9774707555770874e-01 -4.3150123208761215e-02</leafValues></_>
    <_>
      <internalNodes>
        0 -1 24392 8.2303062081336975e-03</internalNodes>
      <leafValues>
        -6.8135432898998260e-02 2.2140027582645416e-01</leafValues></_>
    <_>
      <internalNodes>
        0 -1 47842 5.1039364188909531e-04</internalNodes>
      <leafValues>
        6.5127886831760406e-02 -2.3000471293926239e-01</leafValues></_>
    <_>
      <internalNodes>
        0 -1 12898 1.3856429606676102e-02</internalNodes>
      <leafValues>
        1.7583603039383888e-02 -6.6926908493041992e-01</leafValues></_>
    <_>
      <internalNodes>
        0 -1 120649 1.1509969830513000e-02</internalNodes>
      <leafValues>
        4.5638050884008408e-02 -3.0209439992904663e-01</leafValues></_>
    <_>
      <internalNodes>
        0 -1 126546 6.8781001027673483e-04</internalNodes>
      <leafValues>
        1.0159868746995926e-01 -1.3882654905319214e-01</leafValues></_>
    <_>
      <internalNodes>
        0 -1 50726 8.8353991508483887e-02</internalNodes>
      <leafValues>
        -3.6294694989919662e-02 3.8920450210571289e-01</leafValues></_>
    <_>
      <internalNodes>
        0 -1 47245 1.1832592636346817e-01</internalNodes>
      <leafValues>
        2.9005710035562515e-02 -5.3186941146850586e-01</leafValues></_>
    <_>
      <internalNodes>
        0 -1 127648 -5.8735017664730549e-03</internalNodes>
      <leafValues>
        4.1699722409248352e-01 -3.2897684723138809e-02</leafValues></_>
    <_>
      <internalNodes>
        0 -1 151036 -1.6649816185235977e-02</internalNodes>
      <leafValues>
        -3.2998374104499817e-01 4.0269821882247925e-02</leafValues></_>
    <_>
      <internalNodes>
        0 -1 158646 1.4267663937062025e-03</internalNodes>
      <leafValues>
        7.5752653181552887e-02 -1.4885361492633820e-01</leafValues></_>
    <_>
      <internalNodes>
        0 -1 46081 1.0349913500249386e-03</internalNodes>
      <leafValues>
        4.2488325387239456e-02 -3.0458849668502808e-01</leafValues></_>
    <_>
      <internalNodes>
        0 -1 46599 -1.0161895770579576e-03</internalNodes>
      <leafValues>
        1.3958276808261871e-01 -9.0426318347454071e-02</leafValues></_>
    <_>
      <internalNodes>
        0 -1 36293 1.0936667211353779e-02</internalNodes>
      <leafValues>
        -5.2514590322971344e-02 2.7897989749908447e-01</leafValues></_>
    <_>
      <internalNodes>
        0 -1 12295 9.2635802924633026e-02</internalNodes>
      <leafValues>
        1.5355301089584827e-02 -8.5007762908935547e-01</leafValues></_>
    <_>
      <internalNodes>
        0 -1 12811 -2.7746969863073900e-05</internalNodes>
      <leafValues>
        1.0140799731016159e-01 -1.1415300518274307e-01</leafValues></_>
    <_>
      <internalNodes>
        0 -1 146887 -1.8225550884380937e-03</internalNodes>
      <leafValues>
        -1.5336963534355164e-01 7.2341606020927429e-02</leafValues></_>
    <_>
      <internalNodes>
        0 -1 161922 3.5917451605200768e-03</internalNodes>
      <leafValues>
        -5.6622095406055450e-02 1.9882017374038696e-01</leafValues></_>
    <_>
      <internalNodes>
        0 -1 161007 -1.7405340913683176e-03</internalNodes>
      <leafValues>
        -2.7551952004432678e-01 4.4675976037979126e-02</leafValues></_>
    <_>
      <internalNodes>
        0 -1 145096 1.0665122419595718e-02</internalNodes>
      <leafValues>
        2.0888585597276688e-02 -5.2878892421722412e-01</leafValues></_>
    <_>
      <internalNodes>
        0 -1 130140 2.0412225276231766e-02</internalNodes>
      <leafValues>
        -5.5357351899147034e-02 2.1411143243312836e-01</leafValues></_>
    <_>
      <internalNodes>
        0 -1 145804 4.1666314937174320e-03</internalNodes>
      <leafValues>
        -1.5235781669616699e-01 1.0548832267522812e-01</leafValues></_>
    <_>
      <internalNodes>
        0 -1 152872 1.3292536139488220e-02</internalNodes>
      <leafValues>
        4.6606864780187607e-02 -2.4945995211601257e-01</leafValues></_>
    <_>
      <internalNodes>
        0 -1 123550 1.4605755917727947e-02</internalNodes>
      <leafValues>
        -5.5642854422330856e-02 2.3389804363250732e-01</leafValues></_>
    <_>
      <internalNodes>
        0 -1 77956 2.2657910361886024e-02</internalNodes>
      <leafValues>
        -8.0314554274082184e-02 1.4956052601337433e-01</leafValues></_>
    <_>
      <internalNodes>
        0 -1 157315 1.0930004063993692e-03</internalNodes>
      <leafValues>
        6.1051562428474426e-02 -1.9425192475318909e-01</leafValues></_>
    <_>
      <internalNodes>
        0 -1 84853 -1.0687969624996185e-02</internalNodes>
      <leafValues>
        1.8050602078437805e-01 -6.5103024244308472e-02</leafValues></_>
    <_>
      <internalNodes>
        0 -1 74722 -4.5340258628129959e-02</internalNodes>
      <leafValues>
        4.4562184810638428e-01 -2.8867779299616814e-02</leafValues></_>
    <_>
      <internalNodes>
        0 -1 79029 -5.0614075735211372e-03</internalNodes>
      <leafValues>
        -2.4765145778656006e-01 4.9312092363834381e-02</leafValues></_>
    <_>
      <internalNodes>
        0 -1 78907 3.2272405922412872e-02</internalNodes>
      <leafValues>
        4.0764193981885910e-02 -3.3810991048812866e-01</leafValues></_>
    <_>
      <internalNodes>
        0 -1 113636 -2.4236869066953659e-03</internalNodes>
      <leafValues>
        2.2553212940692902e-01 -5.9458062052726746e-02</leafValues></_>
    <_>
      <internalNodes>
        0 -1 142408 -5.2078086882829666e-03</internalNodes>
      <leafValues>
        -6.5138649940490723e-01 1.8983649089932442e-02</leafValues></_>
    <_>
      <internalNodes>
        0 -1 64774 6.2484785914421082e-02</internalNodes>
      <leafValues>
        7.8156508505344391e-02 -1.4847579598426819e-01</leafValues></_>
    <_>
      <internalNodes>
        0 -1 162089 1.7625167965888977e-03</internalNodes>
      <leafValues>
        -2.6190094649791718e-02 5.0832611322402954e-01</leafValues></_>
    <_>
      <internalNodes>
        0 -1 38617 2.2016528248786926e-01</internalNodes>
      <leafValues>
        1.2084120884537697e-02 -1.</leafValues></_>
    <_>
      <internalNodes>
        0 -1 151733 4.7763047041371465e-04</internalNodes>
      <leafValues>
        5.9068057686090469e-02 -1.8281012773513794e-01</leafValues></_>
    <_>
      <internalNodes>
        0 -1 8725 2.8790894895792007e-02</internalNodes>
      <leafValues>
        1.7362333834171295e-02 -8.1173193454742432e-01</leafValues></_>
    <_>
      <internalNodes>
        0 -1 105960 -7.5724243652075529e-04</internalNodes>
      <leafValues>
        1.2813180685043335e-01 -1.0106547176837921e-01</leafValues></_>
    <_>
      <internalNodes>
        0 -1 46572 2.6114479624084197e-05</internalNodes>
      <leafValues>
        -1.1579989641904831e-01 1.0135325789451599e-01</leafValues></_>
    <_>
      <internalNodes>
        0 -1 161799 -2.4564815685153008e-03</internalNodes>
      <leafValues>
        2.5237011909484863e-01 -5.1913052797317505e-02</leafValues></_>
    <_>
      <internalNodes>
        0 -1 82213 9.1189239174127579e-04</internalNodes>
      <leafValues>
        5.3328666836023331e-02 -2.3774889111518860e-01</leafValues></_>
    <_>
      <internalNodes>
        0 -1 140362 -2.6110843755304813e-03</internalNodes>
      <leafValues>
        4.6261835098266602e-01 -2.6306228712201118e-02</leafValues></_>
    <_>
      <internalNodes>
        0 -1 46229 -1.7418440431356430e-02</internalNodes>
      <leafValues>
        1.8936257064342499e-01 -6.5243788063526154e-02</leafValues></_>
    <_>
      <internalNodes>
        0 -1 92573 -1.0162767022848129e-02</internalNodes>
      <leafValues>
        -4.8579138517379761e-01 2.8283404186367989e-02</leafValues></_>
    <_>
      <internalNodes>
        0 -1 34051 -1.3249060139060020e-02</internalNodes>
      <leafValues>
        3.0949601531028748e-01 -3.9557356387376785e-02</leafValues></_>
    <_>
      <internalNodes>
        0 -1 72312 3.1719308026367798e-05</internalNodes>
      <leafValues>
        -1.2107684463262558e-01 9.9714145064353943e-02</leafValues></_>
    <_>
      <internalNodes>
        0 -1 13796 -4.5455694198608398e-03</internalNodes>
      <leafValues>
        2.4567344784736633e-01 -5.3653303533792496e-02</leafValues></_>
    <_>
      <internalNodes>
        0 -1 81041 1.0145492851734161e-01</internalNodes>
      <leafValues>
        -3.4603100270032883e-02 3.2671505212783813e-01</leafValues></_>
    <_>
      <internalNodes>
        0 -1 157597 1.2510137821664102e-05</internalNodes>
      <leafValues>
        -1.0666514933109283e-01 1.0506343841552734e-01</leafValues></_>
    <_>
      <internalNodes>
        0 -1 157232 -5.9943348169326782e-03</internalNodes>
      <leafValues>
        1.8933789432048798e-01 -6.1514172703027725e-02</leafValues></_>
    <_>
      <internalNodes>
        0 -1 121913 -5.6420022156089544e-04</internalNodes>
      <leafValues>
        -1.8877585232257843e-01 5.8598570525646210e-02</leafValues></_>
    <_>
      <internalNodes>
        0 -1 133649 -3.4026294946670532e-02</internalNodes>
      <leafValues>
        -5.0999712944030762e-01 2.3358184844255447e-02</leafValues></_>
    <_>
      <internalNodes>
        0 -1 119927 1.2338722124695778e-02</internalNodes>
      <leafValues>
        2.2443044930696487e-02 -4.6410503983497620e-01</leafValues></_>
    <_>
      <internalNodes>
        0 -1 8822 -1.1440375819802284e-03</internalNodes>
      <leafValues>
        1.3278536498546600e-01 -8.0517441034317017e-02</leafValues></_>
    <_>
      <internalNodes>
        0 -1 9654 -9.5512904226779938e-03</internalNodes>
      <leafValues>
        -2.4199478328227997e-01 4.4436998665332794e-02</leafValues></_>
    <_>
      <internalNodes>
        0 -1 129918 -5.9639466926455498e-03</internalNodes>
      <leafValues>
        3.6308959126472473e-01 -3.0397584661841393e-02</leafValues></_>
    <_>
      <internalNodes>
        0 -1 60844 6.2740445137023926e-02</internalNodes>
      <leafValues>
        2.2566309198737144e-02 -5.6057024002075195e-01</leafValues></_>
    <_>
      <internalNodes>
        0 -1 33914 5.8376616798341274e-03</internalNodes>
      <leafValues>
        -5.5352821946144104e-02 2.1175163984298706e-01</leafValues></_>
    <_>
      <internalNodes>
        0 -1 47051 1.6341890441253781e-03</internalNodes>
      <leafValues>
        4.2306624352931976e-02 -2.8853064775466919e-01</leafValues></_>
    <_>
      <internalNodes>
        0 -1 69851 -2.9251007363200188e-03</internalNodes>
      <leafValues>
        2.9452508687973022e-01 -4.2453326284885406e-02</leafValues></_>
    <_>
      <internalNodes>
        0 -1 133609 -1.8175374716520309e-03</internalNodes>
      <leafValues>
        9.7695365548133850e-02 -1.2488628923892975e-01</leafValues></_>
    <_>
      <internalNodes>
        0 -1 13177 -3.2636514515616000e-04</internalNodes>
      <leafValues>
        -1.7977344989776611e-01 6.5016739070415497e-02</leafValues></_>
    <_>
      <internalNodes>
        0 -1 60367 2.4461044813506305e-04</internalNodes>
      <leafValues>
        -7.3428027331829071e-02 1.6837747395038605e-01</leafValues></_>
    <_>
      <internalNodes>
        0 -1 60367 -8.8985741604119539e-04</internalNodes>
      <leafValues>
        1.6507174074649811e-01 -8.2351393997669220e-02</leafValues></_>
    <_>
      <internalNodes>
        0 -1 114197 2.3629191855434328e-04</internalNodes>
      <leafValues>
        8.1614039838314056e-02 -1.5068982541561127e-01</leafValues></_>
    <_>
      <internalNodes>
        0 -1 133602 -3.7422687455546111e-05</internalNodes>
      <leafValues>
        1.2170439958572388e-01 -1.0394354909658432e-01</leafValues></_>
    <_>
      <internalNodes>
        0 -1 133673 -8.1578822573646903e-04</internalNodes>
      <leafValues>
        -2.1719411015510559e-01 5.7647958397865295e-02</leafValues></_>
    <_>
      <internalNodes>
        0 -1 102889 7.3009813204407692e-03</internalNodes>
      <leafValues>
        -7.4898578226566315e-02 1.6065724194049835e-01</leafValues></_>
    <_>
      <internalNodes>
        0 -1 24778 2.2329769562929869e-03</internalNodes>
      <leafValues>
        4.0946405380964279e-02 -2.7435779571533203e-01</leafValues></_>
    <_>
      <internalNodes>
        0 -1 97486 5.4996749386191368e-03</internalNodes>
      <leafValues>
        -3.2758701592683792e-02 3.6944034695625305e-01</leafValues></_>
    <_>
      <internalNodes>
        0 -1 106677 1.6278799157589674e-03</internalNodes>
      <leafValues>
        3.1648602336645126e-02 -3.9171454310417175e-01</leafValues></_>
    <_>
      <internalNodes>
        0 -1 26887 2.9167807660996914e-03</internalNodes>
      <leafValues>
        -3.3716998994350433e-02 3.6832407116889954e-01</leafValues></_>
    <_>
      <internalNodes>
        0 -1 2280 1.5873590484261513e-02</internalNodes>
      <leafValues>
        2.7139876037836075e-02 -4.8499491810798645e-01</leafValues></_>
    <_>
      <internalNodes>
        0 -1 161695 -1.8100331071764231e-03</internalNodes>
      <leafValues>
        5.1257431507110596e-01 -2.6125945150852203e-02</leafValues></_>
    <_>
      <internalNodes>
        0 -1 55515 4.1934125125408173e-02</internalNodes>
      <leafValues>
        1.6887677833437920e-02 -8.4980279207229614e-01</leafValues></_>
    <_>
      <internalNodes>
        0 -1 153552 5.8524718042463064e-04</internalNodes>
      <leafValues>
        -6.3189342617988586e-02 1.9203278422355652e-01</leafValues></_></weakClassifiers></stage28>
</opencv_storage>
