<?xml version="1.0"?>
<opencv_storage>
<stage5>
  <maxWeakCount>73</maxWeakCount>
  <stageThreshold>-9.6751213073730469e-01</stageThreshold>
  <weakClassifiers>
    <_>
      <internalNodes>
        0 -1 80737 -4.1737146675586700e-03</internalNodes>
      <leafValues>
        3.0626779794692993e-01 -2.6942354440689087e-01</leafValues></_>
    <_>
      <internalNodes>
        0 -1 7350 4.5059815049171448e-02</internalNodes>
      <leafValues>
        -2.8469511866569519e-01 2.2748616337776184e-01</leafValues></_>
    <_>
      <internalNodes>
        0 -1 1641 7.7954307198524475e-02</internalNodes>
      <leafValues>
        -1.2471176683902740e-01 4.4592216610908508e-01</leafValues></_>
    <_>
      <internalNodes>
        0 -1 85688 9.5861703157424927e-03</internalNodes>
      <leafValues>
        -1.8040405213832855e-01 2.0279648900032043e-01</leafValues></_>
    <_>
      <internalNodes>
        0 -1 127856 -2.1013494115322828e-03</internalNodes>
      <leafValues>
        -5.1119410991668701e-01 1.1019530147314072e-01</leafValues></_>
    <_>
      <internalNodes>
        0 -1 65462 -3.0181858688592911e-02</internalNodes>
      <leafValues>
        4.5039486885070801e-01 -7.2942994534969330e-02</leafValues></_>
    <_>
      <internalNodes>
        0 -1 72319 9.9506927654147148e-04</internalNodes>
      <leafValues>
        6.3854739069938660e-02 -4.0279904007911682e-01</leafValues></_>
    <_>
      <internalNodes>
        0 -1 71556 -2.2809593938291073e-03</internalNodes>
      <leafValues>
        -5.5524688959121704e-01 4.8399392515420914e-02</leafValues></_>
    <_>
      <internalNodes>
        0 -1 6675 2.2078985348343849e-03</internalNodes>
      <leafValues>
        -1.1484532058238983e-01 2.6196226477622986e-01</leafValues></_>
    <_>
      <internalNodes>
        0 -1 13796 -6.0625905171036720e-03</internalNodes>
      <leafValues>
        4.0388604998588562e-01 -7.3504999279975891e-02</leafValues></_>
    <_>
      <internalNodes>
        0 -1 37709 -2.6278732344508171e-02</internalNodes>
      <leafValues>
        2.9606819152832031e-01 -9.2519506812095642e-02</leafValues></_>
    <_>
      <internalNodes>
        0 -1 139184 1.7766281962394714e-03</internalNodes>
      <leafValues>
        -1.0974139720201492e-01 2.5049522519111633e-01</leafValues></_>
    <_>
      <internalNodes>
        0 -1 161358 -2.3873760364949703e-03</internalNodes>
      <leafValues>
        1.9956144690513611e-01 -1.2344216555356979e-01</leafValues></_>
    <_>
      <internalNodes>
        0 -1 134210 6.1234127497300506e-04</internalNodes>
      <leafValues>
        6.6178388893604279e-02 -4.0911582112312317e-01</leafValues></_>
    <_>
      <internalNodes>
        0 -1 25249 9.0828858315944672e-02</internalNodes>
      <leafValues>
        2.7322845533490181e-02 -7.3212480545043945e-01</leafValues></_>
    <_>
      <internalNodes>
        0 -1 64250 -4.0486335754394531e-02</internalNodes>
      <leafValues>
        3.0411386489868164e-01 -8.5378482937812805e-02</leafValues></_>
    <_>
      <internalNodes>
        0 -1 81328 4.0930258110165596e-03</internalNodes>
      <leafValues>
        -8.5090070962905884e-02 2.4621129035949707e-01</leafValues></_>
    <_>
      <internalNodes>
        0 -1 26770 -2.2458693012595177e-02</internalNodes>
      <leafValues>
        2.6083922386169434e-01 -1.0376802086830139e-01</leafValues></_>
    <_>
      <internalNodes>
        0 -1 133773 -6.6033587791025639e-04</internalNodes>
      <leafValues>
        -2.4653114378452301e-01 1.0202112793922424e-01</leafValues></_>
    <_>
      <internalNodes>
        0 -1 161541 -2.0679882727563381e-03</internalNodes>
      <leafValues>
        2.5706428289413452e-01 -8.4663413465023041e-02</leafValues></_>
    <_>
      <internalNodes>
        0 -1 144107 -1.4592267572879791e-02</internalNodes>
      <leafValues>
        -7.8909611701965332e-01 2.5956002995371819e-02</leafValues></_>
    <_>
      <internalNodes>
        0 -1 120877 -5.0085797905921936e-02</internalNodes>
      <leafValues>
        -5.3808391094207764e-01 3.5482320934534073e-02</leafValues></_>
    <_>
      <internalNodes>
        0 -1 12397 9.0660335263237357e-04</internalNodes>
      <leafValues>
        1.1866419762372971e-01 -1.8530009686946869e-01</leafValues></_>
    <_>
      <internalNodes>
        0 -1 11359 -4.9342308193445206e-02</internalNodes>
      <leafValues>
        2.5022757053375244e-01 -8.6517050862312317e-02</leafValues></_>
    <_>
      <internalNodes>
        0 -1 104011 -2.7022033929824829e-01</internalNodes>
      <leafValues>
        -7.4386352300643921e-01 2.8653962537646294e-02</leafValues></_>
    <_>
      <internalNodes>
        0 -1 157680 4.4526699930429459e-03</internalNodes>
      <leafValues>
        -4.6760667115449905e-02 5.1360577344894409e-01</leafValues></_>
    <_>
      <internalNodes>
        0 -1 134634 4.3330286280252039e-04</internalNodes>
      <leafValues>
        8.8330000638961792e-02 -2.4585199356079102e-01</leafValues></_>
    <_>
      <internalNodes>
        0 -1 41811 5.0902575254440308e-02</internalNodes>
      <leafValues>
        -9.9749013781547546e-02 2.2915637493133545e-01</leafValues></_>
    <_>
      <internalNodes>
        0 -1 139156 -1.5402873978018761e-03</internalNodes>
      <leafValues>
        -3.6477744579315186e-01 6.2015414237976074e-02</leafValues></_>
    <_>
      <internalNodes>
        0 -1 66290 -5.5135181173682213e-03</internalNodes>
      <leafValues>
        2.1497306227684021e-01 -1.1084503680467606e-01</leafValues></_>
    <_>
      <internalNodes>
        0 -1 125171 -1.0507511906325817e-02</internalNodes>
      <leafValues>
        2.7626284956932068e-01 -9.7323730587959290e-02</leafValues></_>
    <_>
      <internalNodes>
        0 -1 132331 1.5992601402103901e-03</internalNodes>
      <leafValues>
        7.2808109223842621e-02 -3.3153888583183289e-01</leafValues></_>
    <_>
      <internalNodes>
        0 -1 1930 2.1351969335228205e-03</internalNodes>
      <leafValues>
        -1.1892087757587433e-01 1.9332309067249298e-01</leafValues></_>
    <_>
      <internalNodes>
        0 -1 146858 -6.2306207837536931e-05</internalNodes>
      <leafValues>
        1.2335655838251114e-01 -1.6998603940010071e-01</leafValues></_>
    <_>
      <internalNodes>
        0 -1 4900 -5.0865769386291504e-02</internalNodes>
      <leafValues>
        -2.5651913881301880e-01 7.9669341444969177e-02</leafValues></_>
    <_>
      <internalNodes>
        0 -1 73585 1.5007521957159042e-02</internalNodes>
      <leafValues>
        -9.4465538859367371e-02 2.3613281548023224e-01</leafValues></_>
    <_>
      <internalNodes>
        0 -1 133949 1.0459855198860168e-01</internalNodes>
      <leafValues>
        3.7656158208847046e-02 -5.8845812082290649e-01</leafValues></_>
    <_>
      <internalNodes>
        0 -1 154855 -1.2510137821664102e-05</internalNodes>
      <leafValues>
        1.4104007184505463e-01 -1.5053123235702515e-01</leafValues></_>
    <_>
      <internalNodes>
        0 -1 58499 -4.6824598684906960e-03</internalNodes>
      <leafValues>
        2.3285579681396484e-01 -7.9519212245941162e-02</leafValues></_>
    <_>
      <internalNodes>
        0 -1 106677 9.5017941202968359e-04</internalNodes>
      <leafValues>
        6.4507901668548584e-02 -2.8124380111694336e-01</leafValues></_>
    <_>
      <internalNodes>
        0 -1 103724 2.7345959097146988e-02</internalNodes>
      <leafValues>
        6.7479386925697327e-02 -2.7183499932289124e-01</leafValues></_>
    <_>
      <internalNodes>
        0 -1 23572 3.6849572788923979e-03</internalNodes>
      <leafValues>
        -9.6640132367610931e-02 2.1297802031040192e-01</leafValues></_>
    <_>
      <internalNodes>
        0 -1 25098 -1.6001878306269646e-02</internalNodes>
      <leafValues>
        2.4927827715873718e-01 -8.2886002957820892e-02</leafValues></_>
    <_>
      <internalNodes>
        0 -1 99336 -8.7374151917174459e-04</internalNodes>
      <leafValues>
        -2.8117999434471130e-01 7.1030542254447937e-02</leafValues></_>
    <_>
      <internalNodes>
        0 -1 99346 1.2423389125615358e-03</internalNodes>
      <leafValues>
        7.7136337757110596e-02 -2.8261280059814453e-01</leafValues></_>
    <_>
      <internalNodes>
        0 -1 61742 -6.6399633884429932e-02</internalNodes>
      <leafValues>
        6.4828360080718994e-01 -3.1915798783302307e-02</leafValues></_>
    <_>
      <internalNodes>
        0 -1 36921 2.4715848267078400e-03</internalNodes>
      <leafValues>
        -9.6732266247272491e-02 1.9525127112865448e-01</leafValues></_>
    <_>
      <internalNodes>
        0 -1 79885 -3.7394929677248001e-03</internalNodes>
      <leafValues>
        2.3429377377033234e-01 -9.8478563129901886e-02</leafValues></_>
    <_>
      <internalNodes>
        0 -1 98514 2.6743546186480671e-05</internalNodes>
      <leafValues>
        -1.1333765834569931e-01 1.6749626398086548e-01</leafValues></_>
    <_>
      <internalNodes>
        0 -1 23167 -1.3579344749450684e-01</internalNodes>
      <leafValues>
        -5.9353810548782349e-01 3.0635138973593712e-02</leafValues></_>
    <_>
      <internalNodes>
        0 -1 35387 3.9812801405787468e-03</internalNodes>
      <leafValues>
        -1.0382968932390213e-01 2.0117413997650146e-01</leafValues></_>
    <_>
      <internalNodes>
        0 -1 125153 -3.3891364932060242e-02</internalNodes>
      <leafValues>
        -5.7595592737197876e-01 3.6669835448265076e-02</leafValues></_>
    <_>
      <internalNodes>
        0 -1 159331 -4.4939061626791954e-03</internalNodes>
      <leafValues>
        2.2181876003742218e-01 -9.0641312301158905e-02</leafValues></_>
    <_>
      <internalNodes>
        0 -1 160920 3.1725145876407623e-02</internalNodes>
      <leafValues>
        -3.2295301556587219e-02 6.1899030208587646e-01</leafValues></_>
    <_>
      <internalNodes>
        0 -1 67768 -7.5880408985540271e-04</internalNodes>
      <leafValues>
        -2.2932271659374237e-01 8.6767837405204773e-02</leafValues></_>
    <_>
      <internalNodes>
        0 -1 32198 1.0358714498579502e-02</internalNodes>
      <leafValues>
        -9.1403156518936157e-02 2.3469312489032745e-01</leafValues></_>
    <_>
      <internalNodes>
        0 -1 151015 -7.1503561921417713e-03</internalNodes>
      <leafValues>
        -5.6483960151672363e-01 3.5197515040636063e-02</leafValues></_>
    <_>
      <internalNodes>
        0 -1 13432 2.5350262876600027e-04</internalNodes>
      <leafValues>
        -1.5323202311992645e-01 1.2303097546100616e-01</leafValues></_>
    <_>
      <internalNodes>
        0 -1 39897 5.9049082919955254e-03</internalNodes>
      <leafValues>
        6.4448550343513489e-02 -3.1774535775184631e-01</leafValues></_>
    <_>
      <internalNodes>
        0 -1 105784 -2.9926463961601257e-02</internalNodes>
      <leafValues>
        2.1787990629673004e-01 -9.0829797089099884e-02</leafValues></_>
    <_>
      <internalNodes>
        0 -1 145267 -3.6663293838500977e-02</internalNodes>
      <leafValues>
        2.1278488636016846e-01 -1.2191261351108551e-01</leafValues></_>
    <_>
      <internalNodes>
        0 -1 147474 -8.7931957095861435e-03</internalNodes>
      <leafValues>
        -3.7310469150543213e-01 5.6244112551212311e-02</leafValues></_>
    <_>
      <internalNodes>
        0 -1 58651 2.7723841369152069e-02</internalNodes>
      <leafValues>
        4.9033183604478836e-02 -3.5302704572677612e-01</leafValues></_>
    <_>
      <internalNodes>
        0 -1 143950 -1.0471002315171063e-04</internalNodes>
      <leafValues>
        1.2260779738426208e-01 -1.5884958207607269e-01</leafValues></_>
    <_>
      <internalNodes>
        0 -1 142736 -9.2986030504107475e-03</internalNodes>
      <leafValues>
        2.0242023468017578e-01 -9.6116818487644196e-02</leafValues></_>
    <_>
      <internalNodes>
        0 -1 127940 2.1158372983336449e-03</internalNodes>
      <leafValues>
        4.9065433442592621e-02 -4.6721833944320679e-01</leafValues></_>
    <_>
      <internalNodes>
        0 -1 28200 -3.3085510134696960e-02</internalNodes>
      <leafValues>
        1.8728969991207123e-01 -1.0646553337574005e-01</leafValues></_>
    <_>
      <internalNodes>
        0 -1 42380 -6.1269711703062057e-02</internalNodes>
      <leafValues>
        -8.1181287765502930e-01 2.6573179289698601e-02</leafValues></_>
    <_>
      <internalNodes>
        0 -1 146017 -7.5039494549855590e-04</internalNodes>
      <leafValues>
        2.0205654203891754e-01 -9.9953956902027130e-02</leafValues></_>
    <_>
      <internalNodes>
        0 -1 161025 3.1563926313538104e-05</internalNodes>
      <leafValues>
        -1.2684141099452972e-01 1.5278486907482147e-01</leafValues></_>
    <_>
      <internalNodes>
        0 -1 2072 5.4090583324432373e-01</internalNodes>
      <leafValues>
        3.0748920515179634e-02 -6.0039788484573364e-01</leafValues></_>
    <_>
      <internalNodes>
        0 -1 64785 -1.4016982167959213e-02</internalNodes>
      <leafValues>
        -2.2788955271244049e-01 7.9262472689151764e-02</leafValues></_>
    <_>
      <internalNodes>
        0 -1 129923 2.0623477175831795e-03</internalNodes>
      <leafValues>
        -1.1201480776071548e-01 1.9599768519401550e-01</leafValues></_></weakClassifiers></stage5>
</opencv_storage>
