<?xml version="1.0"?>
<opencv_storage>
<cascade>
  <stageType>BOOST</stageType>
  <featureType>HAAR</featureType>
  <height>24</height>
  <width>24</width>
  <stageParams>
    <boostType>GAB</boostType>
    <minHitRate>9.9000000953674316e-01</minHitRate>
    <maxFalseAlarm>4.0000000596046448e-01</maxFalseAlarm>
    <weightTrimRate>9.4999999999999996e-01</weightTrimRate>
    <maxDepth>1</maxDepth>
    <maxWeakCount>100</maxWeakCount></stageParams>
  <featureParams>
    <maxCatCount>0</maxCatCount>
    <featSize>1</featSize>
    <mode>BASIC</mode></featureParams>
  <stageNum>25</stageNum>
  <stages>
    <!-- stage 0 -->
    <_>
      <maxWeakCount>10</maxWeakCount>
      <stageThreshold>-8.4557622671127319e-01</stageThreshold>
      <weakClassifiers>
        <_>
          <internalNodes>
            0 -1 10 6.8813413381576538e-02</internalNodes>
          <leafValues>
            -2.9217720031738281e-01 7.0615035295486450e-01</leafValues></_>
        <_>
          <internalNodes>
            0 -1 1361 -6.3873808830976486e-03</internalNodes>
          <leafValues>
            7.8481084108352661e-01 -1.6128090023994446e-01</leafValues></_>
        <_>
          <internalNodes>
            0 -1 1210 -5.0587123259902000e-03</internalNodes>
          <leafValues>
            -7.3540019989013672e-01 1.8078784644603729e-01</leafValues></_>
        <_>
          <internalNodes>
            0 -1 1332 3.4568682312965393e-03</internalNodes>
          <leafValues>
            2.0683695375919342e-01 -7.0597922801971436e-01</leafValues></_>
        <_>
          <internalNodes>
            0 -1 1088 -5.0975466147065163e-03</internalNodes>
          <leafValues>
            -8.0936652421951294e-01 1.2928037345409393e-01</leafValues></_>
        <_>
          <internalNodes>
            0 -1 1120 4.6333996579051018e-03</internalNodes>
          <leafValues>
            1.6466474533081055e-01 -7.3395949602127075e-01</leafValues></_>
        <_>
          <internalNodes>
            0 -1 53 5.2906107157468796e-03</internalNodes>
          <leafValues>
            -1.8869115412235260e-01 7.0740401744842529e-01</leafValues></_>
        <_>
          <internalNodes>
            0 -1 255 7.1454301476478577e-02</internalNodes>
          <leafValues>
            -2.4548834562301636e-01 4.6900427341461182e-01</leafValues></_>
        <_>
          <internalNodes>
            0 -1 483 -1.3183165341615677e-02</internalNodes>
          <leafValues>
            -7.3596769571304321e-01 1.8753889203071594e-01</leafValues></_>
        <_>
          <internalNodes>
            0 -1 484 1.6899293288588524e-02</internalNodes>
          <leafValues>
            1.1159942299127579e-01 -8.2793313264846802e-01</leafValues></_></weakClassifiers></_>
    <!-- stage 1 -->
    <_>
      <maxWeakCount>20</maxWeakCount>
      <stageThreshold>-1.1032269001007080e+00</stageThreshold>
      <weakClassifiers>
        <_>
          <internalNodes>
            0 -1 22 1.9258031621575356e-02</internalNodes>
          <leafValues>
            -2.8147101402282715e-01 6.7918086051940918e-01</leafValues></_>
        <_>
          <internalNodes>
            0 -1 70 -3.7129838019609451e-02</internalNodes>
          <leafValues>
            -5.5868089199066162e-01 3.0416965484619141e-01</leafValues></_>
        <_>
          <internalNodes>
            0 -1 1273 -6.0755247250199318e-03</internalNodes>
          <leafValues>
            5.4925572872161865e-01 -2.9066708683967590e-01</leafValues></_>
        <_>
          <internalNodes>
            0 -1 224 -1.3377996161580086e-02</internalNodes>
          <leafValues>
            4.1672432422637939e-01 -2.1569444239139557e-01</leafValues></_>
        <_>
          <internalNodes>
            0 -1 1382 -3.0930498614907265e-03</internalNodes>
          <leafValues>
            5.9808719158172607e-01 -1.0746666789054871e-01</leafValues></_>
        <_>
          <internalNodes>
            0 -1 724 -1.8632641434669495e-01</internalNodes>
          <leafValues>
            -6.8420004844665527e-01 1.0344275087118149e-01</leafValues></_>
        <_>
          <internalNodes>
            0 -1 449 1.5393233299255371e-01</internalNodes>
          <leafValues>
            1.3042722642421722e-01 -7.0286899805068970e-01</leafValues></_>
        <_>
          <internalNodes>
            0 -1 509 1.1774712220358197e-05</internalNodes>
          <leafValues>
            -2.7307116985321045e-01 2.6150584220886230e-01</leafValues></_>
        <_>
          <internalNodes>
            0 -1 1284 4.5832982286810875e-03</internalNodes>
          <leafValues>
            -9.5234304666519165e-02 6.4884394407272339e-01</leafValues></_>
        <_>
          <internalNodes>
            0 -1 1151 1.4947731870051939e-05</internalNodes>
          <leafValues>
            -2.1117466688156128e-01 2.7117162942886353e-01</leafValues></_>
        <_>
          <internalNodes>
            0 -1 191 -3.7940241396427155e-02</internalNodes>
          <leafValues>
            -6.8469870090484619e-01 9.1790691018104553e-02</leafValues></_>
        <_>
          <internalNodes>
            0 -1 941 -1.3891837625124026e-05</internalNodes>
          <leafValues>
            1.9177453219890594e-01 -2.8522899746894836e-01</leafValues></_>
        <_>
          <internalNodes>
            0 -1 353 3.5159647464752197e-02</internalNodes>
          <leafValues>
            -8.7587282061576843e-02 6.3746011257171631e-01</leafValues></_>
        <_>
          <internalNodes>
            0 -1 143 -2.6805482804775238e-02</internalNodes>
          <leafValues>
            6.2053626775741577e-01 -9.7183980047702789e-02</leafValues></_>
        <_>
          <internalNodes>
            0 -1 645 1.3236506674729753e-05</internalNodes>
          <leafValues>
            -1.9833774864673615e-01 2.8652137517929077e-01</leafValues></_>
        <_>
          <internalNodes>
            0 -1 636 -1.6583167016506195e-02</internalNodes>
          <leafValues>
            3.6673355102539062e-01 -1.5561419725418091e-01</leafValues></_>
        <_>
          <internalNodes>
            0 -1 643 1.1926825391128659e-03</internalNodes>
          <leafValues>
            9.1997429728507996e-02 -5.9716045856475830e-01</leafValues></_>
        <_>
          <internalNodes>
            0 -1 671 3.8695834518875927e-05</internalNodes>
          <leafValues>
            -2.2631567716598511e-01 2.1136808395385742e-01</leafValues></_>
        <_>
          <internalNodes>
            0 -1 514 4.4720225036144257e-02</internalNodes>
          <leafValues>
            -9.9704474210739136e-02 4.6313536167144775e-01</leafValues></_>
        <_>
          <internalNodes>
            0 -1 1215 -5.4094074293971062e-03</internalNodes>
          <leafValues>
            5.4348093271255493e-01 -8.0882050096988678e-02</leafValues></_></weakClassifiers></_>
    <!-- stage 2 -->
    <_>
      <maxWeakCount>26</maxWeakCount>
      <stageThreshold>-1.0553833246231079e+00</stageThreshold>
      <weakClassifiers>
        <_>
          <internalNodes>
            0 -1 21 2.1374128758907318e-02</internalNodes>
          <leafValues>
            -2.5185185670852661e-01 6.4761906862258911e-01</leafValues></_>
        <_>
          <internalNodes>
            0 -1 1365 -6.2747662886977196e-03</internalNodes>
          <leafValues>
            5.8117240667343140e-01 -1.5658484399318695e-01</leafValues></_>
        <_>
          <internalNodes>
            0 -1 82 -2.0205121487379074e-02</internalNodes>
          <leafValues>
            -4.3573519587516785e-01 1.6919174790382385e-01</leafValues></_>
        <_>
          <internalNodes>
            0 -1 500 4.8194617033004761e-01</internalNodes>
          <leafValues>
            1.2706632912158966e-01 -7.0334482192993164e-01</leafValues></_>
        <_>
          <internalNodes>
            0 -1 1286 1.2683222070336342e-02</internalNodes>
          <leafValues>
            -1.4496293663978577e-01 4.7369673848152161e-01</leafValues></_>
        <_>
          <internalNodes>
            0 -1 990 -1.3994222172186710e-05</internalNodes>
          <leafValues>
            1.9805198907852173e-01 -3.1415352225303650e-01</leafValues></_>
        <_>
          <internalNodes>
            0 -1 1289 -1.6472316347062588e-03</internalNodes>
          <leafValues>
            -4.3726381659507751e-01 1.4175319671630859e-01</leafValues></_>
        <_>
          <internalNodes>
            0 -1 1134 -2.5075495243072510e-02</internalNodes>
          <leafValues>
            3.5926035046577454e-01 -1.6845792531967163e-01</leafValues></_>
        <_>
          <internalNodes>
            0 -1 339 3.5607196390628815e-02</internalNodes>
          <leafValues>
            -2.2360436618328094e-01 2.7382767200469971e-01</leafValues></_>
        <_>
          <internalNodes>
            0 -1 171 -8.5095055401325226e-02</internalNodes>
          <leafValues>
            4.5919537544250488e-01 -1.2605252861976624e-01</leafValues></_>
        <_>
          <internalNodes>
            0 -1 13 8.7364584207534790e-02</internalNodes>
          <leafValues>
            -1.5877503156661987e-01 3.5525757074356079e-01</leafValues></_>
        <_>
          <internalNodes>
            0 -1 1345 -1.5254099853336811e-03</internalNodes>
          <leafValues>
            -4.4891777634620667e-01 1.1463639140129089e-01</leafValues></_>
        <_>
          <internalNodes>
            0 -1 1301 1.6586123965680599e-03</internalNodes>
          <leafValues>
            1.2111892551183701e-01 -4.8449182510375977e-01</leafValues></_>
        <_>
          <internalNodes>
            0 -1 311 -2.2704249247908592e-02</internalNodes>
          <leafValues>
            4.7485899925231934e-01 -1.1522681266069412e-01</leafValues></_>
        <_>
          <internalNodes>
            0 -1 966 -1.1923419311642647e-02</internalNodes>
          <leafValues>
            4.1006407141685486e-01 -1.0279373824596405e-01</leafValues></_>
        <_>
          <internalNodes>
            0 -1 864 -2.3288270458579063e-03</internalNodes>
          <leafValues>
            -5.3578776121139526e-01 9.7086131572723389e-02</leafValues></_>
        <_>
          <internalNodes>
            0 -1 306 3.4661870449781418e-03</internalNodes>
          <leafValues>
            7.1463696658611298e-02 -5.5497264862060547e-01</leafValues></_>
        <_>
          <internalNodes>
            0 -1 884 1.3957998817204498e-05</internalNodes>
          <leafValues>
            -2.2527046501636505e-01 1.8911597132682800e-01</leafValues></_>
        <_>
          <internalNodes>
            0 -1 7 1.0144438594579697e-02</internalNodes>
          <leafValues>
            -1.3326874375343323e-01 3.5189643502235413e-01</leafValues></_>
        <_>
          <internalNodes>
            0 -1 89 -1.4341277070343494e-02</internalNodes>
          <leafValues>
            5.6562495231628418e-01 -7.9758793115615845e-02</leafValues></_>
        <_>
          <internalNodes>
            0 -1 705 -1.1420371010899544e-03</internalNodes>
          <leafValues>
            -5.5807435512542725e-01 8.5912518203258514e-02</leafValues></_>
        <_>
          <internalNodes>
            0 -1 202 5.5901937186717987e-02</internalNodes>
          <leafValues>
            -1.1888860911130905e-01 3.7210682034492493e-01</leafValues></_>
        <_>
          <internalNodes>
            0 -1 372 -1.3173851370811462e-01</internalNodes>
          <leafValues>
            -6.9454801082611084e-01 6.2606416642665863e-02</leafValues></_>
        <_>
          <internalNodes>
            0 -1 213 2.8765220195055008e-03</internalNodes>
          <leafValues>
            9.2030286788940430e-02 -3.8786932826042175e-01</leafValues></_>
        <_>
          <internalNodes>
            0 -1 223 -2.0417913794517517e-02</internalNodes>
          <leafValues>
            2.9915100336074829e-01 -1.4245937764644623e-01</leafValues></_>
        <_>
          <internalNodes>
            0 -1 576 -6.0518807731568813e-04</internalNodes>
          <leafValues>
            -4.4050526618957520e-01 9.0217098593711853e-02</leafValues></_></weakClassifiers></_>
    <!-- stage 3 -->
    <_>
      <maxWeakCount>42</maxWeakCount>
      <stageThreshold>-1.0147616863250732e+00</stageThreshold>
      <weakClassifiers>
        <_>
          <internalNodes>
            0 -1 75 4.1141966357827187e-03</internalNodes>
          <leafValues>
            -1.9928824901580811e-01 5.9574466943740845e-01</leafValues></_>
        <_>
          <internalNodes>
            0 -1 758 -2.5308933109045029e-03</internalNodes>
          <leafValues>
            2.8932783007621765e-01 -2.8727957606315613e-01</leafValues></_>
        <_>
          <internalNodes>
            0 -1 1274 -2.9787406325340271e-02</internalNodes>
          <leafValues>
            5.6022179126739502e-01 -1.1473703384399414e-01</leafValues></_>
        <_>
          <internalNodes>
            0 -1 69 -5.9283684939146042e-02</internalNodes>
          <leafValues>
            -4.6731114387512207e-01 1.1596211045980453e-01</leafValues></_>
        <_>
          <internalNodes>
            0 -1 637 4.1199557483196259e-02</internalNodes>
          <leafValues>
            -9.5018595457077026e-02 4.3624368309974670e-01</leafValues></_>
        <_>
          <internalNodes>
            0 -1 908 -3.5818830132484436e-02</internalNodes>
          <leafValues>
            7.6921057701110840e-01 -1.0136323422193527e-01</leafValues></_>
        <_>
          <internalNodes>
            0 -1 1208 2.4739217013120651e-02</internalNodes>
          <leafValues>
            -6.4478725194931030e-02 4.3183568120002747e-01</leafValues></_>
        <_>
          <internalNodes>
            0 -1 1005 -8.8205147767439485e-04</internalNodes>
          <leafValues>
            -5.7663518190383911e-01 5.2947282791137695e-02</leafValues></_>
        <_>
          <internalNodes>
            0 -1 1168 -8.1922803074121475e-03</internalNodes>
          <leafValues>
            3.5386446118354797e-01 -9.8595626652240753e-02</leafValues></_>
        <_>
          <internalNodes>
            0 -1 34 -1.0029232129454613e-02</internalNodes>
          <leafValues>
            6.8201529979705811e-01 -6.9986894726753235e-02</leafValues></_>
        <_>
          <internalNodes>
            0 -1 763 -7.2690159082412720e-02</internalNodes>
          <leafValues>
            4.0272650122642517e-01 -7.5057782232761383e-02</leafValues></_>
        <_>
          <internalNodes>
            0 -1 597 -1.7706191167235374e-02</internalNodes>
          <leafValues>
            3.9241978526115417e-01 -8.6533911526203156e-02</leafValues></_>
        <_>
          <internalNodes>
            0 -1 161 -1.7381320940330625e-03</internalNodes>
          <leafValues>
            -3.9274483919143677e-01 9.0534880757331848e-02</leafValues></_>
        <_>
          <internalNodes>
            0 -1 176 -9.0838258620351553e-04</internalNodes>
          <leafValues>
            -2.9773172736167908e-01 1.3360911607742310e-01</leafValues></_>
        <_>
          <internalNodes>
            0 -1 1303 -9.4767846167087555e-03</internalNodes>
          <leafValues>
            4.7524383664131165e-01 -8.1895306706428528e-02</leafValues></_>
        <_>
          <internalNodes>
            0 -1 74 6.3712191767990589e-03</internalNodes>
          <leafValues>
            -5.8088414371013641e-02 5.9866005182266235e-01</leafValues></_>
        <_>
          <internalNodes>
            0 -1 812 -1.1156792752444744e-03</internalNodes>
          <leafValues>
            -3.5101261734962463e-01 1.1484066396951675e-01</leafValues></_>
        <_>
          <internalNodes>
            0 -1 1025 5.4711839184165001e-03</internalNodes>
          <leafValues>
            1.1262553930282593e-01 -2.8070104122161865e-01</leafValues></_>
        <_>
          <internalNodes>
            0 -1 852 2.1699604112654924e-03</internalNodes>
          <leafValues>
            7.0678673684597015e-02 -4.8546004295349121e-01</leafValues></_>
        <_>
          <internalNodes>
            0 -1 464 -1.6839919984340668e-01</internalNodes>
          <leafValues>
            -6.0716474056243896e-01 4.9119442701339722e-02</leafValues></_>
        <_>
          <internalNodes>
            0 -1 989 -1.1451444588601589e-02</internalNodes>
          <leafValues>
            2.8870302438735962e-01 -1.3056667149066925e-01</leafValues></_>
        <_>
          <internalNodes>
            0 -1 61 1.4530464795825537e-05</internalNodes>
          <leafValues>
            -1.9279029965400696e-01 1.9354099035263062e-01</leafValues></_>
        <_>
          <internalNodes>
            0 -1 1064 -5.5769279599189758e-02</internalNodes>
          <leafValues>
            3.8470426201820374e-01 -8.8791325688362122e-02</leafValues></_>
        <_>
          <internalNodes>
            0 -1 938 -3.2867152185644954e-05</internalNodes>
          <leafValues>
            1.6505536437034607e-01 -1.9427466392517090e-01</leafValues></_>
        <_>
          <internalNodes>
            0 -1 230 -3.4519881010055542e-01</internalNodes>
          <leafValues>
            -9.0902376174926758e-01 3.4413658082485199e-02</leafValues></_>
        <_>
          <internalNodes>
            0 -1 41 4.2478477954864502e-01</internalNodes>
          <leafValues>
            3.4000270068645477e-02 -7.4136406183242798e-01</leafValues></_>
        <_>
          <internalNodes>
            0 -1 247 -3.6123918835073709e-04</internalNodes>
          <leafValues>
            -2.9417052865028381e-01 1.1396016180515289e-01</leafValues></_>
        <_>
          <internalNodes>
            0 -1 1341 -1.1040043318644166e-03</internalNodes>
          <leafValues>
            -3.4544000029563904e-01 9.2311374843120575e-02</leafValues></_>
        <_>
          <internalNodes>
            0 -1 1296 -1.4769617468118668e-02</internalNodes>
          <leafValues>
            5.2138990163803101e-01 -6.6078163683414459e-02</leafValues></_>
        <_>
          <internalNodes>
            0 -1 1056 6.8450829712674022e-04</internalNodes>
          <leafValues>
            7.8906707465648651e-02 -4.3254503607749939e-01</leafValues></_>
        <_>
          <internalNodes>
            0 -1 118 -2.6789881289005280e-02</internalNodes>
          <leafValues>
            3.9551132917404175e-01 -8.4186621010303497e-02</leafValues></_>
        <_>
          <internalNodes>
            0 -1 93 3.8576308637857437e-02</internalNodes>
          <leafValues>
            -1.0428902506828308e-01 3.2597154378890991e-01</leafValues></_>
        <_>
          <internalNodes>
            0 -1 1057 -7.2340399492532015e-04</internalNodes>
          <leafValues>
            -3.4112426638603210e-01 9.5351479947566986e-02</leafValues></_>
        <_>
          <internalNodes>
            0 -1 1008 -1.3144751392246690e-05</internalNodes>
          <leafValues>
            1.9738300144672394e-01 -1.5989916026592255e-01</leafValues></_>
        <_>
          <internalNodes>
            0 -1 1364 -1.1461628600955009e-02</internalNodes>
          <leafValues>
            6.0319787263870239e-01 -5.0973050296306610e-02</leafValues></_>
        <_>
          <internalNodes>
            0 -1 912 3.3447565510869026e-04</internalNodes>
          <leafValues>
            1.0338190197944641e-01 -3.4024116396903992e-01</leafValues></_>
        <_>
          <internalNodes>
            0 -1 727 1.6621802002191544e-02</internalNodes>
          <leafValues>
            -7.8834161162376404e-02 4.3173366785049438e-01</leafValues></_>
        <_>
          <internalNodes>
            0 -1 1277 6.4649810083210468e-03</internalNodes>
          <leafValues>
            -4.9976855516433716e-02 5.7725030183792114e-01</leafValues></_>
        <_>
          <internalNodes>
            0 -1 1342 1.2199636548757553e-03</internalNodes>
          <leafValues>
            1.0127085447311401e-01 -3.1082564592361450e-01</leafValues></_>
        <_>
          <internalNodes>
            0 -1 219 -2.5405925698578358e-03</internalNodes>
          <leafValues>
            2.1682156622409821e-01 -1.3117027282714844e-01</leafValues></_>
        <_>
          <internalNodes>
            0 -1 413 -9.8389363847672939e-04</internalNodes>
          <leafValues>
            -3.7377163767814636e-01 7.9193808138370514e-02</leafValues></_>
        <_>
          <internalNodes>
            0 -1 43 5.0077009946107864e-03</internalNodes>
          <leafValues>
            -1.0538415610790253e-01 2.8925088047981262e-01</leafValues></_></weakClassifiers></_>
    <!-- stage 4 -->
    <_>
      <maxWeakCount>31</maxWeakCount>
      <stageThreshold>-1.0491510629653931e+00</stageThreshold>
      <weakClassifiers>
        <_>
          <internalNodes>
            0 -1 912 -5.5826921015977859e-04</internalNodes>
          <leafValues>
            -5.8990538120269775e-01 1.5807269513607025e-01</leafValues></_>
        <_>
          <internalNodes>
            0 -1 338 -7.8444495797157288e-02</internalNodes>
          <leafValues>
            5.0732797384262085e-01 -1.8038624525070190e-01</leafValues></_>
        <_>
          <internalNodes>
            0 -1 853 -3.2406263053417206e-03</internalNodes>
          <leafValues>
            -6.3499957323074341e-01 1.3157857954502106e-01</leafValues></_>
        <_>
          <internalNodes>
            0 -1 857 2.3254770785570145e-03</internalNodes>
          <leafValues>
            1.0992074757814407e-01 -7.0332181453704834e-01</leafValues></_>
        <_>
          <internalNodes>
            0 -1 45 2.2364923730492592e-02</internalNodes>
          <leafValues>
            -1.7224024236202240e-01 4.4132474064826965e-01</leafValues></_>
        <_>
          <internalNodes>
            0 -1 1331 -6.9975701626390219e-04</internalNodes>
          <leafValues>
            -4.8457184433937073e-01 1.1308309435844421e-01</leafValues></_>
        <_>
          <internalNodes>
            0 -1 332 -1.3818871974945068e-01</internalNodes>
          <leafValues>
            6.1589622497558594e-01 -9.6711345016956329e-02</leafValues></_>
        <_>
          <internalNodes>
            0 -1 1009 -5.9908849652856588e-04</internalNodes>
          <leafValues>
            -5.0117659568786621e-01 1.0610119253396988e-01</leafValues></_>
        <_>
          <internalNodes>
            0 -1 1278 -1.9511902704834938e-02</internalNodes>
          <leafValues>
            4.2144426703453064e-01 -1.2778133153915405e-01</leafValues></_>
        <_>
          <internalNodes>
            0 -1 984 -1.6789040528237820e-03</internalNodes>
          <leafValues>
            -5.2136242389678955e-01 1.0378520190715790e-01</leafValues></_>
        <_>
          <internalNodes>
            0 -1 983 1.0146296117454767e-03</internalNodes>
          <leafValues>
            6.1972629278898239e-02 -6.3074296712875366e-01</leafValues></_>
        <_>
          <internalNodes>
            0 -1 640 -1.4030006714165211e-03</internalNodes>
          <leafValues>
            -4.4174420833587646e-01 9.4427086412906647e-02</leafValues></_>
        <_>
          <internalNodes>
            0 -1 697 -4.6161087229847908e-03</internalNodes>
          <leafValues>
            2.8550657629966736e-01 -1.5949875116348267e-01</leafValues></_>
        <_>
          <internalNodes>
            0 -1 257 -1.4134669303894043e-01</internalNodes>
          <leafValues>
            7.6342827081680298e-01 -6.4793206751346588e-02</leafValues></_>
        <_>
          <internalNodes>
            0 -1 632 1.1422673705965281e-03</internalNodes>
          <leafValues>
            9.7342185676097870e-02 -4.6163123846054077e-01</leafValues></_>
        <_>
          <internalNodes>
            0 -1 276 -1.1466899886727333e-03</internalNodes>
          <leafValues>
            -3.3724397420883179e-01 1.1741812527179718e-01</leafValues></_>
        <_>
          <internalNodes>
            0 -1 1099 2.5335684418678284e-02</internalNodes>
          <leafValues>
            -1.2307368218898773e-01 3.1635573506355286e-01</leafValues></_>
        <_>
          <internalNodes>
            0 -1 330 -5.5814541876316071e-02</internalNodes>
          <leafValues>
            5.1375591754913330e-01 -7.8713603317737579e-02</leafValues></_>
        <_>
          <internalNodes>
            0 -1 27 1.0863362252712250e-01</internalNodes>
          <leafValues>
            -7.0497803390026093e-02 4.7396767139434814e-01</leafValues></_>
        <_>
          <internalNodes>
            0 -1 379 -1.1063357815146446e-03</internalNodes>
          <leafValues>
            -3.8022202253341675e-01 1.0283039510250092e-01</leafValues></_>
        <_>
          <internalNodes>
            0 -1 1001 6.7075324477627873e-04</internalNodes>
          <leafValues>
            1.0028209537267685e-01 -3.5787340998649597e-01</leafValues></_>
        <_>
          <internalNodes>
            0 -1 62 -2.9808604158461094e-03</internalNodes>
          <leafValues>
            3.7917280197143555e-01 -1.0092068463563919e-01</leafValues></_>
        <_>
          <internalNodes>
            0 -1 115 -8.8759145000949502e-04</internalNodes>
          <leafValues>
            -2.8937965631484985e-01 1.2964600324630737e-01</leafValues></_>
        <_>
          <internalNodes>
            0 -1 465 1.2921500019729137e-03</internalNodes>
          <leafValues>
            7.8596763312816620e-02 -4.4350996613502502e-01</leafValues></_>
        <_>
          <internalNodes>
            0 -1 1310 4.6069924719631672e-03</internalNodes>
          <leafValues>
            -1.2268514931201935e-01 2.8025558590888977e-01</leafValues></_>
        <_>
          <internalNodes>
            0 -1 1131 4.4828504323959351e-03</internalNodes>
          <leafValues>
            5.7520553469657898e-02 -5.6263625621795654e-01</leafValues></_>
        <_>
          <internalNodes>
            0 -1 129 5.5199605412781239e-03</internalNodes>
          <leafValues>
            -7.4988603591918945e-02 4.8997941613197327e-01</leafValues></_>
        <_>
          <internalNodes>
            0 -1 105 -5.4644932970404625e-03</internalNodes>
          <leafValues>
            3.0922493338584900e-01 -1.2867793440818787e-01</leafValues></_>
        <_>
          <internalNodes>
            0 -1 1223 4.8216856084764004e-03</internalNodes>
          <leafValues>
            7.1868233382701874e-02 -5.4680532217025757e-01</leafValues></_>
        <_>
          <internalNodes>
            0 -1 782 2.3073521442711353e-03</internalNodes>
          <leafValues>
            4.4927012175321579e-02 -6.0478770732879639e-01</leafValues></_>
        <_>
          <internalNodes>
            0 -1 1323 1.4069990720599890e-03</internalNodes>
          <leafValues>
            -1.4230637252330780e-01 2.3173865675926208e-01</leafValues></_></weakClassifiers></_>
    <!-- stage 5 -->
    <_>
      <maxWeakCount>36</maxWeakCount>
      <stageThreshold>-9.4018197059631348e-01</stageThreshold>
      <weakClassifiers>
        <_>
          <internalNodes>
            0 -1 113 3.4354408271610737e-03</internalNodes>
          <leafValues>
            -2.6872771978378296e-01 3.4294384717941284e-01</leafValues></_>
        <_>
          <internalNodes>
            0 -1 525 -5.2211035043001175e-02</internalNodes>
          <leafValues>
            4.9982210993766785e-01 -1.4698384702205658e-01</leafValues></_>
        <_>
          <internalNodes>
            0 -1 254 6.6163882613182068e-02</internalNodes>
          <leafValues>
            -2.2100907564163208e-01 3.8659799098968506e-01</leafValues></_>
        <_>
          <internalNodes>
            0 -1 1052 1.1628295760601759e-03</internalNodes>
          <leafValues>
            1.3380272686481476e-01 -6.1408346891403198e-01</leafValues></_>
        <_>
          <internalNodes>
            0 -1 1026 -1.8954493571072817e-03</internalNodes>
          <leafValues>
            1.8409907817840576e-01 -2.7819028496742249e-01</leafValues></_>
        <_>
          <internalNodes>
            0 -1 1224 -1.1153588071465492e-02</internalNodes>
          <leafValues>
            5.4319655895233154e-01 -1.2267552316188812e-01</leafValues></_>
        <_>
          <internalNodes>
            0 -1 189 -8.7019994854927063e-02</internalNodes>
          <leafValues>
            4.4801768660545349e-01 -8.7492659687995911e-02</leafValues></_>
        <_>
          <internalNodes>
            0 -1 394 2.9697241261601448e-03</internalNodes>
          <leafValues>
            -1.6573943197727203e-01 3.0019751191139221e-01</leafValues></_>
        <_>
          <internalNodes>
            0 -1 985 -8.0878334119915962e-03</internalNodes>
          <leafValues>
            2.5553825497627258e-01 -1.7754423618316650e-01</leafValues></_>
        <_>
          <internalNodes>
            0 -1 954 1.3432594714686275e-03</internalNodes>
          <leafValues>
            9.4102114439010620e-02 -5.8549422025680542e-01</leafValues></_>
        <_>
          <internalNodes>
            0 -1 11 2.2800110280513763e-02</internalNodes>
          <leafValues>
            -1.2330473959445953e-01 3.8364073634147644e-01</leafValues></_>
        <_>
          <internalNodes>
            0 -1 233 -1.5691348910331726e-01</internalNodes>
          <leafValues>
            6.7604404687881470e-01 -5.3862437605857849e-02</leafValues></_>
        <_>
          <internalNodes>
            0 -1 996 1.1846529087051749e-03</internalNodes>
          <leafValues>
            6.9640301167964935e-02 -6.6765630245208740e-01</leafValues></_>
        <_>
          <internalNodes>
            0 -1 319 -2.3232810199260712e-02</internalNodes>
          <leafValues>
            3.2516458630561829e-01 -1.3016551733016968e-01</leafValues></_>
        <_>
          <internalNodes>
            0 -1 1314 -1.8708759453147650e-03</internalNodes>
          <leafValues>
            2.9720690846443176e-01 -1.3373473286628723e-01</leafValues></_>
        <_>
          <internalNodes>
            0 -1 944 -3.5478707868605852e-03</internalNodes>
          <leafValues>
            -6.4060372114181519e-01 5.7013340294361115e-02</leafValues></_>
        <_>
          <internalNodes>
            0 -1 968 -6.9534434005618095e-03</internalNodes>
          <leafValues>
            3.0633389949798584e-01 -1.3619118928909302e-01</leafValues></_>
        <_>
          <internalNodes>
            0 -1 1093 8.1110099563375115e-04</internalNodes>
          <leafValues>
            -1.8631727993488312e-01 2.1837517619132996e-01</leafValues></_>
        <_>
          <internalNodes>
            0 -1 716 -1.1658563744276762e-03</internalNodes>
          <leafValues>
            -4.5778658986091614e-01 7.8043580055236816e-02</leafValues></_>
        <_>
          <internalNodes>
            0 -1 668 -1.5134930610656738e-02</internalNodes>
          <leafValues>
            3.1997326016426086e-01 -1.2757210433483124e-01</leafValues></_>
        <_>
          <internalNodes>
            0 -1 988 -1.3451140839606524e-03</internalNodes>
          <leafValues>
            -4.7086903452873230e-01 8.7119333446025848e-02</leafValues></_>
        <_>
          <internalNodes>
            0 -1 67 -5.5710308253765106e-02</internalNodes>
          <leafValues>
            3.6122196912765503e-01 -1.0829533636569977e-01</leafValues></_>
        <_>
          <internalNodes>
            0 -1 292 8.8311349973082542e-03</internalNodes>
          <leafValues>
            -1.4460600912570953e-01 2.7268844842910767e-01</leafValues></_>
        <_>
          <internalNodes>
            0 -1 125 -7.4166373815387487e-04</internalNodes>
          <leafValues>
            -4.7764343023300171e-01 8.2733288407325745e-02</leafValues></_>
        <_>
          <internalNodes>
            0 -1 501 5.4594475030899048e-01</internalNodes>
          <leafValues>
            4.1284177452325821e-02 -7.3621213436126709e-01</leafValues></_>
        <_>
          <internalNodes>
            0 -1 803 1.1342815123498440e-03</internalNodes>
          <leafValues>
            7.7646993100643158e-02 -4.5826473832130432e-01</leafValues></_>
        <_>
          <internalNodes>
            0 -1 807 -7.2762748459354043e-04</internalNodes>
          <leafValues>
            -4.5775878429412842e-01 7.4697993695735931e-02</leafValues></_>
        <_>
          <internalNodes>
            0 -1 327 2.6207834482192993e-02</internalNodes>
          <leafValues>
            -8.8726095855236053e-02 3.9560064673423767e-01</leafValues></_>
        <_>
          <internalNodes>
            0 -1 1384 -2.6610596105456352e-03</internalNodes>
          <leafValues>
            3.8996091485023499e-01 -8.1277608871459961e-02</leafValues></_>
        <_>
          <internalNodes>
            0 -1 1209 -5.8863740414381027e-03</internalNodes>
          <leafValues>
            3.4476602077484131e-01 -1.0155569761991501e-01</leafValues></_>
        <_>
          <internalNodes>
            0 -1 1135 -3.2869558781385422e-03</internalNodes>
          <leafValues>
            -7.3515546321868896e-01 4.9764722585678101e-02</leafValues></_>
        <_>
          <internalNodes>
            0 -1 1217 2.8693533968180418e-03</internalNodes>
          <leafValues>
            -1.2561029195785522e-01 2.9135426878929138e-01</leafValues></_>
        <_>
          <internalNodes>
            0 -1 1343 8.2306237891316414e-04</internalNodes>
          <leafValues>
            7.3095746338367462e-02 -4.2353007197380066e-01</leafValues></_>
        <_>
          <internalNodes>
            0 -1 920 -5.9710484929382801e-03</internalNodes>
          <leafValues>
            2.5962632894515991e-01 -1.3370256125926971e-01</leafValues></_>
        <_>
          <internalNodes>
            0 -1 959 7.0933416485786438e-02</internalNodes>
          <leafValues>
            1.0090016573667526e-01 -3.7070509791374207e-01</leafValues></_>
        <_>
          <internalNodes>
            0 -1 1015 -3.7495663855224848e-03</internalNodes>
          <leafValues>
            -5.5669254064559937e-01 5.6928489357233047e-02</leafValues></_></weakClassifiers></_>
    <!-- stage 6 -->
    <_>
      <maxWeakCount>44</maxWeakCount>
      <stageThreshold>-9.5146310329437256e-01</stageThreshold>
      <weakClassifiers>
        <_>
          <internalNodes>
            0 -1 40 1.1343296617269516e-01</internalNodes>
          <leafValues>
            -1.4484451711177826e-01 6.3669067621231079e-01</leafValues></_>
        <_>
          <internalNodes>
            0 -1 127 2.1676826290786266e-03</internalNodes>
          <leafValues>
            -1.4579531550407410e-01 4.8047986626625061e-01</leafValues></_>
        <_>
          <internalNodes>
            0 -1 903 -1.5924439139780588e-05</internalNodes>
          <leafValues>
            1.6119259595870972e-01 -3.2842680811882019e-01</leafValues></_>
        <_>
          <internalNodes>
            0 -1 537 4.1376508772373199e-02</internalNodes>
          <leafValues>
            -2.2733286023139954e-01 1.7695721983909607e-01</leafValues></_>
        <_>
          <internalNodes>
            0 -1 1362 3.8673416711390018e-03</internalNodes>
          <leafValues>
            -1.0156353563070297e-01 4.2660185694694519e-01</leafValues></_>
        <_>
          <internalNodes>
            0 -1 1395 2.9281452298164368e-03</internalNodes>
          <leafValues>
            -1.2051777541637421e-01 3.1987178325653076e-01</leafValues></_>
        <_>
          <internalNodes>
            0 -1 1123 -2.6655157853383571e-05</internalNodes>
          <leafValues>
            1.6946272552013397e-01 -2.1535493433475494e-01</leafValues></_>
        <_>
          <internalNodes>
            0 -1 363 1.1216958519071341e-03</internalNodes>
          <leafValues>
            1.0220007598400116e-01 -3.7715691328048706e-01</leafValues></_>
        <_>
          <internalNodes>
            0 -1 280 -2.1975208073854446e-03</internalNodes>
          <leafValues>
            -4.7961682081222534e-01 1.1256232857704163e-01</leafValues></_>
        <_>
          <internalNodes>
            0 -1 221 -9.7828228026628494e-03</internalNodes>
          <leafValues>
            2.6358863711357117e-01 -1.6049072146415710e-01</leafValues></_>
        <_>
          <internalNodes>
            0 -1 162 2.2954326122999191e-02</internalNodes>
          <leafValues>
            -8.3977557718753815e-02 5.3013986349105835e-01</leafValues></_>
        <_>
          <internalNodes>
            0 -1 833 -1.4960116459405981e-05</internalNodes>
          <leafValues>
            2.0964758098125458e-01 -1.5948879718780518e-01</leafValues></_>
        <_>
          <internalNodes>
            0 -1 597 -1.6324818134307861e-02</internalNodes>
          <leafValues>
            3.5952508449554443e-01 -1.0495782643556595e-01</leafValues></_>
        <_>
          <internalNodes>
            0 -1 359 -1.4610397629439831e-02</internalNodes>
          <leafValues>
            3.7530511617660522e-01 -8.1986725330352783e-02</leafValues></_>
        <_>
          <internalNodes>
            0 -1 643 7.9729873687028885e-04</internalNodes>
          <leafValues>
            8.7280280888080597e-02 -4.0188124775886536e-01</leafValues></_>
        <_>
          <internalNodes>
            0 -1 641 -2.4292543530464172e-03</internalNodes>
          <leafValues>
            -5.5491727590560913e-01 5.3192503750324249e-02</leafValues></_>
        <_>
          <internalNodes>
            0 -1 1 3.0984931072453037e-05</internalNodes>
          <leafValues>
            -1.5964832901954651e-01 1.8943984806537628e-01</leafValues></_>
        <_>
          <internalNodes>
            0 -1 30 1.2910097211715765e-05</internalNodes>
          <leafValues>
            -1.6794809699058533e-01 2.1773210167884827e-01</leafValues></_>
        <_>
          <internalNodes>
            0 -1 419 -9.2143807560205460e-03</internalNodes>
          <leafValues>
            -7.6584929227828979e-01 4.8152144998311996e-02</leafValues></_>
        <_>
          <internalNodes>
            0 -1 932 -1.4530464795825537e-05</internalNodes>
          <leafValues>
            1.8407802283763885e-01 -1.6458629071712494e-01</leafValues></_>
        <_>
          <internalNodes>
            0 -1 932 1.2910097211715765e-05</internalNodes>
          <leafValues>
            -1.5377776324748993e-01 2.1612849831581116e-01</leafValues></_>
        <_>
          <internalNodes>
            0 -1 595 -1.1490602791309357e-01</internalNodes>
          <leafValues>
            -4.1460663080215454e-01 7.8056477010250092e-02</leafValues></_>
        <_>
          <internalNodes>
            0 -1 135 -4.1942037642002106e-03</internalNodes>
          <leafValues>
            -4.8094391822814941e-01 6.2073130160570145e-02</leafValues></_>
        <_>
          <internalNodes>
            0 -1 926 -1.3241598010063171e-01</internalNodes>
          <leafValues>
            -8.6276108026504517e-01 3.0929295346140862e-02</leafValues></_>
        <_>
          <internalNodes>
            0 -1 515 1.3962004231871106e-05</internalNodes>
          <leafValues>
            -1.6944156587123871e-01 1.6991947591304779e-01</leafValues></_>
        <_>
          <internalNodes>
            0 -1 6 -1.4898169785737991e-02</internalNodes>
          <leafValues>
            4.4547143578529358e-01 -7.0597030222415924e-02</leafValues></_>
        <_>
          <internalNodes>
            0 -1 717 -1.6572950407862663e-02</internalNodes>
          <leafValues>
            4.2863741517066956e-01 -6.4745791256427765e-02</leafValues></_>
        <_>
          <internalNodes>
            0 -1 624 -1.6647668555378914e-02</internalNodes>
          <leafValues>
            2.3922298848628998e-01 -1.2904456257820129e-01</leafValues></_>
        <_>
          <internalNodes>
            0 -1 897 -9.0838912874460220e-03</internalNodes>
          <leafValues>
            2.1295219659805298e-01 -1.6472484171390533e-01</leafValues></_>
        <_>
          <internalNodes>
            0 -1 804 1.2535084970295429e-03</internalNodes>
          <leafValues>
            7.8721560537815094e-02 -4.1928499937057495e-01</leafValues></_>
        <_>
          <internalNodes>
            0 -1 1388 1.4737964193045627e-05</internalNodes>
          <leafValues>
            -1.6420009732246399e-01 1.7744116485118866e-01</leafValues></_>
        <_>
          <internalNodes>
            0 -1 1292 -8.5315899923443794e-04</internalNodes>
          <leafValues>
            -2.6452347636222839e-01 1.1352957040071487e-01</leafValues></_>
        <_>
          <internalNodes>
            0 -1 54 -1.7978182062506676e-02</internalNodes>
          <leafValues>
            3.0993601679801941e-01 -9.3694128096103668e-02</leafValues></_>
        <_>
          <internalNodes>
            0 -1 505 -5.1960065029561520e-03</internalNodes>
          <leafValues>
            -5.4220360517501831e-01 5.8973338454961777e-02</leafValues></_>
        <_>
          <internalNodes>
            0 -1 66 2.8488865122199059e-02</internalNodes>
          <leafValues>
            -8.0910705029964447e-02 3.8593155145645142e-01</leafValues></_>
        <_>
          <internalNodes>
            0 -1 1406 -3.1920964829623699e-05</internalNodes>
          <leafValues>
            1.7676168680191040e-01 -1.5419051051139832e-01</leafValues></_>
        <_>
          <internalNodes>
            0 -1 1264 1.4599041605833918e-05</internalNodes>
          <leafValues>
            -1.5670473873615265e-01 1.8369159102439880e-01</leafValues></_>
        <_>
          <internalNodes>
            0 -1 654 -5.2597292233258486e-04</internalNodes>
          <leafValues>
            -3.7539610266685486e-01 7.9585678875446320e-02</leafValues></_>
        <_>
          <internalNodes>
            0 -1 802 1.3150656741345301e-05</internalNodes>
          <leafValues>
            -1.5347838401794434e-01 1.9329270720481873e-01</leafValues></_>
        <_>
          <internalNodes>
            0 -1 832 1.9835455343127251e-02</internalNodes>
          <leafValues>
            -1.0432941466569901e-01 2.7143260836601257e-01</leafValues></_>
        <_>
          <internalNodes>
            0 -1 122 2.7019940316677094e-02</internalNodes>
          <leafValues>
            3.1726129353046417e-02 -8.7444794178009033e-01</leafValues></_>
        <_>
          <internalNodes>
            0 -1 428 2.2998161613941193e-02</internalNodes>
          <leafValues>
            -9.9930904805660248e-02 2.7920871973037720e-01</leafValues></_>
        <_>
          <internalNodes>
            0 -1 1142 2.2392768878489733e-03</internalNodes>
          <leafValues>
            5.4299838840961456e-02 -5.5573070049285889e-01</leafValues></_>
        <_>
          <internalNodes>
            0 -1 245 2.7347654104232788e-02</internalNodes>
          <leafValues>
            -7.9751543700695038e-02 3.6649689078330994e-01</leafValues></_></weakClassifiers></_>
    <!-- stage 7 -->
    <_>
      <maxWeakCount>49</maxWeakCount>
      <stageThreshold>-9.8464536666870117e-01</stageThreshold>
      <weakClassifiers>
        <_>
          <internalNodes>
            0 -1 994 -1.7072181217372417e-03</internalNodes>
          <leafValues>
            3.5319766402244568e-01 -2.9926109313964844e-01</leafValues></_>
        <_>
          <internalNodes>
            0 -1 98 1.1824661865830421e-02</internalNodes>
          <leafValues>
            -3.2214742898941040e-01 2.6123127341270447e-01</leafValues></_>
        <_>
          <internalNodes>
            0 -1 232 6.8090967833995819e-03</internalNodes>
          <leafValues>
            -1.8726618587970734e-01 3.7840107083320618e-01</leafValues></_>
        <_>
          <internalNodes>
            0 -1 1259 8.0411704257130623e-03</internalNodes>
          <leafValues>
            -8.2530029118061066e-02 4.7325170040130615e-01</leafValues></_>
        <_>
          <internalNodes>
            0 -1 495 -6.0027251020073891e-03</internalNodes>
          <leafValues>
            3.9177095890045166e-01 -1.5563449263572693e-01</leafValues></_>
        <_>
          <internalNodes>
            0 -1 760 -1.4758727047592402e-03</internalNodes>
          <leafValues>
            -4.0388560295104980e-01 1.4141707122325897e-01</leafValues></_>
        <_>
          <internalNodes>
            0 -1 853 3.1366604380309582e-03</internalNodes>
          <leafValues>
            7.1327343583106995e-02 -6.0566473007202148e-01</leafValues></_>
        <_>
          <internalNodes>
            0 -1 57 1.0410559363663197e-02</internalNodes>
          <leafValues>
            -8.8908366858959198e-02 4.2629340291023254e-01</leafValues></_>
        <_>
          <internalNodes>
            0 -1 405 -2.1541613340377808e-01</internalNodes>
          <leafValues>
            5.4587107896804810e-01 -7.7258415520191193e-02</leafValues></_>
        <_>
          <internalNodes>
            0 -1 861 -1.1202530004084110e-03</internalNodes>
          <leafValues>
            -4.4086039066314697e-01 7.3999814689159393e-02</leafValues></_>
        <_>
          <internalNodes>
            0 -1 760 2.0796488970518112e-03</internalNodes>
          <leafValues>
            8.0394811928272247e-02 -4.4422817230224609e-01</leafValues></_>
        <_>
          <internalNodes>
            0 -1 1141 -2.0155232399702072e-02</internalNodes>
          <leafValues>
            2.6829946041107178e-01 -1.2437091767787933e-01</leafValues></_>
        <_>
          <internalNodes>
            0 -1 336 1.9502155482769012e-02</internalNodes>
          <leafValues>
            -1.0898493230342865e-01 2.8825694322586060e-01</leafValues></_>
        <_>
          <internalNodes>
            0 -1 831 1.3533864170312881e-02</internalNodes>
          <leafValues>
            -1.4844918251037598e-01 2.5078326463699341e-01</leafValues></_>
        <_>
          <internalNodes>
            0 -1 1127 1.1112488806247711e-02</internalNodes>
          <leafValues>
            5.1063694059848785e-02 -5.9306764602661133e-01</leafValues></_>
        <_>
          <internalNodes>
            0 -1 87 6.6632428206503391e-03</internalNodes>
          <leafValues>
            -9.6398629248142242e-02 3.1590747833251953e-01</leafValues></_>
        <_>
          <internalNodes>
            0 -1 439 -1.5071150660514832e-01</internalNodes>
          <leafValues>
            -6.0807269811630249e-01 5.8825615793466568e-02</leafValues></_>
        <_>
          <internalNodes>
            0 -1 991 6.8989151623100042e-04</internalNodes>
          <leafValues>
            5.1527526229619980e-02 -4.1259282827377319e-01</leafValues></_>
        <_>
          <internalNodes>
            0 -1 220 -1.6010492108762264e-03</internalNodes>
          <leafValues>
            2.0362108945846558e-01 -1.3121460378170013e-01</leafValues></_>
        <_>
          <internalNodes>
            0 -1 1132 -1.0101321153342724e-02</internalNodes>
          <leafValues>
            -7.5316518545150757e-01 4.0550041943788528e-02</leafValues></_>
        <_>
          <internalNodes>
            0 -1 961 -1.8716184422373772e-02</internalNodes>
          <leafValues>
            2.9148489236831665e-01 -9.2220716178417206e-02</leafValues></_>
        <_>
          <internalNodes>
            0 -1 320 2.4216119199991226e-03</internalNodes>
          <leafValues>
            -8.0040611326694489e-02 3.0459815263748169e-01</leafValues></_>
        <_>
          <internalNodes>
            0 -1 988 -1.2430374044924974e-03</internalNodes>
          <leafValues>
            -3.8078096508979797e-01 7.3996230959892273e-02</leafValues></_>
        <_>
          <internalNodes>
            0 -1 156 -2.1453488152474165e-03</internalNodes>
          <leafValues>
            1.8479916453361511e-01 -1.4315016567707062e-01</leafValues></_>
        <_>
          <internalNodes>
            0 -1 604 6.6485866904258728e-02</internalNodes>
          <leafValues>
            5.5632513016462326e-02 -5.1524639129638672e-01</leafValues></_>
        <_>
          <internalNodes>
            0 -1 476 8.9402467012405396e-02</internalNodes>
          <leafValues>
            2.9075996950268745e-02 -7.4313831329345703e-01</leafValues></_>
        <_>
          <internalNodes>
            0 -1 612 -1.1516488157212734e-02</internalNodes>
          <leafValues>
            1.6628736257553101e-01 -1.4637775719165802e-01</leafValues></_>
        <_>
          <internalNodes>
            0 -1 997 -6.9131620693951845e-04</internalNodes>
          <leafValues>
            -3.1489366292953491e-01 8.0720745027065277e-02</leafValues></_>
        <_>
          <internalNodes>
            0 -1 526 2.8418304282240570e-05</internalNodes>
          <leafValues>
            -1.6368302702903748e-01 1.4663109183311462e-01</leafValues></_>
        <_>
          <internalNodes>
            0 -1 488 -3.4032965777441859e-04</internalNodes>
          <leafValues>
            -2.5426626205444336e-01 1.0006067901849747e-01</leafValues></_>
        <_>
          <internalNodes>
            0 -1 664 -3.1344160437583923e-02</internalNodes>
          <leafValues>
            3.8496765494346619e-01 -6.4298398792743683e-02</leafValues></_>
        <_>
          <internalNodes>
            0 -1 567 1.7459141090512276e-02</internalNodes>
          <leafValues>
            3.2504241913557053e-02 -8.4447419643402100e-01</leafValues></_>
        <_>
          <internalNodes>
            0 -1 1379 -1.6991198062896729e-03</internalNodes>
          <leafValues>
            2.5957706570625305e-01 -1.0064435005187988e-01</leafValues></_>
        <_>
          <internalNodes>
            0 -1 828 -5.4528918117284775e-02</internalNodes>
          <leafValues>
            -3.9841410517692566e-01 6.0047063976526260e-02</leafValues></_>
        <_>
          <internalNodes>
            0 -1 909 -1.4978667721152306e-02</internalNodes>
          <leafValues>
            -9.0197575092315674e-01 2.3823000490665436e-02</leafValues></_>
        <_>
          <internalNodes>
            0 -1 945 -1.9416955765336752e-03</internalNodes>
          <leafValues>
            -3.2332214713096619e-01 6.4550206065177917e-02</leafValues></_>
        <_>
          <internalNodes>
            0 -1 117 2.2500853985548019e-02</internalNodes>
          <leafValues>
            3.6828640848398209e-02 -6.3465589284896851e-01</leafValues></_>
        <_>
          <internalNodes>
            0 -1 1322 -1.8472175579518080e-03</internalNodes>
          <leafValues>
            2.8441888093948364e-01 -8.7484896183013916e-02</leafValues></_>
        <_>
          <internalNodes>
            0 -1 23 -9.6290642395615578e-03</internalNodes>
          <leafValues>
            2.1912245452404022e-01 -1.0528350621461868e-01</leafValues></_>
        <_>
          <internalNodes>
            0 -1 1231 1.3914693146944046e-02</internalNodes>
          <leafValues>
            3.0159778892993927e-02 -6.6869598627090454e-01</leafValues></_>
        <_>
          <internalNodes>
            0 -1 1229 -1.5219389460980892e-03</internalNodes>
          <leafValues>
            2.4754606187343597e-01 -8.9781038463115692e-02</leafValues></_>
        <_>
          <internalNodes>
            0 -1 412 -3.0727972625754774e-04</internalNodes>
          <leafValues>
            -2.6192465424537659e-01 9.5692321658134460e-02</leafValues></_>
        <_>
          <internalNodes>
            0 -1 906 -1.3215204700827599e-02</internalNodes>
          <leafValues>
            5.0715041160583496e-01 -5.0065342336893082e-02</leafValues></_>
        <_>
          <internalNodes>
            0 -1 1044 -8.9172273874282837e-04</internalNodes>
          <leafValues>
            -3.2744947075843811e-01 8.4666348993778229e-02</leafValues></_>
        <_>
          <internalNodes>
            0 -1 1144 6.6762836650013924e-04</internalNodes>
          <leafValues>
            -1.2735405564308167e-01 1.7611645162105560e-01</leafValues></_>
        <_>
          <internalNodes>
            0 -1 188 4.2388509027659893e-03</internalNodes>
          <leafValues>
            -8.3504162728786469e-02 2.6911553740501404e-01</leafValues></_>
        <_>
          <internalNodes>
            0 -1 1166 -3.3398224040865898e-03</internalNodes>
          <leafValues>
            5.2774482965469360e-01 -4.3645482510328293e-02</leafValues></_>
        <_>
          <internalNodes>
            0 -1 601 -6.2103392556309700e-03</internalNodes>
          <leafValues>
            2.8819617629051208e-01 -7.5033612549304962e-02</leafValues></_>
        <_>
          <internalNodes>
            0 -1 874 3.9619226008653641e-03</internalNodes>
          <leafValues>
            -8.5138499736785889e-02 2.9939395189285278e-01</leafValues></_></weakClassifiers></_>
    <!-- stage 8 -->
    <_>
      <maxWeakCount>53</maxWeakCount>
      <stageThreshold>-9.8460388183593750e-01</stageThreshold>
      <weakClassifiers>
        <_>
          <internalNodes>
            0 -1 532 -4.3842621147632599e-02</internalNodes>
          <leafValues>
            5.9754222631454468e-01 -1.6560238599777222e-01</leafValues></_>
        <_>
          <internalNodes>
            0 -1 222 -4.9650920554995537e-03</internalNodes>
          <leafValues>
            3.8337153196334839e-01 -1.7166487872600555e-01</leafValues></_>
        <_>
          <internalNodes>
            0 -1 499 5.5346079170703888e-02</internalNodes>
          <leafValues>
            -1.4025248587131500e-01 5.4069638252258301e-01</leafValues></_>
        <_>
          <internalNodes>
            0 -1 259 5.2749872207641602e-02</internalNodes>
          <leafValues>
            -9.2155762016773224e-02 5.2066165208816528e-01</leafValues></_>
        <_>
          <internalNodes>
            0 -1 403 -5.4320432245731354e-02</internalNodes>
          <leafValues>
            6.3491052389144897e-01 -2.6336297392845154e-02</leafValues></_>
        <_>
          <internalNodes>
            0 -1 1373 -8.7537933140993118e-03</internalNodes>
          <leafValues>
            4.1573327779769897e-01 -9.6894986927509308e-02</leafValues></_>
        <_>
          <internalNodes>
            0 -1 761 -4.0226830169558525e-03</internalNodes>
          <leafValues>
            -5.7901006937026978e-01 4.4273823499679565e-02</leafValues></_>
        <_>
          <internalNodes>
            0 -1 137 3.9829216897487640e-02</internalNodes>
          <leafValues>
            -1.0002794116735458e-01 3.3257153630256653e-01</leafValues></_>
        <_>
          <internalNodes>
            0 -1 869 -9.7449962049722672e-04</internalNodes>
          <leafValues>
            -3.6181837320327759e-01 8.0274403095245361e-02</leafValues></_>
        <_>
          <internalNodes>
            0 -1 52 9.3580540269613266e-03</internalNodes>
          <leafValues>
            -5.0334222614765167e-02 5.1065111160278320e-01</leafValues></_>
        <_>
          <internalNodes>
            0 -1 872 4.5686337398365140e-04</internalNodes>
          <leafValues>
            1.1910974234342575e-01 -3.1436774134635925e-01</leafValues></_>
        <_>
          <internalNodes>
            0 -1 361 -2.1748045086860657e-01</internalNodes>
          <leafValues>
            -6.2115657329559326e-01 4.9971556290984154e-03</leafValues></_>
        <_>
          <internalNodes>
            0 -1 1131 -4.3977373279631138e-03</internalNodes>
          <leafValues>
            -6.3450384140014648e-01 6.0198359191417694e-02</leafValues></_>
        <_>
          <internalNodes>
            0 -1 1261 -1.4806040780968033e-05</internalNodes>
          <leafValues>
            1.5138137340545654e-01 -1.9022236764431000e-01</leafValues></_>
        <_>
          <internalNodes>
            0 -1 679 8.3391591906547546e-03</internalNodes>
          <leafValues>
            -5.8759231120347977e-02 4.5791813731193542e-01</leafValues></_>
        <_>
          <internalNodes>
            0 -1 972 -2.2567803971469402e-03</internalNodes>
          <leafValues>
            -4.7115251421928406e-01 5.5969458073377609e-02</leafValues></_>
        <_>
          <internalNodes>
            0 -1 1115 -1.2081789463991299e-05</internalNodes>
          <leafValues>
            1.8798469007015228e-01 -1.4699862897396088e-01</leafValues></_>
        <_>
          <internalNodes>
            0 -1 1235 1.4864274817227852e-05</internalNodes>
          <leafValues>
            -1.3300982117652893e-01 1.9251921772956848e-01</leafValues></_>
        <_>
          <internalNodes>
            0 -1 80 1.0529672354459763e-01</internalNodes>
          <leafValues>
            4.8250872641801834e-02 -4.5663106441497803e-01</leafValues></_>
        <_>
          <internalNodes>
            0 -1 911 1.0100945830345154e-02</internalNodes>
          <leafValues>
            -5.4527010768651962e-02 4.7162705659866333e-01</leafValues></_>
        <_>
          <internalNodes>
            0 -1 871 -1.0629732161760330e-02</internalNodes>
          <leafValues>
            3.5453754663467407e-01 -8.4770351648330688e-02</leafValues></_>
        <_>
          <internalNodes>
            0 -1 858 5.9505202807486057e-04</internalNodes>
          <leafValues>
            8.3009324967861176e-02 -3.0393111705780029e-01</leafValues></_>
        <_>
          <internalNodes>
            0 -1 866 -1.8099378794431686e-02</internalNodes>
          <leafValues>
            2.1037667989730835e-01 -1.1188288778066635e-01</leafValues></_>
        <_>
          <internalNodes>
            0 -1 1171 -6.5376795828342438e-04</internalNodes>
          <leafValues>
            -4.0271502733230591e-01 5.8335855603218079e-02</leafValues></_>
        <_>
          <internalNodes>
            0 -1 625 1.4547147657140158e-05</internalNodes>
          <leafValues>
            -1.5125499665737152e-01 1.6932108998298645e-01</leafValues></_>
        <_>
          <internalNodes>
            0 -1 331 -1.5131034888327122e-02</internalNodes>
          <leafValues>
            3.8748466968536377e-01 -6.6260464489459991e-02</leafValues></_>
        <_>
          <internalNodes>
            0 -1 1095 -6.1442318838089705e-04</internalNodes>
          <leafValues>
            -2.8448897600173950e-01 8.9850030839443207e-02</leafValues></_>
        <_>
          <internalNodes>
            0 -1 1031 -1.3144751392246690e-05</internalNodes>
          <leafValues>
            1.4633625745773315e-01 -1.5864847600460052e-01</leafValues></_>
        <_>
          <internalNodes>
            0 -1 1077 -4.8680134117603302e-02</internalNodes>
          <leafValues>
            -6.1781257390975952e-01 4.0716633200645447e-02</leafValues></_>
        <_>
          <internalNodes>
            0 -1 618 5.7243499904870987e-03</internalNodes>
          <leafValues>
            -8.0575093626976013e-02 3.2054373621940613e-01</leafValues></_>
        <_>
          <internalNodes>
            0 -1 185 -2.0000296831130981e-01</internalNodes>
          <leafValues>
            -9.0402173995971680e-01 2.9523905366659164e-02</leafValues></_>
        <_>
          <internalNodes>
            0 -1 152 6.4280349761247635e-03</internalNodes>
          <leafValues>
            -6.8286687135696411e-02 3.8945335149765015e-01</leafValues></_>
        <_>
          <internalNodes>
            0 -1 1059 -7.4678780511021614e-03</internalNodes>
          <leafValues>
            -6.1511236429214478e-01 4.4700328260660172e-02</leafValues></_>
        <_>
          <internalNodes>
            0 -1 160 -1.2910097211715765e-05</internalNodes>
          <leafValues>
            1.9707465171813965e-01 -1.2552736699581146e-01</leafValues></_>
        <_>
          <internalNodes>
            0 -1 172 9.2194369062781334e-03</internalNodes>
          <leafValues>
            8.4762610495090485e-02 -3.3834871649742126e-01</leafValues></_>
        <_>
          <internalNodes>
            0 -1 577 1.6647612937958911e-05</internalNodes>
          <leafValues>
            -1.8866334855556488e-01 1.3941189646720886e-01</leafValues></_>
        <_>
          <internalNodes>
            0 -1 575 1.6268162289634347e-03</internalNodes>
          <leafValues>
            7.3875710368156433e-02 -4.0820735692977905e-01</leafValues></_>
        <_>
          <internalNodes>
            0 -1 840 1.4967994502512738e-05</internalNodes>
          <leafValues>
            -1.8575990200042725e-01 1.5812891721725464e-01</leafValues></_>
        <_>
          <internalNodes>
            0 -1 702 4.4317087158560753e-03</internalNodes>
          <leafValues>
            -7.0658244192600250e-02 3.4949305653572083e-01</leafValues></_>
        <_>
          <internalNodes>
            0 -1 4 5.9812832623720169e-03</internalNodes>
          <leafValues>
            -7.6802939176559448e-02 3.0127686262130737e-01</leafValues></_>
        <_>
          <internalNodes>
            0 -1 716 8.9544936781749129e-04</internalNodes>
          <leafValues>
            7.4334174394607544e-02 -3.2804083824157715e-01</leafValues></_>
        <_>
          <internalNodes>
            0 -1 50 3.8790255784988403e-03</internalNodes>
          <leafValues>
            -7.7321596443653107e-02 2.9788082838058472e-01</leafValues></_>
        <_>
          <internalNodes>
            0 -1 808 -1.0033248690888286e-03</internalNodes>
          <leafValues>
            -3.8922944664955139e-01 6.2909863889217377e-02</leafValues></_>
        <_>
          <internalNodes>
            0 -1 854 1.4871842722641304e-05</internalNodes>
          <leafValues>
            -1.5437830984592438e-01 1.4841337502002716e-01</leafValues></_>
        <_>
          <internalNodes>
            0 -1 15 3.2273691892623901e-01</internalNodes>
          <leafValues>
            3.0942171812057495e-02 -7.4306589365005493e-01</leafValues></_>
        <_>
          <internalNodes>
            0 -1 1282 -5.8782598935067654e-03</internalNodes>
          <leafValues>
            -2.6587417721748352e-01 9.2661418020725250e-02</leafValues></_>
        <_>
          <internalNodes>
            0 -1 928 -1.9436966395005584e-03</internalNodes>
          <leafValues>
            -3.7038639187812805e-01 6.9890201091766357e-02</leafValues></_>
        <_>
          <internalNodes>
            0 -1 1242 1.8429496776661836e-05</internalNodes>
          <leafValues>
            -1.5549126267433167e-01 1.5660394728183746e-01</leafValues></_>
        <_>
          <internalNodes>
            0 -1 1360 -1.6979929569060914e-05</internalNodes>
          <leafValues>
            1.6672050952911377e-01 -1.4633381366729736e-01</leafValues></_>
        <_>
          <internalNodes>
            0 -1 1355 1.2510137821664102e-05</internalNodes>
          <leafValues>
            -1.6326372325420380e-01 1.6751377284526825e-01</leafValues></_>
        <_>
          <internalNodes>
            0 -1 345 6.9261747412383556e-03</internalNodes>
          <leafValues>
            -8.6008809506893158e-02 2.8394052386283875e-01</leafValues></_>
        <_>
          <internalNodes>
            0 -1 892 -2.7833608910441399e-03</internalNodes>
          <leafValues>
            -4.6817684173583984e-01 5.4822392761707306e-02</leafValues></_>
        <_>
          <internalNodes>
            0 -1 744 -5.8974106796085835e-03</internalNodes>
          <leafValues>
            4.7163552045822144e-01 -5.9905543923377991e-02</leafValues></_></weakClassifiers></_>
    <!-- stage 9 -->
    <_>
      <maxWeakCount>58</maxWeakCount>
      <stageThreshold>-8.2035052776336670e-01</stageThreshold>
      <weakClassifiers>
        <_>
          <internalNodes>
            0 -1 810 -8.7737645953893661e-03</internalNodes>
          <leafValues>
            3.9060708880424500e-01 -1.6031970083713531e-01</leafValues></_>
        <_>
          <internalNodes>
            0 -1 404 1.3419315218925476e-02</internalNodes>
          <leafValues>
            -1.1009646952152252e-01 4.0909597277641296e-01</leafValues></_>
        <_>
          <internalNodes>
            0 -1 1090 -1.5562613261863589e-03</internalNodes>
          <leafValues>
            -4.5911553502082825e-01 3.4296311438083649e-02</leafValues></_>
        <_>
          <internalNodes>
            0 -1 223 -5.1615439355373383e-02</internalNodes>
          <leafValues>
            4.0049853920936584e-01 -7.2594545781612396e-02</leafValues></_>
        <_>
          <internalNodes>
            0 -1 106 2.5729553773999214e-02</internalNodes>
          <leafValues>
            -2.8903758153319359e-02 4.5886200666427612e-01</leafValues></_>
        <_>
          <internalNodes>
            0 -1 1114 2.0019838586449623e-02</internalNodes>
          <leafValues>
            -1.0076480358839035e-01 3.2639828324317932e-01</leafValues></_>
        <_>
          <internalNodes>
            0 -1 953 -3.3821657416410744e-04</internalNodes>
          <leafValues>
            -3.6405500769615173e-01 4.7155231237411499e-02</leafValues></_>
        <_>
          <internalNodes>
            0 -1 953 3.6101526347920299e-04</internalNodes>
          <leafValues>
            1.1600393056869507e-01 -3.1755292415618896e-01</leafValues></_>
        <_>
          <internalNodes>
            0 -1 1189 -1.3452653773128986e-02</internalNodes>
          <leafValues>
            5.7214117050170898e-01 -7.0055872201919556e-02</leafValues></_>
        <_>
          <internalNodes>
            0 -1 939 -1.0125879198312759e-03</internalNodes>
          <leafValues>
            -3.4758129715919495e-01 1.0408459603786469e-01</leafValues></_>
        <_>
          <internalNodes>
            0 -1 1272 1.9977595657110214e-02</internalNodes>
          <leafValues>
            -8.0534741282463074e-02 3.7454447150230408e-01</leafValues></_>
        <_>
          <internalNodes>
            0 -1 296 -4.1123656556010246e-03</internalNodes>
          <leafValues>
            5.1732701063156128e-01 -5.3471438586711884e-02</leafValues></_>
        <_>
          <internalNodes>
            0 -1 297 2.9089936288073659e-04</internalNodes>
          <leafValues>
            1.1477815359830856e-01 -2.4342638254165649e-01</leafValues></_>
        <_>
          <internalNodes>
            0 -1 843 2.5040518958121538e-03</internalNodes>
          <leafValues>
            1.1891339719295502e-01 -2.4435453116893768e-01</leafValues></_>
        <_>
          <internalNodes>
            0 -1 1292 9.1676856391131878e-04</internalNodes>
          <leafValues>
            1.0674313455820084e-01 -2.4601599574089050e-01</leafValues></_>
        <_>
          <internalNodes>
            0 -1 313 4.0299054235219955e-02</internalNodes>
          <leafValues>
            5.0195988267660141e-02 -6.4954411983489990e-01</leafValues></_>
        <_>
          <internalNodes>
            0 -1 406 1.1313054710626602e-02</internalNodes>
          <leafValues>
            3.3567655831575394e-02 -5.5791097879409790e-01</leafValues></_>
        <_>
          <internalNodes>
            0 -1 928 4.8907157033681870e-03</internalNodes>
          <leafValues>
            3.7394560873508453e-02 -5.7581490278244019e-01</leafValues></_>
        <_>
          <internalNodes>
            0 -1 58 2.3889229632914066e-03</internalNodes>
          <leafValues>
            -1.3698373734951019e-01 1.7380201816558838e-01</leafValues></_>
        <_>
          <internalNodes>
            0 -1 675 7.4019879102706909e-02</internalNodes>
          <leafValues>
            3.3296890556812286e-02 -6.1703747510910034e-01</leafValues></_>
        <_>
          <internalNodes>
            0 -1 1121 -6.2218811362981796e-03</internalNodes>
          <leafValues>
            2.3283632099628448e-01 -9.3902885913848877e-02</leafValues></_>
        <_>
          <internalNodes>
            0 -1 1216 -1.5950933098793030e-02</internalNodes>
          <leafValues>
            3.7654522061347961e-01 -6.9146297872066498e-02</leafValues></_>
        <_>
          <internalNodes>
            0 -1 443 8.3778416737914085e-03</internalNodes>
          <leafValues>
            -1.0681418329477310e-01 2.1438507735729218e-01</leafValues></_>
        <_>
          <internalNodes>
            0 -1 154 -1.4619734138250351e-03</internalNodes>
          <leafValues>
            -3.1932279467582703e-01 7.2445869445800781e-02</leafValues></_>
        <_>
          <internalNodes>
            0 -1 278 5.4744962835684419e-04</internalNodes>
          <leafValues>
            1.2168472260236740e-01 -2.2166042029857635e-01</leafValues></_>
        <_>
          <internalNodes>
            0 -1 248 -2.1353742107748985e-02</internalNodes>
          <leafValues>
            3.1277802586555481e-01 -7.1699760854244232e-02</leafValues></_>
        <_>
          <internalNodes>
            0 -1 1394 -2.8382008895277977e-03</internalNodes>
          <leafValues>
            2.7992480993270874e-01 -7.2662763297557831e-02</leafValues></_>
        <_>
          <internalNodes>
            0 -1 596 -1.2288098223507404e-02</internalNodes>
          <leafValues>
            2.8420141339302063e-01 -7.6890215277671814e-02</leafValues></_>
        <_>
          <internalNodes>
            0 -1 712 5.1738217007368803e-04</internalNodes>
          <leafValues>
            8.8876336812973022e-02 -2.4460391700267792e-01</leafValues></_>
        <_>
          <internalNodes>
            0 -1 706 -1.7342392820864916e-03</internalNodes>
          <leafValues>
            -3.6698687076568604e-01 7.2274319827556610e-02</leafValues></_>
        <_>
          <internalNodes>
            0 -1 262 2.0548501983284950e-02</internalNodes>
          <leafValues>
            -7.7964164316654205e-02 3.1114196777343750e-01</leafValues></_>
        <_>
          <internalNodes>
            0 -1 602 1.2081789463991299e-05</internalNodes>
          <leafValues>
            -1.3647261261940002e-01 1.7101134359836578e-01</leafValues></_>
        <_>
          <internalNodes>
            0 -1 762 -3.6542913876473904e-03</internalNodes>
          <leafValues>
            4.1625717282295227e-01 -5.4160039871931076e-02</leafValues></_>
        <_>
          <internalNodes>
            0 -1 1291 -5.3602951811626554e-04</internalNodes>
          <leafValues>
            -2.7320533990859985e-01 7.8124888241291046e-02</leafValues></_>
        <_>
          <internalNodes>
            0 -1 1254 -9.6672301879152656e-04</internalNodes>
          <leafValues>
            -2.2629639506340027e-01 9.7729124128818512e-02</leafValues></_>
        <_>
          <internalNodes>
            0 -1 1397 -5.5834306403994560e-03</internalNodes>
          <leafValues>
            5.1514059305191040e-01 -4.1925515979528427e-02</leafValues></_>
        <_>
          <internalNodes>
            0 -1 491 6.5375473350286484e-03</internalNodes>
          <leafValues>
            -1.1611783504486084e-01 1.7511543631553650e-01</leafValues></_>
        <_>
          <internalNodes>
            0 -1 1218 -1.7933112103492022e-03</internalNodes>
          <leafValues>
            -2.7688580751419067e-01 8.0452091991901398e-02</leafValues></_>
        <_>
          <internalNodes>
            0 -1 314 -6.7985774949193001e-03</internalNodes>
          <leafValues>
            2.3259544372558594e-01 -9.5529012382030487e-02</leafValues></_>
        <_>
          <internalNodes>
            0 -1 1252 9.9017866887152195e-04</internalNodes>
          <leafValues>
            8.9684680104255676e-02 -2.3678417503833771e-01</leafValues></_>
        <_>
          <internalNodes>
            0 -1 1297 -1.4549907064065337e-05</internalNodes>
          <leafValues>
            1.6074961423873901e-01 -1.4689233899116516e-01</leafValues></_>
        <_>
          <internalNodes>
            0 -1 1226 -1.5558527593384497e-05</internalNodes>
          <leafValues>
            1.7518591880798340e-01 -1.2425322830677032e-01</leafValues></_>
        <_>
          <internalNodes>
            0 -1 178 1.2513257097452879e-03</internalNodes>
          <leafValues>
            9.1836214065551758e-02 -2.3666775226593018e-01</leafValues></_>
        <_>
          <internalNodes>
            0 -1 76 -5.0318017601966858e-03</internalNodes>
          <leafValues>
            3.1783938407897949e-01 -6.7932642996311188e-02</leafValues></_>
        <_>
          <internalNodes>
            0 -1 291 -6.7626626696437597e-04</internalNodes>
          <leafValues>
            -2.1260803937911987e-01 1.0162796825170517e-01</leafValues></_>
        <_>
          <internalNodes>
            0 -1 237 -3.4576196223497391e-02</internalNodes>
          <leafValues>
            2.1807987987995148e-01 -1.0553104430437088e-01</leafValues></_>
        <_>
          <internalNodes>
            0 -1 430 1.3634009286761284e-02</internalNodes>
          <leafValues>
            -8.6470298469066620e-02 2.7441495656967163e-01</leafValues></_>
        <_>
          <internalNodes>
            0 -1 1190 9.4967372715473175e-03</internalNodes>
          <leafValues>
            -2.8537590056657791e-02 7.2976469993591309e-01</leafValues></_>
        <_>
          <internalNodes>
            0 -1 1226 1.2081789463991299e-05</internalNodes>
          <leafValues>
            -1.3542687892913818e-01 1.6320481896400452e-01</leafValues></_>
        <_>
          <internalNodes>
            0 -1 772 3.1008912250399590e-02</internalNodes>
          <leafValues>
            -3.0317010357975960e-02 6.5121793746948242e-01</leafValues></_>
        <_>
          <internalNodes>
            0 -1 116 5.7186381891369820e-03</internalNodes>
          <leafValues>
            4.7113072127103806e-02 -4.5463389158248901e-01</leafValues></_>
        <_>
          <internalNodes>
            0 -1 258 4.5823633670806885e-02</internalNodes>
          <leafValues>
            -1.4483684301376343e-01 1.4146356284618378e-01</leafValues></_>
        <_>
          <internalNodes>
            0 -1 533 7.2096697986125946e-02</internalNodes>
          <leafValues>
            -8.9687347412109375e-02 2.2642487287521362e-01</leafValues></_>
        <_>
          <internalNodes>
            0 -1 650 1.0430403798818588e-01</internalNodes>
          <leafValues>
            3.6324281245470047e-02 -6.3947957754135132e-01</leafValues></_>
        <_>
          <internalNodes>
            0 -1 700 1.6670580953359604e-03</internalNodes>
          <leafValues>
            4.8165887594223022e-02 -3.7696218490600586e-01</leafValues></_>
        <_>
          <internalNodes>
            0 -1 200 -3.3983189612627029e-02</internalNodes>
          <leafValues>
            3.3955472707748413e-01 -6.0682769864797592e-02</leafValues></_>
        <_>
          <internalNodes>
            0 -1 340 1.3639244571095333e-05</internalNodes>
          <leafValues>
            -1.4683108031749725e-01 1.4297717809677124e-01</leafValues></_>
        <_>
          <internalNodes>
            0 -1 1225 1.4475278556346893e-02</internalNodes>
          <leafValues>
            -3.8309205323457718e-02 4.9785760045051575e-01</leafValues></_></weakClassifiers></_>
    <!-- stage 10 -->
    <_>
      <maxWeakCount>61</maxWeakCount>
      <stageThreshold>-9.0261530876159668e-01</stageThreshold>
      <weakClassifiers>
        <_>
          <internalNodes>
            0 -1 574 6.3444077968597412e-02</internalNodes>
          <leafValues>
            -1.9114106893539429e-01 4.3011918663978577e-01</leafValues></_>
        <_>
          <internalNodes>
            0 -1 995 5.3878589533269405e-03</internalNodes>
          <leafValues>
            -1.4310579001903534e-01 3.9423656463623047e-01</leafValues></_>
        <_>
          <internalNodes>
            0 -1 411 -1.5061900019645691e-01</internalNodes>
          <leafValues>
            5.4934525489807129e-01 -1.2460891902446747e-01</leafValues></_>
        <_>
          <internalNodes>
            0 -1 356 6.3861291855573654e-03</internalNodes>
          <leafValues>
            -1.0577967017889023e-01 3.6180365085601807e-01</leafValues></_>
        <_>
          <internalNodes>
            0 -1 1376 -5.0773406401276588e-03</internalNodes>
          <leafValues>
            4.0237271785736084e-01 -1.1860135942697525e-01</leafValues></_>
        <_>
          <internalNodes>
            0 -1 1049 -2.4672862142324448e-02</internalNodes>
          <leafValues>
            5.6418192386627197e-01 -7.0194885134696960e-02</leafValues></_>
        <_>
          <internalNodes>
            0 -1 371 -5.3526423871517181e-03</internalNodes>
          <leafValues>
            3.3773636817932129e-01 -9.5835052430629730e-02</leafValues></_>
        <_>
          <internalNodes>
            0 -1 1309 -5.9954938478767872e-04</internalNodes>
          <leafValues>
            4.3641516566276550e-01 -5.6359577924013138e-02</leafValues></_>
        <_>
          <internalNodes>
            0 -1 84 2.1884483285248280e-03</internalNodes>
          <leafValues>
            -9.5005154609680176e-02 3.1483387947082520e-01</leafValues></_>
        <_>
          <internalNodes>
            0 -1 77 -6.0809706337749958e-03</internalNodes>
          <leafValues>
            4.0863072872161865e-01 -8.3479024469852448e-02</leafValues></_>
        <_>
          <internalNodes>
            0 -1 1019 7.7107161283493042e-02</internalNodes>
          <leafValues>
            6.0201194137334824e-02 -5.9674698114395142e-01</leafValues></_>
        <_>
          <internalNodes>
            0 -1 1371 4.0593612939119339e-03</internalNodes>
          <leafValues>
            -5.2748214453458786e-02 6.4948338270187378e-01</leafValues></_>
        <_>
          <internalNodes>
            0 -1 541 5.0355149433016777e-03</internalNodes>
          <leafValues>
            -8.3208978176116943e-02 2.6700353622436523e-01</leafValues></_>
        <_>
          <internalNodes>
            0 -1 1087 2.1231477148830891e-03</internalNodes>
          <leafValues>
            6.1539795249700546e-02 -4.0334743261337280e-01</leafValues></_>
        <_>
          <internalNodes>
            0 -1 776 -6.0872688889503479e-02</internalNodes>
          <leafValues>
            5.3740769624710083e-01 -4.4766396284103394e-02</leafValues></_>
        <_>
          <internalNodes>
            0 -1 887 -1.2821438908576965e-01</internalNodes>
          <leafValues>
            -5.8225429058074951e-01 4.1540332138538361e-02</leafValues></_>
        <_>
          <internalNodes>
            0 -1 792 3.3090606331825256e-02</internalNodes>
          <leafValues>
            9.0507179498672485e-02 -3.0415111780166626e-01</leafValues></_>
        <_>
          <internalNodes>
            0 -1 627 -3.8016517646610737e-03</internalNodes>
          <leafValues>
            1.2166070938110352e-01 -2.0288823544979095e-01</leafValues></_>
        <_>
          <internalNodes>
            0 -1 68 2.5619593262672424e-01</internalNodes>
          <leafValues>
            1.2455848976969719e-02 -8.5169178247451782e-01</leafValues></_>
        <_>
          <internalNodes>
            0 -1 24 8.5684601217508316e-03</internalNodes>
          <leafValues>
            -1.7317184805870056e-01 1.3498800992965698e-01</leafValues></_>
        <_>
          <internalNodes>
            0 -1 153 1.3702295720577240e-02</internalNodes>
          <leafValues>
            -5.1383305341005325e-02 4.4200119376182556e-01</leafValues></_>
        <_>
          <internalNodes>
            0 -1 951 1.4451442658901215e-01</internalNodes>
          <leafValues>
            5.2644331008195877e-02 -5.0749027729034424e-01</leafValues></_>
        <_>
          <internalNodes>
            0 -1 956 -7.5405933894217014e-03</internalNodes>
          <leafValues>
            -8.1989532709121704e-01 1.9700666889548302e-02</leafValues></_>
        <_>
          <internalNodes>
            0 -1 722 2.0782561600208282e-01</internalNodes>
          <leafValues>
            6.8430185317993164e-02 -3.2295614480972290e-01</leafValues></_>
        <_>
          <internalNodes>
            0 -1 279 4.4310432858765125e-03</internalNodes>
          <leafValues>
            -1.1088906228542328e-01 2.2254490852355957e-01</leafValues></_>
        <_>
          <internalNodes>
            0 -1 614 4.8904512077569962e-03</internalNodes>
          <leafValues>
            -8.7685711681842804e-02 2.8941711783409119e-01</leafValues></_>
        <_>
          <internalNodes>
            0 -1 198 6.9673031568527222e-02</internalNodes>
          <leafValues>
            4.0912669152021408e-02 -5.6845164299011230e-01</leafValues></_>
        <_>
          <internalNodes>
            0 -1 859 -5.8916909620165825e-04</internalNodes>
          <leafValues>
            -2.4982127547264099e-01 8.9278496801853180e-02</leafValues></_>
        <_>
          <internalNodes>
            0 -1 1294 1.0955291800200939e-02</internalNodes>
          <leafValues>
            -5.8971472084522247e-02 3.8203895092010498e-01</leafValues></_>
        <_>
          <internalNodes>
            0 -1 708 -3.9079035632312298e-03</internalNodes>
          <leafValues>
            -7.5602364540100098e-01 3.0730195343494415e-02</leafValues></_>
        <_>
          <internalNodes>
            0 -1 665 9.4004988204687834e-04</internalNodes>
          <leafValues>
            -8.2832127809524536e-02 2.9901525378227234e-01</leafValues></_>
        <_>
          <internalNodes>
            0 -1 877 1.7030682647600770e-03</internalNodes>
          <leafValues>
            -1.3245031237602234e-01 1.7953361570835114e-01</leafValues></_>
        <_>
          <internalNodes>
            0 -1 1258 -3.3283496741205454e-03</internalNodes>
          <leafValues>
            3.4772413969039917e-01 -5.9284377843141556e-02</leafValues></_>
        <_>
          <internalNodes>
            0 -1 1154 -9.5045473426580429e-04</internalNodes>
          <leafValues>
            -2.2618982195854187e-01 1.0319504886865616e-01</leafValues></_>
        <_>
          <internalNodes>
            0 -1 891 2.8742118738591671e-03</internalNodes>
          <leafValues>
            3.3161584287881851e-02 -6.2357974052429199e-01</leafValues></_>
        <_>
          <internalNodes>
            0 -1 591 1.0097056627273560e-02</internalNodes>
          <leafValues>
            -7.2654739022254944e-02 3.1328174471855164e-01</leafValues></_>
        <_>
          <internalNodes>
            0 -1 784 -1.1078135669231415e-01</internalNodes>
          <leafValues>
            -4.5334708690643311e-01 5.0676111131906509e-02</leafValues></_>
        <_>
          <internalNodes>
            0 -1 1096 -1.7931098118424416e-03</internalNodes>
          <leafValues>
            -3.2579708099365234e-01 5.9302743524312973e-02</leafValues></_>
        <_>
          <internalNodes>
            0 -1 506 -2.6159074157476425e-02</internalNodes>
          <leafValues>
            5.7704508304595947e-01 -4.2557507753372192e-02</leafValues></_>
        <_>
          <internalNodes>
            0 -1 978 -1.1998910922557116e-03</internalNodes>
          <leafValues>
            4.8043510317802429e-01 -4.0262009948492050e-02</leafValues></_>
        <_>
          <internalNodes>
            0 -1 81 3.2362562417984009e-01</internalNodes>
          <leafValues>
            4.2502231895923615e-02 -5.7651525735855103e-01</leafValues></_>
        <_>
          <internalNodes>
            0 -1 170 -1.2510119006037712e-02</internalNodes>
          <leafValues>
            5.8809930086135864e-01 -4.1709832847118378e-02</leafValues></_>
        <_>
          <internalNodes>
            0 -1 1003 -1.4768239343538880e-03</internalNodes>
          <leafValues>
            -3.0942279100418091e-01 7.3677256703376770e-02</leafValues></_>
        <_>
          <internalNodes>
            0 -1 1288 3.1290417537093163e-03</internalNodes>
          <leafValues>
            -7.7210023999214172e-02 2.9466363787651062e-01</leafValues></_>
        <_>
          <internalNodes>
            0 -1 249 -4.9915209412574768e-02</internalNodes>
          <leafValues>
            -3.3560961484909058e-01 6.4795456826686859e-02</leafValues></_>
        <_>
          <internalNodes>
            0 -1 703 2.5387436151504517e-01</internalNodes>
          <leafValues>
            5.5689755827188492e-02 -4.5065522193908691e-01</leafValues></_>
        <_>
          <internalNodes>
            0 -1 1270 1.2768854387104511e-02</internalNodes>
          <leafValues>
            2.4267034605145454e-02 -8.2240241765975952e-01</leafValues></_>
        <_>
          <internalNodes>
            0 -1 373 -5.1061541307717562e-04</internalNodes>
          <leafValues>
            -2.9466617107391357e-01 7.0904605090618134e-02</leafValues></_>
        <_>
          <internalNodes>
            0 -1 667 3.7252656184136868e-03</internalNodes>
          <leafValues>
            -6.4422331750392914e-02 3.6214590072631836e-01</leafValues></_>
        <_>
          <internalNodes>
            0 -1 635 -1.3013753108680248e-02</internalNodes>
          <leafValues>
            7.5296318531036377e-01 -3.1208943575620651e-02</leafValues></_>
        <_>
          <internalNodes>
            0 -1 879 -1.0909226257354021e-03</internalNodes>
          <leafValues>
            2.6009654998779297e-01 -7.8404039144515991e-02</leafValues></_>
        <_>
          <internalNodes>
            0 -1 719 5.1208469085395336e-04</internalNodes>
          <leafValues>
            6.8590864539146423e-02 -3.2392075657844543e-01</leafValues></_>
        <_>
          <internalNodes>
            0 -1 205 -6.6989301703870296e-03</internalNodes>
          <leafValues>
            5.7286792993545532e-01 -4.2933356016874313e-02</leafValues></_>
        <_>
          <internalNodes>
            0 -1 893 1.2910097211715765e-05</internalNodes>
          <leafValues>
            -1.1845437437295914e-01 1.6600157320499420e-01</leafValues></_>
        <_>
          <internalNodes>
            0 -1 1117 -8.4930955199524760e-04</internalNodes>
          <leafValues>
            -2.9611474275588989e-01 7.2677098214626312e-02</leafValues></_>
        <_>
          <internalNodes>
            0 -1 227 1.5043182065710425e-03</internalNodes>
          <leafValues>
            -1.0236442834138870e-01 2.0200389623641968e-01</leafValues></_>
        <_>
          <internalNodes>
            0 -1 562 9.8037696443498135e-04</internalNodes>
          <leafValues>
            -1.1225763708353043e-01 1.8062816560268402e-01</leafValues></_>
        <_>
          <internalNodes>
            0 -1 181 2.5933827273547649e-03</internalNodes>
          <leafValues>
            6.6705889999866486e-02 -3.5079267621040344e-01</leafValues></_>
        <_>
          <internalNodes>
            0 -1 1352 3.3410619944334030e-03</internalNodes>
          <leafValues>
            -5.8880578726530075e-02 3.7818297743797302e-01</leafValues></_>
        <_>
          <internalNodes>
            0 -1 1066 -3.0007828172529116e-05</internalNodes>
          <leafValues>
            1.7025274038314819e-01 -1.1371742188930511e-01</leafValues></_>
        <_>
          <internalNodes>
            0 -1 1324 -9.5839693676680326e-04</internalNodes>
          <leafValues>
            -2.4453894793987274e-01 7.8277505934238434e-02</leafValues></_></weakClassifiers></_>
    <!-- stage 11 -->
    <_>
      <maxWeakCount>71</maxWeakCount>
      <stageThreshold>-8.0388629436492920e-01</stageThreshold>
      <weakClassifiers>
        <_>
          <internalNodes>
            0 -1 757 -3.4983158111572266e-03</internalNodes>
          <leafValues>
            2.6433566212654114e-01 -2.4076433479785919e-01</leafValues></_>
        <_>
          <internalNodes>
            0 -1 19 5.6770108640193939e-03</internalNodes>
          <leafValues>
            -1.3859793543815613e-01 2.8893101215362549e-01</leafValues></_>
        <_>
          <internalNodes>
            0 -1 1357 -3.6848788149654865e-03</internalNodes>
          <leafValues>
            2.0056696236133575e-01 -1.3655841350555420e-01</leafValues></_>
        <_>
          <internalNodes>
            0 -1 164 -9.4906881451606750e-02</internalNodes>
          <leafValues>
            -6.3998371362686157e-01 3.8222219794988632e-02</leafValues></_>
        <_>
          <internalNodes>
            0 -1 609 4.6708143781870604e-04</internalNodes>
          <leafValues>
            1.1806956678628922e-01 -2.4947100877761841e-01</leafValues></_>
        <_>
          <internalNodes>
            0 -1 216 -4.4923398643732071e-02</internalNodes>
          <leafValues>
            2.5684764981269836e-01 -1.4269566535949707e-01</leafValues></_>
        <_>
          <internalNodes>
            0 -1 707 5.2749413996934891e-02</internalNodes>
          <leafValues>
            -3.5351868718862534e-02 3.2208183407783508e-01</leafValues></_>
        <_>
          <internalNodes>
            0 -1 777 1.4067958109080791e-02</internalNodes>
          <leafValues>
            -1.4655274152755737e-01 1.9357042014598846e-01</leafValues></_>
        <_>
          <internalNodes>
            0 -1 1358 1.6026966273784637e-02</internalNodes>
          <leafValues>
            -5.2297640591859818e-02 5.9032458066940308e-01</leafValues></_>
        <_>
          <internalNodes>
            0 -1 864 -2.0703123882412910e-03</internalNodes>
          <leafValues>
            -4.0680027008056641e-01 5.7402729988098145e-02</leafValues></_>
        <_>
          <internalNodes>
            0 -1 114 1.4607101678848267e-02</internalNodes>
          <leafValues>
            -5.4820977151393890e-02 3.9072591066360474e-01</leafValues></_>
        <_>
          <internalNodes>
            0 -1 747 -5.4562045261263847e-03</internalNodes>
          <leafValues>
            1.6591167449951172e-01 -1.3317589461803436e-01</leafValues></_>
        <_>
          <internalNodes>
            0 -1 1157 4.4162701815366745e-02</internalNodes>
          <leafValues>
            4.6045944094657898e-02 -5.2864080667495728e-01</leafValues></_>
        <_>
          <internalNodes>
            0 -1 555 4.8496839590370655e-03</internalNodes>
          <leafValues>
            -9.0285129845142365e-02 2.8845945000648499e-01</leafValues></_>
        <_>
          <internalNodes>
            0 -1 466 1.6635922947898507e-03</internalNodes>
          <leafValues>
            6.2838770449161530e-02 -3.6091807484626770e-01</leafValues></_>
        <_>
          <internalNodes>
            0 -1 1223 2.5665052235126495e-03</internalNodes>
          <leafValues>
            6.8917177617549896e-02 -3.2885035872459412e-01</leafValues></_>
        <_>
          <internalNodes>
            0 -1 472 3.0462965369224548e-03</internalNodes>
          <leafValues>
            -7.7230013906955719e-02 2.8244644403457642e-01</leafValues></_>
        <_>
          <internalNodes>
            0 -1 1097 -6.1997366137802601e-03</internalNodes>
          <leafValues>
            4.0642029047012329e-01 -5.7405617088079453e-02</leafValues></_>
        <_>
          <internalNodes>
            0 -1 688 -1.2910097211715765e-05</internalNodes>
          <leafValues>
            1.4758373796939850e-01 -1.4701618254184723e-01</leafValues></_>
        <_>
          <internalNodes>
            0 -1 937 3.7398664280772209e-03</internalNodes>
          <leafValues>
            3.0828479677438736e-02 -6.7155373096466064e-01</leafValues></_>
        <_>
          <internalNodes>
            0 -1 965 -3.5093293990939856e-03</internalNodes>
          <leafValues>
            2.4449050426483154e-01 -9.7063720226287842e-02</leafValues></_>
        <_>
          <internalNodes>
            0 -1 1417 -3.6912277573719621e-04</internalNodes>
          <leafValues>
            -2.5299420952796936e-01 1.0325613617897034e-01</leafValues></_>
        <_>
          <internalNodes>
            0 -1 826 2.7362231165170670e-02</internalNodes>
          <leafValues>
            -9.6831738948822021e-02 2.6427307724952698e-01</leafValues></_>
        <_>
          <internalNodes>
            0 -1 1051 -2.0879349112510681e-01</internalNodes>
          <leafValues>
            -7.3986494541168213e-01 4.3110404163599014e-02</leafValues></_>
        <_>
          <internalNodes>
            0 -1 711 4.0735927177593112e-04</internalNodes>
          <leafValues>
            6.6610604524612427e-02 -3.1154778599739075e-01</leafValues></_>
        <_>
          <internalNodes>
            0 -1 634 1.7687313258647919e-02</internalNodes>
          <leafValues>
            -5.6265130639076233e-02 4.1525587439537048e-01</leafValues></_>
        <_>
          <internalNodes>
            0 -1 1392 -8.2071387441828847e-04</internalNodes>
          <leafValues>
            -3.2708787918090820e-01 6.5817400813102722e-02</leafValues></_>
        <_>
          <internalNodes>
            0 -1 739 7.8720115125179291e-03</internalNodes>
          <leafValues>
            -6.6717945039272308e-02 3.0842995643615723e-01</leafValues></_>
        <_>
          <internalNodes>
            0 -1 583 1.8170908093452454e-01</internalNodes>
          <leafValues>
            8.4590017795562744e-02 -2.3151293396949768e-01</leafValues></_>
        <_>
          <internalNodes>
            0 -1 511 2.0610839128494263e-03</internalNodes>
          <leafValues>
            7.1906968951225281e-02 -3.1469359993934631e-01</leafValues></_>
        <_>
          <internalNodes>
            0 -1 287 4.1340850293636322e-02</internalNodes>
          <leafValues>
            2.2812899202108383e-02 -7.0853942632675171e-01</leafValues></_>
        <_>
          <internalNodes>
            0 -1 1091 -1.5879486454650760e-05</internalNodes>
          <leafValues>
            9.9701724946498871e-02 -1.9673772156238556e-01</leafValues></_>
        <_>
          <internalNodes>
            0 -1 749 -2.8673950582742691e-03</internalNodes>
          <leafValues>
            -4.8035994172096252e-01 3.8140449672937393e-02</leafValues></_>
        <_>
          <internalNodes>
            0 -1 416 -1.0557197034358978e-02</internalNodes>
          <leafValues>
            2.9080793261528015e-01 -7.0186659693717957e-02</leafValues></_>
        <_>
          <internalNodes>
            0 -1 204 -1.8912507221102715e-03</internalNodes>
          <leafValues>
            2.3639553785324097e-01 -7.5751237571239471e-02</leafValues></_>
        <_>
          <internalNodes>
            0 -1 277 -2.6195361278951168e-03</internalNodes>
          <leafValues>
            -3.5076346993446350e-01 5.7459384202957153e-02</leafValues></_>
        <_>
          <internalNodes>
            0 -1 346 -4.6185329556465149e-03</internalNodes>
          <leafValues>
            2.9105219244956970e-01 -7.2347506880760193e-02</leafValues></_>
        <_>
          <internalNodes>
            0 -1 1071 -8.5852518677711487e-03</internalNodes>
          <leafValues>
            2.3906302452087402e-01 -8.0283023416996002e-02</leafValues></_>
        <_>
          <internalNodes>
            0 -1 267 6.8584576249122620e-02</internalNodes>
          <leafValues>
            7.7246516942977905e-02 -2.5796490907669067e-01</leafValues></_>
        <_>
          <internalNodes>
            0 -1 1129 -2.7690753340721130e-03</internalNodes>
          <leafValues>
            -5.2781468629837036e-01 3.4344140440225601e-02</leafValues></_>
        <_>
          <internalNodes>
            0 -1 1103 1.1774712220358197e-05</internalNodes>
          <leafValues>
            -1.2873935699462891e-01 1.6226132214069366e-01</leafValues></_>
        <_>
          <internalNodes>
            0 -1 730 -9.1216735541820526e-02</internalNodes>
          <leafValues>
            -4.1111877560615540e-01 4.5927178114652634e-02</leafValues></_>
        <_>
          <internalNodes>
            0 -1 451 -7.1202265098690987e-04</internalNodes>
          <leafValues>
            -2.6606389880180359e-01 6.8964079022407532e-02</leafValues></_>
        <_>
          <internalNodes>
            0 -1 374 4.9389488995075226e-03</internalNodes>
          <leafValues>
            -4.9192175269126892e-02 4.5476478338241577e-01</leafValues></_>
        <_>
          <internalNodes>
            0 -1 397 -1.4864274817227852e-05</internalNodes>
          <leafValues>
            1.5525065362453461e-01 -1.2635716795921326e-01</leafValues></_>
        <_>
          <internalNodes>
            0 -1 408 1.1829843278974295e-03</internalNodes>
          <leafValues>
            -1.1776347458362579e-01 1.5489053726196289e-01</leafValues></_>
        <_>
          <internalNodes>
            0 -1 17 1.7101147770881653e-01</internalNodes>
          <leafValues>
            2.4912476539611816e-02 -7.1923971176147461e-01</leafValues></_>
        <_>
          <internalNodes>
            0 -1 192 8.3366572856903076e-02</internalNodes>
          <leafValues>
            2.0594220608472824e-02 -7.2910809516906738e-01</leafValues></_>
        <_>
          <internalNodes>
            0 -1 953 -2.5013799313455820e-04</internalNodes>
          <leafValues>
            -2.3762577772140503e-01 7.0901028811931610e-02</leafValues></_>
        <_>
          <internalNodes>
            0 -1 829 -1.6247320920228958e-02</internalNodes>
          <leafValues>
            3.1742087006568909e-01 -5.9418287128210068e-02</leafValues></_>
        <_>
          <internalNodes>
            0 -1 1241 2.8322812795522623e-05</internalNodes>
          <leafValues>
            -1.2026276439428329e-01 1.4063310623168945e-01</leafValues></_>
        <_>
          <internalNodes>
            0 -1 932 -1.4530464795825537e-05</internalNodes>
          <leafValues>
            1.4560058712959290e-01 -1.2237312644720078e-01</leafValues></_>
        <_>
          <internalNodes>
            0 -1 1169 -1.3882938772439957e-02</internalNodes>
          <leafValues>
            8.1310528516769409e-01 -2.1021060645580292e-02</leafValues></_>
        <_>
          <internalNodes>
            0 -1 1060 1.3519458007067442e-03</internalNodes>
          <leafValues>
            1.1559660732746124e-01 -1.4948819577693939e-01</leafValues></_>
        <_>
          <internalNodes>
            0 -1 1101 -9.8609935957938433e-04</internalNodes>
          <leafValues>
            -2.6581588387489319e-01 7.2735652327537537e-02</leafValues></_>
        <_>
          <internalNodes>
            0 -1 811 1.6451027477160096e-03</internalNodes>
          <leafValues>
            -5.2644219249486923e-02 3.4654122591018677e-01</leafValues></_>
        <_>
          <internalNodes>
            0 -1 49 -2.5654502678662539e-03</internalNodes>
          <leafValues>
            2.8100812435150146e-01 -5.9486214071512222e-02</leafValues></_>
        <_>
          <internalNodes>
            0 -1 560 -9.6561282873153687e-02</internalNodes>
          <leafValues>
            -4.4048246741294861e-01 3.9544921368360519e-02</leafValues></_>
        <_>
          <internalNodes>
            0 -1 975 1.0760136879980564e-02</internalNodes>
          <leafValues>
            -7.7332958579063416e-02 2.5413751602172852e-01</leafValues></_>
        <_>
          <internalNodes>
            0 -1 1164 -1.3962004231871106e-05</internalNodes>
          <leafValues>
            1.4645476639270782e-01 -1.5718424320220947e-01</leafValues></_>
        <_>
          <internalNodes>
            0 -1 821 -2.8082611970603466e-03</internalNodes>
          <leafValues>
            -4.6156454086303711e-01 3.8653116673231125e-02</leafValues></_>
        <_>
          <internalNodes>
            0 -1 1220 1.4777242540731095e-05</internalNodes>
          <leafValues>
            -1.2274209409952164e-01 1.5293468534946442e-01</leafValues></_>
        <_>
