<?xml version="1.0"?>
<opencv_storage>
<stage14>
  <maxWeakCount>100</maxWeakCount>
  <stageThreshold>-1.0456359386444092e+00</stageThreshold>
  <weakClassifiers>
    <_>
      <internalNodes>
        0 -1 114371 -2.2963571827858686e-03</internalNodes>
      <leafValues>
        2.3283082246780396e-01 -1.5393133461475372e-01</leafValues></_>
    <_>
      <internalNodes>
        0 -1 161653 -3.8331956602632999e-03</internalNodes>
      <leafValues>
        3.4261035919189453e-01 -8.4780082106590271e-02</leafValues></_>
    <_>
      <internalNodes>
        0 -1 20041 1.1004190891981125e-02</internalNodes>
      <leafValues>
        -2.2045937180519104e-01 6.0577053576707840e-02</leafValues></_>
    <_>
      <internalNodes>
        0 -1 84554 -8.8807709515094757e-02</internalNodes>
      <leafValues>
        -4.1224303841590881e-01 6.4666800200939178e-02</leafValues></_>
    <_>
      <internalNodes>
        0 -1 127754 -1.2934072874486446e-03</internalNodes>
      <leafValues>
        -3.5643175244331360e-01 5.3949963301420212e-02</leafValues></_>
    <_>
      <internalNodes>
        0 -1 6698 3.3486518077552319e-03</internalNodes>
      <leafValues>
        -6.3382081687450409e-02 2.4567671120166779e-01</leafValues></_>
    <_>
      <internalNodes>
        0 -1 4133 -5.9784250333905220e-03</internalNodes>
      <leafValues>
        3.2126748561859131e-01 -7.7887549996376038e-02</leafValues></_>
    <_>
      <internalNodes>
        0 -1 8903 3.5829325206577778e-03</internalNodes>
      <leafValues>
        7.8939728438854218e-02 -3.3000203967094421e-01</leafValues></_>
    <_>
      <internalNodes>
        0 -1 18759 1.1989499628543854e-01</internalNodes>
      <leafValues>
        -6.6677086055278778e-02 3.6995419859886169e-01</leafValues></_>
    <_>
      <internalNodes>
        0 -1 130036 -8.6467042565345764e-03</internalNodes>
      <leafValues>
        1.9609230756759644e-01 -9.0110458433628082e-02</leafValues></_>
    <_>
      <internalNodes>
        0 -1 134230 1.1627073399722576e-03</internalNodes>
      <leafValues>
        4.7868467867374420e-02 -2.6655417680740356e-01</leafValues></_>
    <_>
      <internalNodes>
        0 -1 66465 -7.1024164557456970e-02</internalNodes>
      <leafValues>
        -3.0927413702011108e-01 5.4213322699069977e-02</leafValues></_>
    <_>
      <internalNodes>
        0 -1 34216 9.9900010973215103e-03</internalNodes>
      <leafValues>
        8.1243336200714111e-02 -2.1753714978694916e-01</leafValues></_>
    <_>
      <internalNodes>
        0 -1 162332 -4.7898179036565125e-04</internalNodes>
      <leafValues>
        -1.6462531685829163e-01 9.2500686645507812e-02</leafValues></_>
    <_>
      <internalNodes>
        0 -1 157551 -6.8808267824351788e-03</internalNodes>
      <leafValues>
        4.6797403693199158e-01 -3.1032133847475052e-02</leafValues></_>
    <_>
      <internalNodes>
        0 -1 58873 -1.2620343267917633e-01</internalNodes>
      <leafValues>
        -5.9553295373916626e-01 2.4875668808817863e-02</leafValues></_>
    <_>
      <internalNodes>
        0 -1 48458 -5.0939116626977921e-03</internalNodes>
      <leafValues>
        2.0804248750209808e-01 -7.7712900936603546e-02</leafValues></_>
    <_>
      <internalNodes>
        0 -1 24460 -1.4172215014696121e-03</internalNodes>
      <leafValues>
        -2.5565642118453979e-01 5.3518231958150864e-02</leafValues></_>
    <_>
      <internalNodes>
        0 -1 25280 2.9171663336455822e-03</internalNodes>
      <leafValues>
        -3.3107969909906387e-02 5.0152754783630371e-01</leafValues></_>
    <_>
      <internalNodes>
        0 -1 161418 1.8127891235053539e-03</internalNodes>
      <leafValues>
        -7.8674726188182831e-02 1.9761691987514496e-01</leafValues></_>
    <_>
      <internalNodes>
        0 -1 161626 -2.3151165805757046e-03</internalNodes>
      <leafValues>
        -3.7274199724197388e-01 3.7460416555404663e-02</leafValues></_>
    <_>
      <internalNodes>
        0 -1 143356 -2.3196986876428127e-03</internalNodes>
      <leafValues>
        4.8140978813171387e-01 -2.9215961694717407e-02</leafValues></_>
    <_>
      <internalNodes>
        0 -1 138883 -3.2420794013887644e-05</internalNodes>
      <leafValues>
        1.2931685149669647e-01 -1.0842961072921753e-01</leafValues></_>
    <_>
      <internalNodes>
        0 -1 26678 3.5220611095428467e-01</internalNodes>
      <leafValues>
        1.0692570358514786e-02 -9.3928158283233643e-01</leafValues></_>
    <_>
      <internalNodes>
        0 -1 98404 1.0452971328049898e-03</internalNodes>
      <leafValues>
        5.1422420889139175e-02 -2.5983962416648865e-01</leafValues></_>
    <_>
      <internalNodes>
        0 -1 115736 -7.7868364751338959e-03</internalNodes>
      <leafValues>
        4.7037684917449951e-01 -2.8376424685120583e-02</leafValues></_>
    <_>
      <internalNodes>
        0 -1 155166 1.4488277956843376e-02</internalNodes>
      <leafValues>
        -3.3202894032001495e-02 3.7488052248954773e-01</leafValues></_>
    <_>
      <internalNodes>
        0 -1 161172 1.8514746334403753e-03</internalNodes>
      <leafValues>
        5.5820196866989136e-02 -2.5636890530586243e-01</leafValues></_>
    <_>
      <internalNodes>
        0 -1 20993 3.6642099730670452e-03</internalNodes>
      <leafValues>
        -5.1377605646848679e-02 2.4588201940059662e-01</leafValues></_>
    <_>
      <internalNodes>
        0 -1 98272 -8.2639342872425914e-04</internalNodes>
      <leafValues>
        -2.6929134130477905e-01 5.2550103515386581e-02</leafValues></_>
    <_>
      <internalNodes>
        0 -1 133288 -3.4096250310540199e-03</internalNodes>
      <leafValues>
        3.9738160371780396e-01 -3.5585090517997742e-02</leafValues></_>
    <_>
      <internalNodes>
        0 -1 25247 3.0411906540393829e-02</internalNodes>
      <leafValues>
        1.6823615878820419e-02 -8.5246384143829346e-01</leafValues></_>
    <_>
      <internalNodes>
        0 -1 69287 -9.4988308846950531e-03</internalNodes>
      <leafValues>
        -6.4847487211227417e-01 1.4320487156510353e-02</leafValues></_>
    <_>
      <internalNodes>
        0 -1 94287 -5.4301461204886436e-03</internalNodes>
      <leafValues>
        2.0214632153511047e-01 -7.0884615182876587e-02</leafValues></_>
    <_>
      <internalNodes>
        0 -1 94251 -9.6504427492618561e-03</internalNodes>
      <leafValues>
        5.0680118799209595e-01 -2.9359403997659683e-02</leafValues></_>
    <_>
      <internalNodes>
        0 -1 99336 -1.2253657914698124e-03</internalNodes>
      <leafValues>
        -2.9038512706756592e-01 4.7522883862257004e-02</leafValues></_>
    <_>
      <internalNodes>
        0 -1 143941 9.7818300127983093e-03</internalNodes>
      <leafValues>
        -6.4556099474430084e-02 2.2420373558998108e-01</leafValues></_>
    <_>
      <internalNodes>
        0 -1 148127 -2.6109039317816496e-03</internalNodes>
      <leafValues>
        -2.7031791210174561e-01 4.7898221760988235e-02</leafValues></_>
    <_>
      <internalNodes>
        0 -1 146135 -8.6400151252746582e-02</internalNodes>
      <leafValues>
        -6.1204671859741211e-01 2.0736796781420708e-02</leafValues></_>
    <_>
      <internalNodes>
        0 -1 118730 -4.1960431262850761e-03</internalNodes>
      <leafValues>
        1.6139252483844757e-01 -8.5862427949905396e-02</leafValues></_>
    <_>
      <internalNodes>
        0 -1 144051 -4.6753528295084834e-05</internalNodes>
      <leafValues>
        1.1153835058212280e-01 -1.2869173288345337e-01</leafValues></_>
    <_>
      <internalNodes>
        0 -1 11041 -3.4474157728254795e-03</internalNodes>
      <leafValues>
        4.5809331536293030e-01 -3.5194858908653259e-02</leafValues></_>
    <_>
      <internalNodes>
        0 -1 106675 5.3041556384414434e-04</internalNodes>
      <leafValues>
        6.4485713839530945e-02 -2.3827376961708069e-01</leafValues></_>
    <_>
      <internalNodes>
        0 -1 106574 -8.4260420408099890e-04</internalNodes>
      <leafValues>
        -2.1450123190879822e-01 8.0372348427772522e-02</leafValues></_>
    <_>
      <internalNodes>
        0 -1 131883 1.1436723172664642e-02</internalNodes>
      <leafValues>
        -5.4717075079679489e-02 2.6604050397872925e-01</leafValues></_>
    <_>
      <internalNodes>
        0 -1 11025 5.7798083871603012e-03</internalNodes>
      <leafValues>
        -7.6850593090057373e-02 1.8473361432552338e-01</leafValues></_>
    <_>
      <internalNodes>
        0 -1 88803 2.6541116312728263e-05</internalNodes>
      <leafValues>
        -1.0964392125606537e-01 1.2593373656272888e-01</leafValues></_>
    <_>
      <internalNodes>
        0 -1 47675 -5.4747328162193298e-02</internalNodes>
      <leafValues>
        2.1356610953807831e-01 -7.2643436491489410e-02</leafValues></_>
    <_>
      <internalNodes>
        0 -1 98369 -2.2818338125944138e-02</internalNodes>
      <leafValues>
        1.5386937558650970e-01 -1.0003576427698135e-01</leafValues></_>
    <_>
      <internalNodes>
        0 -1 126796 -4.9427729099988937e-02</internalNodes>
      <leafValues>
        -4.6927431225776672e-01 2.7199497446417809e-02</leafValues></_>
    <_>
      <internalNodes>
        0 -1 112804 1.5211728168651462e-05</internalNodes>
      <leafValues>
        -1.1326896399259567e-01 1.2599185109138489e-01</leafValues></_>
    <_>
      <internalNodes>
        0 -1 8809 -6.4741744427010417e-04</internalNodes>
      <leafValues>
        -2.9678133130073547e-01 4.6166047453880310e-02</leafValues></_>
    <_>
      <internalNodes>
        0 -1 25463 6.5794615074992180e-03</internalNodes>
      <leafValues>
        -3.3408947288990021e-02 3.9248859882354736e-01</leafValues></_>
    <_>
      <internalNodes>
        0 -1 129449 4.0317345410585403e-03</internalNodes>
      <leafValues>
        3.4840635955333710e-02 -4.4005143642425537e-01</leafValues></_>
    <_>
      <internalNodes>
        0 -1 53702 -1.3049740344285965e-02</internalNodes>
      <leafValues>
        2.1057043969631195e-01 -7.0096522569656372e-02</leafValues></_>
    <_>
      <internalNodes>
        0 -1 29704 1.2734480202198029e-02</internalNodes>
      <leafValues>
        -1.2919420003890991e-01 1.6176936030387878e-01</leafValues></_>
    <_>
      <internalNodes>
        0 -1 3323 1.3682201504707336e-01</internalNodes>
      <leafValues>
        1.3202399015426636e-02 -9.3428581953048706e-01</leafValues></_>
    <_>
      <internalNodes>
        0 -1 110659 -4.7317296266555786e-03</internalNodes>
      <leafValues>
        2.1143536269664764e-01 -7.3912389576435089e-02</leafValues></_>
    <_>
      <internalNodes>
        0 -1 139145 -7.9184304922819138e-03</internalNodes>
      <leafValues>
        -4.0550538897514343e-01 3.5941280424594879e-02</leafValues></_>
    <_>
      <internalNodes>
        0 -1 101748 -8.8305003009736538e-04</internalNodes>
      <leafValues>
        -1.6890609264373779e-01 8.8715545833110809e-02</leafValues></_>
    <_>
      <internalNodes>
        0 -1 48995 3.1021104659885168e-03</internalNodes>
      <leafValues>
        -5.3683243691921234e-02 2.7878701686859131e-01</leafValues></_>
    <_>
      <internalNodes>
        0 -1 150702 1.4558193273842335e-02</internalNodes>
      <leafValues>
        1.6531506553292274e-02 -8.4612983465194702e-01</leafValues></_>
    <_>
      <internalNodes>
        0 -1 157940 -2.6196986436843872e-03</internalNodes>
      <leafValues>
        5.1970535516738892e-01 -3.0671902000904083e-02</leafValues></_>
    <_>
      <internalNodes>
        0 -1 132757 -4.7240522690117359e-03</internalNodes>
      <leafValues>
        -5.0375443696975708e-01 3.0475672334432602e-02</leafValues></_>
    <_>
      <internalNodes>
        0 -1 14994 1.9324896857142448e-03</internalNodes>
      <leafValues>
        -9.9552460014820099e-02 1.3921616971492767e-01</leafValues></_>
    <_>
      <internalNodes>
        0 -1 97399 -2.4997600121423602e-05</internalNodes>
      <leafValues>
        1.4385078847408295e-01 -1.0552334040403366e-01</leafValues></_>
    <_>
      <internalNodes>
        0 -1 24432 1.2443939340300858e-04</internalNodes>
      <leafValues>
        8.4443606436252594e-02 -1.6312637925148010e-01</leafValues></_>
    <_>
      <internalNodes>
        0 -1 12514 5.1829363219439983e-03</internalNodes>
      <leafValues>
        -6.8378657102584839e-02 2.0854270458221436e-01</leafValues></_>
    <_>
      <internalNodes>
        0 -1 70557 3.2365330844186246e-04</internalNodes>
      <leafValues>
        7.7431328594684601e-02 -1.7000851035118103e-01</leafValues></_>
    <_>
      <internalNodes>
        0 -1 82584 1.4435553550720215e-01</internalNodes>
      <leafValues>
        1.7842445522546768e-02 -8.1932133436203003e-01</leafValues></_>
    <_>
      <internalNodes>
        0 -1 161888 -2.5996002368628979e-03</internalNodes>
      <leafValues>
        2.1695406734943390e-01 -6.3187777996063232e-02</leafValues></_>
    <_>
      <internalNodes>
        0 -1 89244 1.2910097211715765e-05</internalNodes>
      <leafValues>
        -1.1953602731227875e-01 1.1910056322813034e-01</leafValues></_>
    <_>
      <internalNodes>
        0 -1 37995 -8.6669920710846782e-04</internalNodes>
      <leafValues>
        -2.4009779095649719e-01 5.3592972457408905e-02</leafValues></_>
    <_>
      <internalNodes>
        0 -1 342 -1.0619483655318618e-03</internalNodes>
      <leafValues>
        1.5012145042419434e-01 -9.9532216787338257e-02</leafValues></_>
    <_>
      <internalNodes>
        0 -1 10574 2.9285452328622341e-03</internalNodes>
      <leafValues>
        -4.0444258600473404e-02 3.3037856221199036e-01</leafValues></_>
    <_>
      <internalNodes>
        0 -1 21599 -1.8210608512163162e-02</internalNodes>
      <leafValues>
        -8.8879883289337158e-01 1.5300272032618523e-02</leafValues></_>
    <_>
      <internalNodes>
        0 -1 46088 -7.0546066854149103e-04</internalNodes>
      <leafValues>
        -2.2245861589908600e-01 5.3783856332302094e-02</leafValues></_>
    <_>
      <internalNodes>
        0 -1 60421 -2.8714888685499318e-05</internalNodes>
      <leafValues>
        1.2703016400337219e-01 -1.0919447243213654e-01</leafValues></_>
    <_>
      <internalNodes>
        0 -1 47460 -4.0270015597343445e-03</internalNodes>
      <leafValues>
        5.9509319067001343e-01 -2.2854948416352272e-02</leafValues></_>
    <_>
      <internalNodes>
        0 -1 143040 -1.7672483809292316e-03</internalNodes>
      <leafValues>
        -2.2346213459968567e-01 6.0284171253442764e-02</leafValues></_>
    <_>
      <internalNodes>
        0 -1 131004 -1.8932298989966512e-03</internalNodes>
      <leafValues>
        1.4628514647483826e-01 -8.9098349213600159e-02</leafValues></_>
    <_>
      <internalNodes>
        0 -1 150393 1.7768515681382269e-04</internalNodes>
      <leafValues>
        1.1432315409183502e-01 -1.3192534446716309e-01</leafValues></_>
    <_>
      <internalNodes>
        0 -1 161360 -4.1092066094279289e-03</internalNodes>
      <leafValues>
        2.1426729857921600e-01 -6.7278072237968445e-02</leafValues></_>
    <_>
      <internalNodes>
        0 -1 148188 5.4959568660706282e-04</internalNodes>
      <leafValues>
        7.7244661748409271e-02 -1.9297225773334503e-01</leafValues></_>
    <_>
      <internalNodes>
        0 -1 37764 2.4678625166416168e-02</internalNodes>
      <leafValues>
        2.1748205646872520e-02 -7.2137045860290527e-01</leafValues></_>
    <_>
      <internalNodes>
        0 -1 159739 1.2367655290290713e-04</internalNodes>
      <leafValues>
        9.0619266033172607e-02 -1.4949475228786469e-01</leafValues></_>
    <_>
      <internalNodes>
        0 -1 79881 -6.2094600871205330e-03</internalNodes>
      <leafValues>
        1.4807346463203430e-01 -9.6365526318550110e-02</leafValues></_>
    <_>
      <internalNodes>
        0 -1 5851 3.5364984069019556e-03</internalNodes>
      <leafValues>
        -5.1092021167278290e-02 2.6730489730834961e-01</leafValues></_>
    <_>
      <internalNodes>
        0 -1 2178 -3.1853895634412766e-03</internalNodes>
      <leafValues>
        1.5502664446830750e-01 -9.6544444561004639e-02</leafValues></_>
    <_>
      <internalNodes>
        0 -1 157106 -1.2081789463991299e-05</internalNodes>
      <leafValues>
        1.3845424354076385e-01 -9.9192090332508087e-02</leafValues></_>
    <_>
      <internalNodes>
        0 -1 157103 -2.4661647330503911e-05</internalNodes>
      <leafValues>
        1.1101144552230835e-01 -1.3003844022750854e-01</leafValues></_>
    <_>
      <internalNodes>
        0 -1 157661 -1.2184200808405876e-02</internalNodes>
      <leafValues>
        -5.7034355401992798e-01 2.3757856339216232e-02</leafValues></_>
    <_>
      <internalNodes>
        0 -1 14426 -4.3107550591230392e-03</internalNodes>
      <leafValues>
        6.1966949701309204e-01 -2.5989057496190071e-02</leafValues></_>
    <_>
      <internalNodes>
        0 -1 149498 4.8110999166965485e-02</internalNodes>
      <leafValues>
        -2.6854105293750763e-02 4.5875105261802673e-01</leafValues></_>
    <_>
      <internalNodes>
        0 -1 136382 7.9154014587402344e-02</internalNodes>
      <leafValues>
        3.0426573008298874e-02 -5.2335995435714722e-01</leafValues></_>
    <_>
      <internalNodes>
        0 -1 144924 -6.5373338758945465e-02</internalNodes>
      <leafValues>
        6.3687783479690552e-01 -2.6601871475577354e-02</leafValues></_>
    <_>
      <internalNodes>
        0 -1 40247 -1.0635390877723694e-02</internalNodes>
      <leafValues>
        2.4446329474449158e-01 -5.1973514258861542e-02</leafValues></_>
    <_>
      <internalNodes>
        0 -1 134532 -9.1401346027851105e-02</internalNodes>
      <leafValues>
        2.0889228582382202e-01 -7.3679752647876740e-02</leafValues></_>
    <_>
      <internalNodes>
        0 -1 53659 3.3540993928909302e-02</internalNodes>
      <leafValues>
        2.2658344358205795e-02 -6.5198606252670288e-01</leafValues></_>
    <_>
      <internalNodes>
        0 -1 94073 -1.4136567711830139e-01</internalNodes>
      <leafValues>
        -5.8723217248916626e-01 2.0627342164516449e-02</leafValues></_></weakClassifiers></stage14>
</opencv_storage>
